#! FIELDS DIH_12 OOP_12 ext_12_nb.bias der_DIH_12 der_OOP_12
#! SET min_DIH_12 -pi
#! SET max_DIH_12 pi
#! SET nbins_DIH_12 199
#! SET periodic_DIH_12 true
#! SET min_OOP_12 0
#! SET max_OOP_12 2*pi
#! SET nbins_OOP_12 199
#! SET periodic_OOP_12 false
-3.141593 0.000000 19.251543 0.000000 0.000009
-3.110019 0.000000 19.238192 0.844973 0.000007
-3.078445 0.000000 19.198277 1.681244 -0.000001
-3.046871 0.000000 19.132208 2.500229 -0.000014
-3.015297 0.000000 19.040664 3.293567 -0.000032
-2.983724 0.000000 18.924582 4.053237 -0.000055
-2.952150 0.000000 18.785146 4.771660 -0.000083
-2.920576 0.000000 18.623771 5.441796 -0.000114
-2.889002 0.000000 18.442085 6.057237 -0.000150
-2.857428 0.000000 18.241907 6.612284 -0.000190
-2.825855 0.000000 18.025223 7.102022 -0.000234
-2.794281 0.000000 17.794162 7.522377 -0.000280
-2.762707 0.000000 17.550967 7.870166 -0.000329
-2.731133 0.000000 17.297968 8.143124 -0.000380
-2.699560 0.000000 17.037550 8.339935 -0.000433
-2.667986 0.000000 16.772127 8.460230 -0.000488
-2.636412 0.000000 16.504107 8.504588 -0.000543
-2.604838 0.000000 16.235866 8.474510 -0.000598
-2.573264 0.000000 15.969720 8.372393 -0.000653
-2.541691 0.000000 15.707894 8.201478 -0.000708
-2.510117 0.000000 15.452499 7.965795 -0.000761
-2.478543 0.000000 15.205505 7.670100 -0.000813
-2.446969 0.000000 14.968725 7.319787 -0.000863
-2.415395 0.000000 14.743791 6.920812 -0.000910
-2.383822 0.000000 14.532137 6.479595 -0.000954
-2.352248 0.000000 14.334993 6.002917 -0.000995
-2.320674 0.000000 14.153367 5.497826 -0.001032
-2.289100 0.000000 13.988042 4.971522 -0.001065
-2.257526 0.000000 13.839574 4.431255 -0.001094
-2.225953 0.000000 13.708290 3.884218 -0.001118
-2.194379 0.000000 13.594292 3.337443 -0.001137
-2.162805 0.000000 13.497464 2.797699 -0.001151
-2.131231 0.000000 13.417482 2.271401 -0.001160
-2.099657 0.000000 13.353826 1.764520 -0.001164
-2.068084 0.000000 13.305795 1.282504 -0.001162
-2.036510 0.000000 13.272526 0.830205 -0.001155
-2.004936 0.000000 13.253013 0.411824 -0.001143
-1.973362 0.000000 13.246127 0.030857 -0.001126
-1.941788 0.000000 13.250641 -0.309943 -0.001104
-1.910215 0.000000 13.265255 -0.608585 -0.001077
-1.878641 0.000000 13.288615 -0.863860 -0.001046
-1.847067 0.000000 13.319344 -1.075337 -0.001010
-1.815493 0.000000 13.356062 -1.243351 -0.000970
-1.783919 0.000000 13.397413 -1.368979 -0.000927
-1.752346 0.000000 13.442083 -1.454006 -0.000881
-1.720772 0.000000 13.488828 -1.500874 -0.000832
-1.689198 0.000000 13.536489 -1.512627 -0.000780
-1.657624 0.000000 13.584014 -1.492845 -0.000727
-1.626050 0.000000 13.630469 -1.445567 -0.000672
-1.594477 0.000000 13.675055 -1.375214 -0.000616
-1.562903 0.000000 13.717118 -1.286502 -0.000559
-1.531329 0.000000 13.756154 -1.184348 -0.000503
-1.499755 0.000000 13.791818 -1.073782 -0.000448
-1.468181 0.000000 13.823925 -0.959852 -0.000393
-1.436608 0.000000 13.852447 -0.847531 -0.000340
-1.405034 0.000000 13.877512 -0.741627 -0.000289
-1.373460 0.000000 13.899395 -0.646697 -0.000240
-1.341886 0.000000 13.918510 -0.566965 -0.000195
-1.310313 0.000000 13.935398 -0.506247 -0.000153
-1.278739 0.000000 13.950713 -0.467881 -0.000114
-1.247165 0.000000 13.965208 -0.454675 -0.000080
-1.215591 0.000000 13.979713 -0.468849 -0.000050
-1.184017 0.000000 13.995120 -0.512001 -0.000024
-1.152444 0.000000 14.012360 -0.585082 -0.000004
-1.120870 0.000000 14.032385 -0.688371 0.000012
-1.089296 0.000000 14.056143 -0.821478 0.000022
-1.057722 0.000000 14.084562 -0.983347 0.000027
-1.026148 0.000000 14.118524 -1.172277 0.000026
-0.994575 0.000000 14.158849 -1.385946 0.000020
-0.963001 0.000000 14.206273 -1.621457 0.000009
-0.931427 0.000000 14.261434 -1.875385 -0.000007
-0.899853 0.000000 14.324852 -2.143835 -0.000029
-0.868279 0.000000 14.396920 -2.422512 -0.000055
-0.836706 0.000000 14.477887 -2.706792 -0.000086
-0.805132 0.000000 14.567855 -2.991804 -0.000122
-0.773558 0.000000 14.666767 -3.272510 -0.000161
-0.741984 0.000000 14.774407 -3.543799 -0.000204
-0.710410 0.000000 14.890397 -3.800566 -0.000251
-0.678837 0.000000 15.014198 -4.037810 -0.000300
-0.647263 0.000000 15.145118 -4.250711 -0.000352
-0.615689 0.000000 15.282316 -4.434723 -0.000406
-0.584115 0.000000 15.424812 -4.585648 -0.000462
-0.552541 0.000000 15.571501 -4.699713 -0.000518
-0.520968 0.000000 15.721165 -4.773635 -0.000575
-0.489394 0.000000 15.872493 -4.804682 -0.000632
-0.457820 0.000000 16.024095 -4.790721 -0.000688
-0.426246 0.000000 16.174526 -4.730264 -0.000743
-0.394672 0.000000 16.322302 -4.622492 -0.000797
-0.363099 0.000000 16.465925 -4.467276 -0.000849
-0.331525 0.000000 16.603906 -4.265190 -0.000898
-0.299951 0.000000 16.734781 -4.017498 -0.000945
-0.268377 0.000000 16.857141 -3.726151 -0.000988
-0.236803 0.000000 16.969647 -3.393749 -0.001027
-0.205230 0.000000 17.071050 -3.023515 -0.001062
-0.173656 0.000000 17.160216 -2.619243 -0.001093
-0.142082 0.000000 17.236136 -2.185241 -0.001119
-0.110508 0.000000 17.297946 -1.726272 -0.001140
-0.078934 0.000000 17.344937 -1.247477 -0.001156
-0.047361 0.000000 17.376569 -0.754301 -0.001167
-0.015787 0.000000 17.392478 -0.252407 -0.001172
0.015787 0.000000 17.392478 0.252407 -0.001172
0.047361 0.000000 17.376569 0.754301 -0.001167
0.078934 0.000000 17.344937 1.247477 -0.001156
0.110508 0.000000 17.297946 1.726272 -0.001140
0.142082 0.000000 17.236136 2.185241 -0.001119
0.173656 0.000000 17.160216 2.619243 -0.001093
0.205230 0.000000 17.071050 3.023515 -0.001062
0.236803 0.000000 16.969647 3.393749 -0.001027
0.268377 0.000000 16.857141 3.726151 -0.000988
0.299951 0.000000 16.734781 4.017498 -0.000945
0.331525 0.000000 16.603906 4.265190 -0.000898
0.363099 0.000000 16.465925 4.467276 -0.000849
0.394672 0.000000 16.322302 4.622492 -0.000797
0.426246 0.000000 16.174526 4.730264 -0.000743
0.457820 0.000000 16.024095 4.790721 -0.000688
0.489394 0.000000 15.872493 4.804682 -0.000632
0.520968 0.000000 15.721165 4.773635 -0.000575
0.552541 0.000000 15.571501 4.699713 -0.000518
0.584115 0.000000 15.424812 4.585648 -0.000462
0.615689 0.000000 15.282316 4.434723 -0.000406
0.647263 0.000000 15.145118 4.250711 -0.000352
0.678837 0.000000 15.014198 4.037810 -0.000300
0.710410 0.000000 14.890397 3.800566 -0.000251
0.741984 0.000000 14.774407 3.543799 -0.000204
0.773558 0.000000 14.666767 3.272510 -0.000161
0.805132 0.000000 14.567855 2.991804 -0.000122
0.836706 0.000000 14.477887 2.706792 -0.000086
0.868279 0.000000 14.396920 2.422512 -0.000055
0.899853 0.000000 14.324852 2.143835 -0.000029
0.931427 0.000000 14.261434 1.875385 -0.000007
0.963001 0.000000 14.206273 1.621457 0.000009
0.994575 0.000000 14.158849 1.385946 0.000020
1.026148 0.000000 14.118524 1.172277 0.000026
1.057722 0.000000 14.084562 0.983347 0.000027
1.089296 0.000000 14.056143 0.821478 0.000022
1.120870 0.000000 14.032385 0.688371 0.000012
1.152444 0.000000 14.012360 0.585082 -0.000004
1.184017 0.000000 13.995120 0.512001 -0.000024
1.215591 0.000000 13.979713 0.468849 -0.000050
1.247165 0.000000 13.965208 0.454675 -0.000080
1.278739 0.000000 13.950713 0.467881 -0.000114
1.310313 0.000000 13.935398 0.506247 -0.000153
1.341886 0.000000 13.918510 0.566965 -0.000195
1.373460 0.000000 13.899395 0.646697 -0.000240
1.405034 0.000000 13.877512 0.741627 -0.000289
1.436608 0.000000 13.852447 0.847531 -0.000340
1.468181 0.000000 13.823925 0.959852 -0.000393
1.499755 0.000000 13.791818 1.073782 -0.000448
1.531329 0.000000 13.756154 1.184348 -0.000503
1.562903 0.000000 13.717118 1.286502 -0.000559
1.594477 0.000000 13.675055 1.375214 -0.000616
1.626050 0.000000 13.630469 1.445567 -0.000672
1.657624 0.000000 13.584014 1.492845 -0.000727
1.689198 0.000000 13.536489 1.512627 -0.000780
1.720772 0.000000 13.488828 1.500874 -0.000832
1.752346 0.000000 13.442083 1.454006 -0.000881
1.783919 0.000000 13.397413 1.368979 -0.000927
1.815493 0.000000 13.356062 1.243351 -0.000970
1.847067 0.000000 13.319344 1.075337 -0.001010
1.878641 0.000000 13.288615 0.863860 -0.001046
1.910215 0.000000 13.265255 0.608585 -0.001077
1.941788 0.000000 13.250641 0.309943 -0.001104
1.973362 0.000000 13.246127 -0.030857 -0.001126
2.004936 0.000000 13.253013 -0.411824 -0.001143
2.036510 0.000000 13.272526 -0.830205 -0.001155
2.068084 0.000000 13.305795 -1.282504 -0.001162
2.099657 0.000000 13.353826 -1.764520 -0.001164
2.131231 0.000000 13.417482 -2.271401 -0.001160
2.162805 0.000000 13.497464 -2.797699 -0.001151
2.194379 0.000000 13.594292 -3.337443 -0.001137
2.225953 0.000000 13.708290 -3.884218 -0.001118
2.257526 0.000000 13.839574 -4.431255 -0.001094
2.289100 0.000000 13.988042 -4.971522 -0.001065
2.320674 0.000000 14.153367 -5.497826 -0.001032
2.352248 0.000000 14.334993 -6.002917 -0.000995
2.383822 0.000000 14.532137 -6.479595 -0.000954
2.415395 0.000000 14.743791 -6.920812 -0.000910
2.446969 0.000000 14.968725 -7.319787 -0.000863
2.478543 0.000000 15.205505 -7.670100 -0.000813
2.510117 0.000000 15.452499 -7.965795 -0.000761
2.541691 0.000000 15.707894 -8.201478 -0.000708
2.573264 0.000000 15.969720 -8.372393 -0.000653
2.604838 0.000000 16.235866 -8.474510 -0.000598
2.636412 0.000000 16.504107 -8.504588 -0.000543
2.667986 0.000000 16.772127 -8.460230 -0.000488
2.699560 0.000000 17.037550 -8.339935 -0.000433
2.731133 0.000000 17.297968 -8.143124 -0.000380
2.762707 0.000000 17.550967 -7.870166 -0.000329
2.794281 0.000000 17.794162 -7.522377 -0.000280
2.825855 0.000000 18.025223 -7.102022 -0.000234
2.857428 0.000000 18.241907 -6.612284 -0.000190
2.889002 0.000000 18.442085 -6.057237 -0.000150
2.920576 0.000000 18.623771 -5.441796 -0.000114
2.952150 0.000000 18.785146 -4.771660 -0.000083
2.983724 0.000000 18.924582 -4.053237 -0.000055
3.015297 0.000000 19.040664 -3.293567 -0.000032
3.046871 0.000000 19.132208 -2.500229 -0.000014
3.078445 0.000000 19.198277 -1.681244 -0.000001
3.110019 0.000000 19.238192 -0.844973 0.000007

-3.141593 0.031574 19.251831 0.000000 -0.072735
-3.110019 0.031574 19.238479 0.844982 -0.072697
-3.078445 0.031574 19.198564 1.681263 -0.072581
-3.046871 0.031574 19.132494 2.500258 -0.072377
-3.015297 0.031574 19.040948 3.293610 -0.072069
-2.983724 0.031574 18.924865 4.053297 -0.071637
-2.952150 0.031574 18.785427 4.771740 -0.071054
-2.920576 0.031574 18.624049 5.441901 -0.070288
-2.889002 0.031574 18.442360 6.057370 -0.069305
-2.857428 0.031574 18.242177 6.612451 -0.068066
-2.825855 0.031574 18.025487 7.102229 -0.066528
-2.794281 0.031574 17.794419 7.522629 -0.064651
-2.762707 0.031574 17.551215 7.870468 -0.062388
-2.731133 0.031574 17.298205 8.143482 -0.059698
-2.699560 0.031574 17.037775 8.340354 -0.056538
-2.667986 0.031574 16.772338 8.460715 -0.052867
-2.636412 0.031574 16.504301 8.505144 -0.048649
-2.604838 0.031574 16.236042 8.475141 -0.043851
-2.573264 0.031574 15.969875 8.373101 -0.038445
-2.541691 0.031574 15.708025 8.202266 -0.032410
-2.510117 0.031574 15.452603 7.966665 -0.025729
-2.478543 0.031574 15.205581 7.671051 -0.018396
-2.446969 0.031574 14.968770 7.320820 -0.010409
-2.415395 0.031574 14.743801 6.921926 -0.001777
-2.383822 0.031574 14.532112 6.480785 0.007483
-2.352248 0.031574 14.334929 6.004182 0.017346
-2.320674 0.031574 14.153261 5.499160 0.027776
-2.289100 0.031574 13.987893 4.972919 0.038732
-2.257526 0.031574 13.839380 4.432708 0.050159
-2.225953 0.031574 13.708050 3.885719 0.061999
-2.194379 0.031574 13.594004 3.338982 0.074183
-2.162805 0.031574 13.497127 2.799267 0.086634
-2.131231 0.031574 13.417095 2.272988 0.099272
-2.099657 0.031574 13.353389 1.766114 0.112007
-2.068084 0.031574 13.305308 1.284093 0.124748
-2.036510 0.031574 13.271989 0.831778 0.137398
-2.004936 0.031574 13.252426 0.413368 0.149857
-1.973362 0.031574 13.245492 0.032358 0.162024
-1.941788 0.031574 13.249960 -0.308496 0.173799
-1.910215 0.031574 13.264529 -0.607206 0.185080
-1.878641 0.031574 13.287847 -0.862561 0.195769
-1.847067 0.031574 13.318536 -1.074129 0.205770
-1.815493 0.031574 13.355218 -1.242245 0.214991
-1.783919 0.031574 13.396535 -1.367986 0.223348
-1.752346 0.031574 13.441175 -1.453136 0.230759
-1.720772 0.031574 13.487895 -1.500135 0.237154
-1.689198 0.031574 13.535536 -1.512026 0.242468
-1.657624 0.031574 13.583044 -1.492388 0.246647
-1.626050 0.031574 13.629487 -1.445260 0.249645
-1.594477 0.031574 13.674066 -1.375062 0.251428
-1.562903 0.031574 13.716125 -1.286505 0.251972
-1.531329 0.031574 13.755164 -1.184508 0.251263
-1.499755 0.031574 13.790836 -1.074099 0.249301
-1.468181 0.031574 13.822955 -0.960323 0.246094
-1.436608 0.031574 13.851495 -0.848154 0.241662
-1.405034 0.031574 13.876582 -0.742397 0.236036
-1.373460 0.031574 13.898491 -0.647609 0.229257
-1.341886 0.031574 13.917637 -0.568011 0.221376
-1.310313 0.031574 13.934560 -0.507419 0.212453
-1.278739 0.031574 13.949914 -0.469172 0.202555
-1.247165 0.031574 13.964452 -0.456073 0.191759
-1.215591 0.031574 13.979002 -0.470344 0.180147
-1.184017 0.031574 13.994458 -0.513583 0.167805
-1.152444 0.031574 14.011749 -0.586738 0.154825
-1.120870 0.031574 14.031827 -0.690089 0.141303
-1.089296 0.031574 14.055640 -0.823247 0.127336
-1.057722 0.031574 14.084116 -0.985154 0.113022
-1.026148 0.031574 14.118135 -1.174109 0.098459
-0.994575 0.031574 14.158518 -1.387792 0.083744
-0.963001 0.031574 14.206001 -1.623305 0.068972
-0.931427 0.031574 14.261220 -1.877224 0.054233
-0.899853 0.031574 14.324696 -2.145654 0.039616
-0.868279 0.031574 14.396821 -2.424301 0.025203
-0.836706 0.031574 14.477844 -2.708543 0.011070
-0.805132 0.031574 14.567866 -2.993507 -0.002712
-0.773558 0.031574 14.666831 -3.274158 -0.016080
-0.741984 0.031574 14.774522 -3.545385 -0.028978
-0.710410 0.031574 14.890561 -3.802086 -0.041357
-0.678837 0.031574 15.014409 -4.039257 -0.053176
-0.647263 0.031574 15.145374 -4.252083 -0.064400
-0.615689 0.031574 15.282614 -4.436016 -0.075006
-0.584115 0.031574 15.425149 -4.586861 -0.084973
-0.552541 0.031574 15.571875 -4.700844 -0.094291
-0.520968 0.031574 15.721574 -4.774684 -0.102956
-0.489394 0.031574 15.872933 -4.805650 -0.110967
-0.457820 0.031574 16.024565 -4.791609 -0.118332
-0.426246 0.031574 16.175022 -4.731073 -0.125064
-0.394672 0.031574 16.322823 -4.623224 -0.131177
-0.363099 0.031574 16.466468 -4.467935 -0.136691
-0.331525 0.031574 16.604468 -4.265778 -0.141628
-0.299951 0.031574 16.735362 -4.018018 -0.146011
-0.268377 0.031574 16.857737 -3.726606 -0.149865
-0.236803 0.031574 16.970256 -3.394142 -0.153215
-0.205230 0.031574 17.071670 -3.023849 -0.156084
-0.173656 0.031574 17.160846 -2.619520 -0.158496
-0.142082 0.031574 17.236774 -2.185464 -0.160471
-0.110508 0.031574 17.298590 -1.726443 -0.162027
-0.078934 0.031574 17.345586 -1.247598 -0.163181
-0.047361 0.031574 17.377221 -0.754373 -0.163943
-0.015787 0.031574 17.393131 -0.252431 -0.164322
0.015787 0.031574 17.393131 0.252431 -0.164322
0.047361 0.031574 17.377221 0.754373 -0.163943
0.078934 0.031574 17.345586 1.247598 -0.163181
0.110508 0.031574 17.298590 1.726443 -0.162027
0.142082 0.031574 17.236774 2.185464 -0.160471
0.173656 0.031574 17.160846 2.619520 -0.158496
0.205230 0.031574 17.071670 3.023849 -0.156084
0.236803 0.031574 16.970256 3.394142 -0.153215
0.268377 0.031574 16.857737 3.726606 -0.149865
0.299951 0.031574 16.735362 4.018018 -0.146011
0.331525 0.031574 16.604468 4.265778 -0.141628
0.363099 0.031574 16.466468 4.467935 -0.136691
0.394672 0.031574 16.322823 4.623224 -0.131177
0.426246 0.031574 16.175022 4.731073 -0.125064
0.457820 0.031574 16.024565 4.791609 -0.118332
0.489394 0.031574 15.872933 4.805650 -0.110967
0.520968 0.031574 15.721574 4.774684 -0.102956
0.552541 0.031574 15.571875 4.700844 -0.094291
0.584115 0.031574 15.425149 4.586861 -0.084973
0.615689 0.031574 15.282614 4.436016 -0.075006
0.647263 0.031574 15.145374 4.252083 -0.064400
0.678837 0.031574 15.014409 4.039257 -0.053176
0.710410 0.031574 14.890561 3.802086 -0.041357
0.741984 0.031574 14.774522 3.545385 -0.028978
0.773558 0.031574 14.666831 3.274158 -0.016080
0.805132 0.031574 14.567866 2.993507 -0.002712
0.836706 0.031574 14.477844 2.708543 0.011070
0.868279 0.031574 14.396821 2.424301 0.025203
0.899853 0.031574 14.324696 2.145654 0.039616
0.931427 0.031574 14.261220 1.877224 0.054233
0.963001 0.031574 14.206001 1.623305 0.068972
0.994575 0.031574 14.158518 1.387792 0.083744
1.026148 0.031574 14.118135 1.174109 0.098459
1.057722 0.031574 14.084116 0.985154 0.113022
1.089296 0.031574 14.055640 0.823247 0.127336
1.120870 0.031574 14.031827 0.690089 0.141303
1.152444 0.031574 14.011749 0.586738 0.154825
1.184017 0.031574 13.994458 0.513583 0.167805
1.215591 0.031574 13.979002 0.470344 0.180147
1.247165 0.031574 13.964452 0.456073 0.191759
1.278739 0.031574 13.949914 0.469172 0.202555
1.310313 0.031574 13.934560 0.507419 0.212453
1.341886 0.031574 13.917637 0.568011 0.221376
1.373460 0.031574 13.898491 0.647609 0.229257
1.405034 0.031574 13.876582 0.742397 0.236036
1.436608 0.031574 13.851495 0.848154 0.241662
1.468181 0.031574 13.822955 0.960323 0.246094
1.499755 0.031574 13.790836 1.074099 0.249301
1.531329 0.031574 13.755164 1.184508 0.251263
1.562903 0.031574 13.716125 1.286505 0.251972
1.594477 0.031574 13.674066 1.375062 0.251428
1.626050 0.031574 13.629487 1.445260 0.249645
1.657624 0.031574 13.583044 1.492388 0.246647
1.689198 0.031574 13.535536 1.512026 0.242468
1.720772 0.031574 13.487895 1.500135 0.237154
1.752346 0.031574 13.441175 1.453136 0.230759
1.783919 0.031574 13.396535 1.367986 0.223348
1.815493 0.031574 13.355218 1.242245 0.214991
1.847067 0.031574 13.318536 1.074129 0.205770
1.878641 0.031574 13.287847 0.862561 0.195769
1.910215 0.031574 13.264529 0.607206 0.185080
1.941788 0.031574 13.249960 0.308496 0.173799
1.973362 0.031574 13.245492 -0.032358 0.162024
2.004936 0.031574 13.252426 -0.413368 0.149857
2.036510 0.031574 13.271989 -0.831778 0.137398
2.068084 0.031574 13.305308 -1.284093 0.124748
2.099657 0.031574 13.353389 -1.766114 0.112007
2.131231 0.031574 13.417095 -2.272988 0.099272
2.162805 0.031574 13.497127 -2.799267 0.086634
2.194379 0.031574 13.594004 -3.338982 0.074183
2.225953 0.031574 13.708050 -3.885719 0.061999
2.257526 0.031574 13.839380 -4.432708 0.050159
2.289100 0.031574 13.987893 -4.972919 0.038732
2.320674 0.031574 14.153261 -5.499160 0.027776
2.352248 0.031574 14.334929 -6.004182 0.017346
2.383822 0.031574 14.532112 -6.480785 0.007483
2.415395 0.031574 14.743801 -6.921926 -0.001777
2.446969 0.031574 14.968770 -7.320820 -0.010409
2.478543 0.031574 15.205581 -7.671051 -0.018396
2.510117 0.031574 15.452603 -7.966665 -0.025729
2.541691 0.031574 15.708025 -8.202266 -0.032410
2.573264 0.031574 15.969875 -8.373101 -0.038445
2.604838 0.031574 16.236042 -8.475141 -0.043851
2.636412 0.031574 16.504301 -8.505144 -0.048649
2.667986 0.031574 16.772338 -8.460715 -0.052867
2.699560 0.031574 17.037775 -8.340354 -0.056538
2.731133 0.031574 17.298205 -8.143482 -0.059698
2.762707 0.031574 17.551215 -7.870468 -0.062388
2.794281 0.031574 17.794419 -7.522629 -0.064651
2.825855 0.031574 18.025487 -7.102229 -0.066528
2.857428 0.031574 18.242177 -6.612451 -0.068066
2.889002 0.031574 18.442360 -6.057370 -0.069305
2.920576 0.031574 18.624049 -5.441901 -0.070288
2.952150 0.031574 18.785427 -4.771740 -0.071054
2.983724 0.031574 18.924865 -4.053297 -0.071637
3.015297 0.031574 19.040948 -3.293610 -0.072069
3.046871 0.031574 19.132494 -2.500258 -0.072377
3.078445 0.031574 19.198564 -1.681263 -0.072581
3.110019 0.031574 19.238479 -0.844982 -0.072697

-3.141593 0.063148 19.252690 0.000000 -0.144754
-3.110019 0.063148 19.239338 0.845011 -0.144676
-3.078445 0.063148 19.199421 1.681323 -0.144436
-3.046871 0.063148 19.133349 2.500355 -0.144014
-3.015297 0.063148 19.041799 3.293750 -0.143381
-2.983724 0.063148 18.925711 4.053489 -0.142494
-2.952150 0.063148 18.786266 4.771995 -0.141301
-2.920576 0.063148 18.624879 5.442230 -0.139738
-2.889002 0.063148 18.443177 6.057789 -0.137737
-2.857428 0.063148 18.242980 6.612974 -0.135220
-2.825855 0.063148 18.026272 7.102872 -0.132104
-2.794281 0.063148 17.795181 7.523409 -0.128305
-2.762707 0.063148 17.551950 7.871400 -0.123735
-2.731133 0.063148 17.298909 8.144583 -0.118308
-2.699560 0.063148 17.038441 8.341639 -0.111939
-2.667986 0.063148 16.772960 8.462199 -0.104550
-2.636412 0.063148 16.504873 8.506838 -0.096068
-2.604838 0.063148 16.236557 8.477058 -0.086426
-2.573264 0.063148 15.970325 8.375251 -0.075570
-2.541691 0.063148 15.708404 8.204655 -0.063457
-2.510117 0.063148 15.452903 7.969297 -0.050057
-2.478543 0.063148 15.205794 7.673929 -0.035353
-2.446969 0.063148 14.968888 7.323941 -0.019348
-2.415395 0.063148 14.743817 6.925285 -0.002056
-2.383822 0.063148 14.532018 6.484376 0.016488
-2.352248 0.063148 14.334718 6.007992 0.036232
-2.320674 0.063148 14.152927 5.503175 0.057106
-2.289100 0.063148 13.987429 4.977121 0.079024
-2.257526 0.063148 13.838781 4.437075 0.101882
-2.225953 0.063148 13.707310 3.890228 0.125557
-2.194379 0.063148 13.593120 3.343606 0.149915
-2.162805 0.063148 13.496096 2.803976 0.174802
-2.131231 0.063148 13.415914 2.277749 0.200055
-2.099657 0.063148 13.352057 1.770894 0.225499
-2.068084 0.063148 13.303825 1.288857 0.250948
-2.036510 0.063148 13.270357 0.836488 0.276209
-2.004936 0.063148 13.250646 0.417987 0.301085
-1.973362 0.063148 13.243568 0.036848 0.325372
-1.941788 0.063148 13.247897 -0.304173 0.348869
-1.910215 0.063148 13.262333 -0.603087 0.371375
-1.878641 0.063148 13.285524 -0.858682 0.392694
-1.847067 0.063148 13.316096 -1.070526 0.412633
-1.815493 0.063148 13.352668 -1.238951 0.431012
-1.783919 0.063148 13.393886 -1.365033 0.447658
-1.752346 0.063148 13.438440 -1.450551 0.462414
-1.720772 0.063148 13.485084 -1.497944 0.475135
-1.689198 0.063148 13.532662 -1.510251 0.485694
-1.657624 0.063148 13.580121 -1.491048 0.493984
-1.626050 0.063148 13.626528 -1.444370 0.499913
-1.594477 0.063148 13.671086 -1.374632 0.503414
-1.562903 0.063148 13.713140 -1.286543 0.504439
-1.531329 0.063148 13.752187 -1.185017 0.502962
-1.499755 0.063148 13.787882 -1.075076 0.498980
-1.468181 0.063148 13.820040 -0.961764 0.492512
-1.436608 0.063148 13.848632 -0.850048 0.483598
-1.405034 0.063148 13.873786 -0.744731 0.472301
-1.373460 0.063148 13.895776 -0.650366 0.458704
-1.341886 0.063148 13.915015 -0.571170 0.442907
-1.310313 0.063148 13.932044 -0.510956 0.425032
-1.278739 0.063148 13.947516 -0.473060 0.405213
-1.247165 0.063148 13.962181 -0.460283 0.383604
-1.215591 0.063148 13.976869 -0.474843 0.360367
-1.184017 0.063148 13.992471 -0.518338 0.335677
-1.152444 0.063148 14.009916 -0.591713 0.309718
-1.120870 0.063148 14.030154 -0.695249 0.282681
-1.089296 0.063148 14.054133 -0.828554 0.254759
-1.057722 0.063148 14.082777 -0.990573 0.226149
-1.026148 0.063148 14.116969 -1.179602 0.197047
-0.994575 0.063148 14.157526 -1.393324 0.167646
-0.963001 0.063148 14.205184 -1.628840 0.138136
-0.931427 0.063148 14.260577 -1.882729 0.108698
-0.899853 0.063148 14.324226 -2.151097 0.079508
-0.868279 0.063148 14.396521 -2.429653 0.050730
-0.836706 0.063148 14.477712 -2.713775 0.022516
-0.805132 0.063148 14.567897 -2.998595 -0.004994
-0.773558 0.063148 14.667020 -3.279080 -0.031672
-0.741984 0.063148 14.774864 -3.550120 -0.057407
-0.710410 0.063148 14.891049 -3.806618 -0.082101
-0.678837 0.063148 15.015037 -4.043572 -0.105674
-0.647263 0.063148 15.146134 -4.256169 -0.128058
-0.615689 0.063148 15.283499 -4.439867 -0.149202
-0.584115 0.063148 15.426152 -4.590470 -0.169070
-0.552541 0.063148 15.572988 -4.704208 -0.187640
-0.520968 0.063148 15.722789 -4.777803 -0.204903
-0.489394 0.063148 15.874243 -4.808524 -0.220861
-0.457820 0.063148 16.025962 -4.794244 -0.235530
-0.426246 0.063148 16.176499 -4.733473 -0.248932
-0.394672 0.063148 16.324371 -4.625396 -0.261100
-0.363099 0.063148 16.468082 -4.469887 -0.272073
-0.331525 0.063148 16.606140 -4.267517 -0.281895
-0.299951 0.063148 16.737085 -4.019556 -0.290613
-0.268377 0.063148 16.859506 -3.727949 -0.298276
-0.236803 0.063148 16.972064 -3.395302 -0.304935
-0.205230 0.063148 17.073513 -3.024834 -0.310638
-0.173656 0.063148 17.162717 -2.620338 -0.315430
-0.142082 0.063148 17.238668 -2.186123 -0.319353
-0.110508 0.063148 17.300502 -1.726948 -0.322445
-0.078934 0.063148 17.347512 -1.247955 -0.324736
-0.047361 0.063148 17.379156 -0.754586 -0.326250
-0.015787 0.063148 17.395070 -0.252502 -0.327003
0.015787 0.063148 17.395070 0.252502 -0.327003
0.047361 0.063148 17.379156 0.754586 -0.326250
0.078934 0.063148 17.347512 1.247955 -0.324736
0.110508 0.063148 17.300502 1.726948 -0.322445
0.142082 0.063148 17.238668 2.186123 -0.319353
0.173656 0.063148 17.162717 2.620338 -0.315430
0.205230 0.063148 17.073513 3.024834 -0.310638
0.236803 0.063148 16.972064 3.395302 -0.304935
0.268377 0.063148 16.859506 3.727949 -0.298276
0.299951 0.063148 16.737085 4.019556 -0.290613
0.331525 0.063148 16.606140 4.267517 -0.281895
0.363099 0.063148 16.468082 4.469887 -0.272073
0.394672 0.063148 16.324371 4.625396 -0.261100
0.426246 0.063148 16.176499 4.733473 -0.248932
0.457820 0.063148 16.025962 4.794244 -0.235530
0.489394 0.063148 15.874243 4.808524 -0.220861
0.520968 0.063148 15.722789 4.777803 -0.204903
0.552541 0.063148 15.572988 4.704208 -0.187640
0.584115 0.063148 15.426152 4.590470 -0.169070
0.615689 0.063148 15.283499 4.439867 -0.149202
0.647263 0.063148 15.146134 4.256169 -0.128058
0.678837 0.063148 15.015037 4.043572 -0.105674
0.710410 0.063148 14.891049 3.806618 -0.082101
0.741984 0.063148 14.774864 3.550120 -0.057407
0.773558 0.063148 14.667020 3.279080 -0.031672
0.805132 0.063148 14.567897 2.998595 -0.004994
0.836706 0.063148 14.477712 2.713775 0.022516
0.868279 0.063148 14.396521 2.429653 0.050730
0.899853 0.063148 14.324226 2.151097 0.079508
0.931427 0.063148 14.260577 1.882729 0.108698
0.963001 0.063148 14.205184 1.628840 0.138136
0.994575 0.063148 14.157526 1.393324 0.167646
1.026148 0.063148 14.116969 1.179602 0.197047
1.057722 0.063148 14.082777 0.990573 0.226149
1.089296 0.063148 14.054133 0.828554 0.254759
1.120870 0.063148 14.030154 0.695249 0.282681
1.152444 0.063148 14.009916 0.591713 0.309718
1.184017 0.063148 13.992471 0.518338 0.335677
1.215591 0.063148 13.976869 0.474843 0.360367
1.247165 0.063148 13.962181 0.460283 0.383604
1.278739 0.063148 13.947516 0.473060 0.405213
1.310313 0.063148 13.932044 0.510956 0.425032
1.341886 0.063148 13.915015 0.571170 0.442907
1.373460 0.063148 13.895776 0.650366 0.458704
1.405034 0.063148 13.873786 0.744731 0.472301
1.436608 0.063148 13.848632 0.850048 0.483598
1.468181 0.063148 13.820040 0.961764 0.492512
1.499755 0.063148 13.787882 1.075076 0.498980
1.531329 0.063148 13.752187 1.185017 0.502962
1.562903 0.063148 13.713140 1.286543 0.504439
1.594477 0.063148 13.671086 1.374632 0.503414
1.626050 0.063148 13.626528 1.444370 0.499913
1.657624 0.063148 13.580121 1.491048 0.493984
1.689198 0.063148 13.532662 1.510251 0.485694
1.720772 0.063148 13.485084 1.497944 0.475135
1.752346 0.063148 13.438440 1.450551 0.462414
1.783919 0.063148 13.393886 1.365033 0.447658
1.815493 0.063148 13.352668 1.238951 0.431012
1.847067 0.063148 13.316096 1.070526 0.412633
1.878641 0.063148 13.285524 0.858682 0.392694
1.910215 0.063148 13.262333 0.603087 0.371375
1.941788 0.063148 13.247897 0.304173 0.348869
1.973362 0.063148 13.243568 -0.036848 0.325372
2.004936 0.063148 13.250646 -0.417987 0.301085
2.036510 0.063148 13.270357 -0.836488 0.276209
2.068084 0.063148 13.303825 -1.288857 0.250948
2.099657 0.063148 13.352057 -1.770894 0.225499
2.131231 0.063148 13.415914 -2.277749 0.200055
2.162805 0.063148 13.496096 -2.803976 0.174802
2.194379 0.063148 13.593120 -3.343606 0.149915
2.225953 0.063148 13.707310 -3.890228 0.125557
2.257526 0.063148 13.838781 -4.437075 0.101882
2.289100 0.063148 13.987429 -4.977121 0.079024
2.320674 0.063148 14.152927 -5.503175 0.057106
2.352248 0.063148 14.334718 -6.007992 0.036232
2.383822 0.063148 14.532018 -6.484376 0.016488
2.415395 0.063148 14.743817 -6.925285 -0.002056
2.446969 0.063148 14.968888 -7.323941 -0.019348
2.478543 0.063148 15.205794 -7.673929 -0.035353
2.510117 0.063148 15.452903 -7.969297 -0.050057
2.541691 0.063148 15.708404 -8.204655 -0.063457
2.573264 0.063148 15.970325 -8.375251 -0.075570
2.604838 0.063148 16.236557 -8.477058 -0.086426
2.636412 0.063148 16.504873 -8.506838 -0.096068
2.667986 0.063148 16.772960 -8.462199 -0.104550
2.699560 0.063148 17.038441 -8.341639 -0.111939
2.731133 0.063148 17.298909 -8.144583 -0.118308
2.762707 0.063148 17.551950 -7.871400 -0.123735
2.794281 0.063148 17.795181 -7.523409 -0.128305
2.825855 0.063148 18.026272 -7.102872 -0.132104
2.857428 0.063148 18.242980 -6.612974 -0.135220
2.889002 0.063148 18.443177 -6.057789 -0.137737
2.920576 0.063148 18.624879 -5.442230 -0.139738
2.952150 0.063148 18.786266 -4.771995 -0.141301
2.983724 0.063148 18.925711 -4.053489 -0.142494
3.015297 0.063148 19.041799 -3.293750 -0.143381
3.046871 0.063148 19.133349 -2.500355 -0.144014
3.078445 0.063148 19.199421 -1.681323 -0.144436
3.110019 0.063148 19.239338 -0.845011 -0.144676

-3.141593 0.094721 19.254112 0.000000 -0.215328
-3.110019 0.094721 19.240760 0.845060 -0.215209
-3.078445 0.094721 19.200840 1.681426 -0.214845
-3.046871 0.094721 19.134764 2.500519 -0.214207
-3.015297 0.094721 19.043208 3.293986 -0.213248
-2.983724 0.094721 18.927110 4.053812 -0.211907
-2.952150 0.094721 18.787654 4.772423 -0.210104
-2.920576 0.094721 18.626251 5.442785 -0.207747
-2.889002 0.094721 18.444530 6.058493 -0.204730
-2.857428 0.094721 18.244308 6.613852 -0.200938
-2.825855 0.094721 18.027569 7.103950 -0.196248
-2.794281 0.094721 17.796440 7.524714 -0.190533
-2.762707 0.094721 17.553165 7.872959 -0.183663
-2.731133 0.094721 17.300069 8.146424 -0.175508
-2.699560 0.094721 17.039539 8.343786 -0.165944
-2.667986 0.094721 16.773984 8.464676 -0.154851
-2.636412 0.094721 16.505814 8.509668 -0.142120
-2.604838 0.094721 16.237403 8.480259 -0.127654
-2.573264 0.094721 15.971064 8.378838 -0.111370
-2.541691 0.094721 15.709023 8.208640 -0.093205
-2.510117 0.094721 15.453390 7.973688 -0.073114
-2.478543 0.094721 15.206136 7.678726 -0.051073
-2.446969 0.094721 14.969072 7.329143 -0.027084
-2.415395 0.094721 14.743831 6.930885 -0.001171
-2.383822 0.094721 14.531849 6.490359 0.026615
-2.352248 0.094721 14.334354 6.014339 0.056195
-2.320674 0.094721 14.152357 5.509862 0.087465
-2.289100 0.094721 13.986643 4.984118 0.120295
-2.257526 0.094721 13.837770 4.444347 0.154529
-2.225953 0.094721 13.706065 3.897734 0.189985
-2.194379 0.094721 13.591635 3.351302 0.226458
-2.162805 0.094721 13.494366 2.811812 0.263722
-2.131231 0.094721 13.413935 2.285672 0.301530
-2.099657 0.094721 13.349827 1.778848 0.339621
-2.068084 0.094721 13.301345 1.296782 0.377716
-2.036510 0.094721 13.267627 0.844324 0.415526
-2.004936 0.094721 13.247672 0.425670 0.452756
-1.973362 0.094721 13.240354 0.044316 0.489102
-1.941788 0.094721 13.244451 -0.296984 0.524262
-1.910215 0.094721 13.258665 -0.596238 0.557936
-1.878641 0.094721 13.281647 -0.852235 0.589829
-1.847067 0.094721 13.312022 -1.064539 0.619654
-1.815493 0.094721 13.348413 -1.233479 0.647140
-1.783919 0.094721 13.389467 -1.360127 0.672031
-1.752346 0.094721 13.433875 -1.446259 0.694088
-1.720772 0.094721 13.480394 -1.494308 0.713098
-1.689198 0.094721 13.527868 -1.507308 0.728870
-1.657624 0.094721 13.575246 -1.488829 0.741242
-1.626050 0.094721 13.621595 -1.442900 0.750079
-1.594477 0.094721 13.666119 -1.373928 0.755280
-1.562903 0.094721 13.708162 -1.286618 0.756772
-1.531329 0.094721 13.747224 -1.185874 0.754519
-1.499755 0.094721 13.782959 -1.076714 0.748515
-1.468181 0.094721 13.815180 -0.964173 0.738789
-1.436608 0.094721 13.843861 -0.853212 0.725402
-1.405034 0.094721 13.869126 -0.748627 0.708448
-1.373460 0.094721 13.891250 -0.654965 0.688049
-1.341886 0.094721 13.910645 -0.576438 0.664359
-1.310313 0.094721 13.927850 -0.516853 0.637557
-1.278739 0.094721 13.943517 -0.479539 0.607848
-1.247165 0.094721 13.958396 -0.467296 0.575458
-1.215591 0.094721 13.973313 -0.482338 0.540633
-1.184017 0.094721 13.989158 -0.526258 0.503636
-1.152444 0.094721 14.006859 -0.599999 0.464740
-1.120870 0.094721 14.027364 -0.703842 0.424231
-1.089296 0.094721 14.051618 -0.837392 0.382399
-1.057722 0.094721 14.080545 -0.999595 0.339539
-1.026148 0.094721 14.115024 -1.188747 0.295944
-0.994575 0.094721 14.155871 -1.402532 0.251903
-0.963001 0.094721 14.203819 -1.638053 0.207701
-0.931427 0.094721 14.259503 -1.891891 0.163610
-0.899853 0.094721 14.323440 -2.160156 0.119891
-0.868279 0.094721 14.396018 -2.438558 0.076790
-0.836706 0.094721 14.477487 -2.722481 0.034536
-0.805132 0.094721 14.567943 -3.007060 -0.006661
-0.773558 0.094721 14.667330 -3.287267 -0.046612
-0.741984 0.094721 14.775427 -3.557997 -0.085149
-0.710410 0.094721 14.891855 -3.814156 -0.122127
-0.678837 0.094721 15.016076 -4.050749 -0.157423
-0.647263 0.094721 15.147394 -4.262966 -0.190939
-0.615689 0.094721 15.284967 -4.446270 -0.222598
-0.584115 0.094721 15.427816 -4.596470 -0.252346
-0.552541 0.094721 15.574835 -4.709801 -0.280149
-0.520968 0.094721 15.724806 -4.782988 -0.305993
-0.489394 0.094721 15.876418 -4.813304 -0.329884
-0.457820 0.094721 16.028281 -4.798623 -0.351843
-0.426246 0.094721 16.178950 -4.737462 -0.371906
-0.394672 0.094721 16.326942 -4.629006 -0.390121
-0.363099 0.094721 16.470761 -4.473130 -0.406546
-0.331525 0.094721 16.608916 -4.270408 -0.421248
-0.299951 0.094721 16.739947 -4.022109 -0.434297
-0.268377 0.094721 16.862443 -3.730182 -0.445768
-0.236803 0.094721 16.975067 -3.397228 -0.455734
-0.205230 0.094721 17.076572 -3.026469 -0.464269
-0.173656 0.094721 17.165823 -2.621696 -0.471441
-0.142082 0.094721 17.241813 -2.187215 -0.477313
-0.110508 0.094721 17.303678 -1.727787 -0.481940
-0.078934 0.094721 17.350710 -1.248548 -0.485369
-0.047361 0.094721 17.382369 -0.754939 -0.487634
-0.015787 0.094721 17.398291 -0.252619 -0.488761
0.015787 0.094721 17.398291 0.252619 -0.488761
0.047361 0.094721 17.382369 0.754939 -0.487634
0.078934 0.094721 17.350710 1.248548 -0.485369
0.110508 0.094721 17.303678 1.727787 -0.481940
0.142082 0.094721 17.241813 2.187215 -0.477313
0.173656 0.094721 17.165823 2.621696 -0.471441
0.205230 0.094721 17.076572 3.026469 -0.464269
0.236803 0.094721 16.975067 3.397228 -0.455734
0.268377 0.094721 16.862443 3.730182 -0.445768
0.299951 0.094721 16.739947 4.022109 -0.434297
0.331525 0.094721 16.608916 4.270408 -0.421248
0.363099 0.094721 16.470761 4.473130 -0.406546
0.394672 0.094721 16.326942 4.629006 -0.390121
0.426246 0.094721 16.178950 4.737462 -0.371906
0.457820 0.094721 16.028281 4.798623 -0.351843
0.489394 0.094721 15.876418 4.813304 -0.329884
0.520968 0.094721 15.724806 4.782988 -0.305993
0.552541 0.094721 15.574835 4.709801 -0.280149
0.584115 0.094721 15.427816 4.596470 -0.252346
0.615689 0.094721 15.284967 4.446270 -0.222598
0.647263 0.094721 15.147394 4.262966 -0.190939
0.678837 0.094721 15.016076 4.050749 -0.157423
0.710410 0.094721 14.891855 3.814156 -0.122127
0.741984 0.094721 14.775427 3.557997 -0.085149
0.773558 0.094721 14.667330 3.287267 -0.046612
0.805132 0.094721 14.567943 3.007060 -0.006661
0.836706 0.094721 14.477487 2.722481 0.034536
0.868279 0.094721 14.396018 2.438558 0.076790
0.899853 0.094721 14.323440 2.160156 0.119891
0.931427 0.094721 14.259503 1.891891 0.163610
0.963001 0.094721 14.203819 1.638053 0.207701
0.994575 0.094721 14.155871 1.402532 0.251903
1.026148 0.094721 14.115024 1.188747 0.295944
1.057722 0.094721 14.080545 0.999595 0.339539
1.089296 0.094721 14.051618 0.837392 0.382399
1.120870 0.094721 14.027364 0.703842 0.424231
1.152444 0.094721 14.006859 0.599999 0.464740
1.184017 0.094721 13.989158 0.526258 0.503636
1.215591 0.094721 13.973313 0.482338 0.540633
1.247165 0.094721 13.958396 0.467296 0.575458
1.278739 0.094721 13.943517 0.479539 0.607848
1.310313 0.094721 13.927850 0.516853 0.637557
1.341886 0.094721 13.910645 0.576438 0.664359
1.373460 0.094721 13.891250 0.654965 0.688049
1.405034 0.094721 13.869126 0.748627 0.708448
1.436608 0.094721 13.843861 0.853212 0.725402
1.468181 0.094721 13.815180 0.964173 0.738789
1.499755 0.094721 13.782959 1.076714 0.748515
1.531329 0.094721 13.747224 1.185874 0.754519
1.562903 0.094721 13.708162 1.286618 0.756772
1.594477 0.094721 13.666119 1.373928 0.755280
1.626050 0.094721 13.621595 1.442900 0.750079
1.657624 0.094721 13.575246 1.488829 0.741242
1.689198 0.094721 13.527868 1.507308 0.728870
1.720772 0.094721 13.480394 1.494308 0.713098
1.752346 0.094721 13.433875 1.446259 0.694088
1.783919 0.094721 13.389467 1.360127 0.672031
1.815493 0.094721 13.348413 1.233479 0.647140
1.847067 0.094721 13.312022 1.064539 0.619654
1.878641 0.094721 13.281647 0.852235 0.589829
1.910215 0.094721 13.258665 0.596238 0.557936
1.941788 0.094721 13.244451 0.296984 0.524262
1.973362 0.094721 13.240354 -0.044316 0.489102
2.004936 0.094721 13.247672 -0.425670 0.452756
2.036510 0.094721 13.267627 -0.844324 0.415526
2.068084 0.094721 13.301345 -1.296782 0.377716
2.099657 0.094721 13.349827 -1.778848 0.339621
2.131231 0.094721 13.413935 -2.285672 0.301530
2.162805 0.094721 13.494366 -2.811812 0.263722
2.194379 0.094721 13.591635 -3.351302 0.226458
2.225953 0.094721 13.706065 -3.897734 0.189985
2.257526 0.094721 13.837770 -4.444347 0.154529
2.289100 0.094721 13.986643 -4.984118 0.120295
2.320674 0.094721 14.152357 -5.509862 0.087465
2.352248 0.094721 14.334354 -6.014339 0.056195
2.383822 0.094721 14.531849 -6.490359 0.026615
2.415395 0.094721 14.743831 -6.930885 -0.001171
2.446969 0.094721 14.969072 -7.329143 -0.027084
2.478543 0.094721 15.206136 -7.678726 -0.051073
2.510117 0.094721 15.453390 -7.973688 -0.073114
2.541691 0.094721 15.709023 -8.208640 -0.093205
2.573264 0.094721 15.971064 -8.378838 -0.111370
2.604838 0.094721 16.237403 -8.480259 -0.127654
2.636412 0.094721 16.505814 -8.509668 -0.142120
2.667986 0.094721 16.773984 -8.464676 -0.154851
2.699560 0.094721 17.039539 -8.343786 -0.165944
2.731133 0.094721 17.300069 -8.146424 -0.175508
2.762707 0.094721 17.553165 -7.872959 -0.183663
2.794281 0.094721 17.796440 -7.524714 -0.190533
2.825855 0.094721 18.027569 -7.103950 -0.196248
2.857428 0.094721 18.244308 -6.613852 -0.200938
2.889002 0.094721 18.444530 -6.058493 -0.204730
2.920576 0.094721 18.626251 -5.442785 -0.207747
2.952150 0.094721 18.787654 -4.772423 -0.210104
2.983724 0.094721 18.927110 -4.053812 -0.211907
3.015297 0.094721 19.043208 -3.293986 -0.213248
3.046871 0.094721 19.134764 -2.500519 -0.214207
3.078445 0.094721 19.200840 -1.681426 -0.214845
3.110019 0.094721 19.240760 -0.845060 -0.215209

-3.141593 0.126295 19.256083 0.000000 -0.283746
-3.110019 0.126295 19.242730 0.845130 -0.283587
-3.078445 0.126295 19.202807 1.681571 -0.283099
-3.046871 0.126295 19.136725 2.500750 -0.282243
-3.015297 0.126295 19.045160 3.294319 -0.280960
-2.983724 0.126295 18.929050 4.054267 -0.279166
-2.952150 0.126295 18.789577 4.773026 -0.276755
-2.920576 0.126295 18.628153 5.443565 -0.273605
-2.889002 0.126295 18.446404 6.059481 -0.269575
-2.857428 0.126295 18.246146 6.615084 -0.264514
-2.825855 0.126295 18.029364 7.105461 -0.258257
-2.794281 0.126295 17.798183 7.526543 -0.250636
-2.762707 0.126295 17.554844 7.875144 -0.241477
-2.731133 0.126295 17.301674 8.149001 -0.230610
-2.699560 0.126295 17.041055 8.346792 -0.217867
-2.667986 0.126295 16.775399 8.468144 -0.203092
-2.636412 0.126295 16.507111 8.513628 -0.186137
-2.604838 0.126295 16.238567 8.484737 -0.166876
-2.573264 0.126295 15.972078 8.383856 -0.145199
-2.541691 0.126295 15.709870 8.214213 -0.121020
-2.510117 0.126295 15.454052 7.979826 -0.094281
-2.478543 0.126295 15.206595 7.685433 -0.064950
-2.446969 0.126295 14.969311 7.336415 -0.033030
-2.415395 0.126295 14.743831 6.938710 0.001447
-2.383822 0.126295 14.531593 6.498719 0.038411
-2.352248 0.126295 14.333826 6.023209 0.077760
-2.320674 0.126295 14.151542 5.519206 0.119354
-2.289100 0.126295 13.985526 4.993894 0.163021
-2.257526 0.126295 13.836338 4.454507 0.208551
-2.225953 0.126295 13.704307 3.908221 0.255704
-2.194379 0.126295 13.589542 3.362052 0.304206
-2.162805 0.126295 13.491929 2.822757 0.353758
-2.131231 0.126295 13.411151 2.296739 0.404031
-2.099657 0.126295 13.346693 1.789957 0.454676
-2.068084 0.126295 13.297860 1.307850 0.505324
-2.036510 0.126295 13.263795 0.855265 0.555592
-2.004936 0.126295 13.243497 0.436398 0.605083
-1.973362 0.126295 13.235845 0.054743 0.653398
-1.941788 0.126295 13.239619 -0.286947 0.700133
-1.910215 0.126295 13.253523 -0.586678 0.744888
-1.878641 0.126295 13.276212 -0.843236 0.787273
-1.847067 0.126295 13.306313 -1.056182 0.826906
-1.815493 0.126295 13.342451 -1.225842 0.863426
-1.783919 0.126295 13.383277 -1.353282 0.896493
-1.752346 0.126295 13.427482 -1.440272 0.925790
-1.720772 0.126295 13.473826 -1.489238 0.951032
-1.689198 0.126295 13.521155 -1.503207 0.971968
-1.657624 0.126295 13.568419 -1.485739 0.988380
-1.626050 0.126295 13.614687 -1.440856 1.000090
-1.594477 0.126295 13.659163 -1.372956 1.006964
-1.562903 0.126295 13.701193 -1.286733 1.008905
-1.531329 0.126295 13.740276 -1.187082 1.005864
-1.499755 0.126295 13.776066 -1.079012 0.997835
-1.468181 0.126295 13.808377 -0.967548 0.984856
-1.436608 0.126295 13.837181 -0.857641 0.967008
-1.405034 0.126295 13.862602 -0.754079 0.944415
-1.373460 0.126295 13.884914 -0.661399 0.917241
-1.341886 0.126295 13.904527 -0.583806 0.885690
-1.310313 0.126295 13.921979 -0.525099 0.850002
-1.278739 0.126295 13.937920 -0.488600 0.810447
-1.247165 0.126295 13.953096 -0.477103 0.767327
-1.215591 0.126295 13.968334 -0.492817 0.720970
-1.184017 0.126295 13.984520 -0.537330 0.671723
-1.152444 0.126295 14.002578 -0.611583 0.619952
-1.120870 0.126295 14.023456 -0.715853 0.566036
-1.089296 0.126295 14.048095 -0.849746 0.510361
-1.057722 0.126295 14.077416 -1.012205 0.453319
-1.026148 0.126295 14.112296 -1.201529 0.395300
-0.994575 0.126295 14.153548 -1.415402 0.336690
-0.963001 0.126295 14.201903 -1.650930 0.277864
-0.931427 0.126295 14.257993 -1.904697 0.219187
-0.899853 0.126295 14.322332 -2.172817 0.161005
-0.868279 0.126295 14.395307 -2.451005 0.103646
-0.836706 0.126295 14.477164 -2.734649 0.047414
-0.805132 0.126295 14.568000 -3.018892 -0.007413
-0.773558 0.126295 14.667753 -3.298710 -0.060581
-0.741984 0.126295 14.776205 -3.569006 -0.111869
-0.710410 0.126295 14.892974 -3.824692 -0.161082
-0.678837 0.126295 15.017519 -4.060779 -0.208059
-0.647263 0.126295 15.149145 -4.272465 -0.252667
-0.615689 0.126295 15.287010 -4.455219 -0.294805
-0.584115 0.126295 15.430133 -4.604857 -0.334399
-0.552541 0.126295 15.577407 -4.717618 -0.371406
-0.520968 0.126295 15.727616 -4.790234 -0.405808
-0.489394 0.126295 15.879448 -4.819983 -0.437611
-0.457820 0.126295 16.031513 -4.804744 -0.466843
-0.426246 0.126295 16.182366 -4.743037 -0.493552
-0.394672 0.126295 16.330527 -4.634050 -0.517802
-0.363099 0.126295 16.474496 -4.477662 -0.539670
-0.331525 0.126295 16.612787 -4.274448 -0.559245
-0.299951 0.126295 16.743938 -4.025679 -0.576620
-0.268377 0.126295 16.866540 -3.733302 -0.591893
-0.236803 0.126295 16.979255 -3.399921 -0.605165
-0.205230 0.126295 17.080839 -3.028755 -0.616531
-0.173656 0.126295 17.170156 -2.623594 -0.626082
-0.142082 0.126295 17.246200 -2.188743 -0.633903
-0.110508 0.126295 17.308107 -1.728959 -0.640065
-0.078934 0.126295 17.355171 -1.249376 -0.644632
-0.047361 0.126295 17.386851 -0.755432 -0.647649
-0.015787 0.126295 17.402783 -0.252783 -0.649150
0.015787 0.126295 17.402783 0.252783 -0.649150
0.047361 0.126295 17.386851 0.755432 -0.647649
0.078934 0.126295 17.355171 1.249376 -0.644632
0.110508 0.126295 17.308107 1.728959 -0.640065
0.142082 0.126295 17.246200 2.188743 -0.633903
0.173656 0.126295 17.170156 2.623594 -0.626082
0.205230 0.126295 17.080839 3.028755 -0.616531
0.236803 0.126295 16.979255 3.399921 -0.605165
0.268377 0.126295 16.866540 3.733302 -0.591893
0.299951 0.126295 16.743938 4.025679 -0.576620
0.331525 0.126295 16.612787 4.274448 -0.559245
0.363099 0.126295 16.474496 4.477662 -0.539670
0.394672 0.126295 16.330527 4.634050 -0.517802
0.426246 0.126295 16.182366 4.743037 -0.493552
0.457820 0.126295 16.031513 4.804744 -0.466843
0.489394 0.126295 15.879448 4.819983 -0.437611
0.520968 0.126295 15.727616 4.790234 -0.405808
0.552541 0.126295 15.577407 4.717618 -0.371406
0.584115 0.126295 15.430133 4.604857 -0.334399
0.615689 0.126295 15.287010 4.455219 -0.294805
0.647263 0.126295 15.149145 4.272465 -0.252667
0.678837 0.126295 15.017519 4.060779 -0.208059
0.710410 0.126295 14.892974 3.824692 -0.161082
0.741984 0.126295 14.776205 3.569006 -0.111869
0.773558 0.126295 14.667753 3.298710 -0.060581
0.805132 0.126295 14.568000 3.018892 -0.007413
0.836706 0.126295 14.477164 2.734649 0.047414
0.868279 0.126295 14.395307 2.451005 0.103646
0.899853 0.126295 14.322332 2.172817 0.161005
0.931427 0.126295 14.257993 1.904697 0.219187
0.963001 0.126295 14.201903 1.650930 0.277864
0.994575 0.126295 14.153548 1.415402 0.336690
1.026148 0.126295 14.112296 1.201529 0.395300
1.057722 0.126295 14.077416 1.012205 0.453319
1.089296 0.126295 14.048095 0.849746 0.510361
1.120870 0.126295 14.023456 0.715853 0.566036
1.152444 0.126295 14.002578 0.611583 0.619952
1.184017 0.126295 13.984520 0.537330 0.671723
1.215591 0.126295 13.968334 0.492817 0.720970
1.247165 0.126295 13.953096 0.477103 0.767327
1.278739 0.126295 13.937920 0.488600 0.810447
1.310313 0.126295 13.921979 0.525099 0.850002
1.341886 0.126295 13.904527 0.583806 0.885690
1.373460 0.126295 13.884914 0.661399 0.917241
1.405034 0.126295 13.862602 0.754079 0.944415
1.436608 0.126295 13.837181 0.857641 0.967008
1.468181 0.126295 13.808377 0.967548 0.984856
1.499755 0.126295 13.776066 1.079012 0.997835
1.531329 0.126295 13.740276 1.187082 1.005864
1.562903 0.126295 13.701193 1.286733 1.008905
1.594477 0.126295 13.659163 1.372956 1.006964
1.626050 0.126295 13.614687 1.440856 1.000090
1.657624 0.126295 13.568419 1.485739 0.988380
1.689198 0.126295 13.521155 1.503207 0.971968
1.720772 0.126295 13.473826 1.489238 0.951032
1.752346 0.126295 13.427482 1.440272 0.925790
1.783919 0.126295 13.383277 1.353282 0.896493
1.815493 0.126295 13.342451 1.225842 0.863426
1.847067 0.126295 13.306313 1.056182 0.826906
1.878641 0.126295 13.276212 0.843236 0.787273
1.910215 0.126295 13.253523 0.586678 0.744888
1.941788 0.126295 13.239619 0.286947 0.700133
1.973362 0.126295 13.235845 -0.054743 0.653398
2.004936 0.126295 13.243497 -0.436398 0.605083
2.036510 0.126295 13.263795 -0.855265 0.555592
2.068084 0.126295 13.297860 -1.307850 0.505324
2.099657 0.126295 13.346693 -1.789957 0.454676
2.131231 0.126295 13.411151 -2.296739 0.404031
2.162805 0.126295 13.491929 -2.822757 0.353758
2.194379 0.126295 13.589542 -3.362052 0.304206
2.225953 0.126295 13.704307 -3.908221 0.255704
2.257526 0.126295 13.836338 -4.454507 0.208551
2.289100 0.126295 13.985526 -4.993894 0.163021
2.320674 0.126295 14.151542 -5.519206 0.119354
2.352248 0.126295 14.333826 -6.023209 0.077760
2.383822 0.126295 14.531593 -6.498719 0.038411
2.415395 0.126295 14.743831 -6.938710 0.001447
2.446969 0.126295 14.969311 -7.336415 -0.033030
2.478543 0.126295 15.206595 -7.685433 -0.064950
2.510117 0.126295 15.454052 -7.979826 -0.094281
2.541691 0.126295 15.709870 -8.214213 -0.121020
2.573264 0.126295 15.972078 -8.383856 -0.145199
2.604838 0.126295 16.238567 -8.484737 -0.166876
2.636412 0.126295 16.507111 -8.513628 -0.186137
2.667986 0.126295 16.775399 -8.468144 -0.203092
2.699560 0.126295 17.041055 -8.346792 -0.217867
2.731133 0.126295 17.301674 -8.149001 -0.230610
2.762707 0.126295 17.554844 -7.875144 -0.241477
2.794281 0.126295 17.798183 -7.526543 -0.250636
2.825855 0.126295 18.029364 -7.105461 -0.258257
2.857428 0.126295 18.246146 -6.615084 -0.264514
2.889002 0.126295 18.446404 -6.059481 -0.269575
2.920576 0.126295 18.628153 -5.443565 -0.273605
2.952150 0.126295 18.789577 -4.773026 -0.276755
2.983724 0.126295 18.929050 -4.054267 -0.279166
3.015297 0.126295 19.045160 -3.294319 -0.280960
3.046871 0.126295 19.136725 -2.500750 -0.282243
3.078445 0.126295 19.202807 -1.681571 -0.283099
3.110019 0.126295 19.242730 -0.845130 -0.283587

-3.141593 0.157869 19.258584 0.000000 -0.349311
-3.110019 0.157869 19.245229 0.845220 -0.349112
-3.078445 0.157869 19.205302 1.681758 -0.348500
-3.046871 0.157869 19.139212 2.501047 -0.347429
-3.015297 0.157869 19.047636 3.294747 -0.345821
-2.983724 0.157869 18.931510 4.054854 -0.343575
-2.952150 0.157869 18.792015 4.773802 -0.340558
-2.920576 0.157869 18.630563 5.444568 -0.336619
-2.889002 0.157869 18.448779 6.060752 -0.331582
-2.857428 0.157869 18.248476 6.616667 -0.325258
-2.825855 0.157869 18.031638 7.107404 -0.317444
-2.794281 0.157869 17.800390 7.528893 -0.307928
-2.762707 0.157869 17.556969 7.877950 -0.296496
-2.731133 0.157869 17.303703 8.152311 -0.282936
-2.699560 0.157869 17.042971 8.350651 -0.267038
-2.667986 0.157869 16.777183 8.472595 -0.248608
-2.636412 0.157869 16.508746 8.518709 -0.227464
-2.604838 0.157869 16.240030 8.490482 -0.203447
-2.573264 0.157869 15.973350 8.390292 -0.176420
-2.541691 0.157869 15.710927 8.221361 -0.146278
-2.510117 0.157869 15.454872 7.987699 -0.112948
-2.478543 0.157869 15.207155 7.694035 -0.076392
-2.446969 0.157869 14.969587 7.345741 -0.036611
-2.415395 0.157869 14.743802 6.948745 0.006353
-2.383822 0.157869 14.531236 6.509440 0.052413
-2.352248 0.157869 14.333121 6.034580 0.101442
-2.320674 0.157869 14.150468 5.531185 0.153266
-2.289100 0.157869 13.984065 5.006427 0.207668
-2.257526 0.157869 13.834473 4.467531 0.264389
-2.225953 0.157869 13.702024 3.921663 0.323128
-2.194379 0.157869 13.586828 3.375832 0.383546
-2.162805 0.157869 13.488777 2.836786 0.445268
-2.131231 0.157869 13.407553 2.310922 0.507886
-2.099657 0.157869 13.342646 1.804193 0.570964
-2.068084 0.157869 13.293364 1.322033 0.634043
-2.036510 0.157869 13.258853 0.869286 0.696644
-2.004936 0.157869 13.238117 0.450145 0.758276
-1.973362 0.157869 13.230037 0.068102 0.818439
-1.941788 0.157869 13.233397 -0.274088 0.876632
-1.910215 0.157869 13.246904 -0.574430 0.932356
-1.878641 0.157869 13.269217 -0.831708 0.985123
-1.847067 0.157869 13.298966 -1.045479 1.034461
-1.815493 0.157869 13.334782 -1.216063 1.079918
-1.783919 0.157869 13.375314 -1.344518 1.121070
-1.752346 0.157869 13.419260 -1.432608 1.157525
-1.720772 0.157869 13.465380 -1.482749 1.188926
-1.689198 0.157869 13.512524 -1.497960 1.214960
-1.657624 0.157869 13.559643 -1.481790 1.235357
-1.626050 0.157869 13.605807 -1.438247 1.249896
-1.594477 0.157869 13.650222 -1.371721 1.258406
-1.562903 0.157869 13.692235 -1.286892 1.260771
-1.531329 0.157869 13.731345 -1.188644 1.256928
-1.499755 0.157869 13.767207 -1.081971 1.246870
-1.468181 0.157869 13.799633 -0.971887 1.230643
-1.436608 0.157869 13.828595 -0.863332 1.208349
-1.405034 0.157869 13.854217 -0.761082 1.180143
-1.373460 0.157869 13.876770 -0.669661 1.146230
-1.341886 0.157869 13.896663 -0.593265 1.106863
-1.310313 0.157869 13.914431 -0.535683 1.062340
-1.278739 0.157869 13.930723 -0.500229 1.012999
-1.247165 0.157869 13.946282 -0.489688 0.959216
-1.215591 0.157869 13.961931 -0.506263 0.901398
-1.184017 0.157869 13.978553 -0.551536 0.839980
-1.152444 0.157869 13.997071 -0.626446 0.775416
-1.120870 0.157869 14.018427 -0.731265 0.708178
-1.089296 0.157869 14.043560 -0.865596 0.638749
-1.057722 0.157869 14.073387 -1.028385 0.567616
-1.026148 0.157869 14.108782 -1.217929 0.495265
-0.994575 0.157869 14.150554 -1.431914 0.422175
-0.963001 0.157869 14.199431 -1.667451 0.348817
-0.931427 0.157869 14.256040 -1.921127 0.275643
-0.899853 0.157869 14.320895 -2.189060 0.203086
-0.868279 0.157869 14.394379 -2.466974 0.131552
-0.836706 0.157869 14.476735 -2.750261 0.061422
-0.805132 0.157869 14.568057 -3.034073 -0.006956
-0.773558 0.157869 14.668283 -3.313393 -0.073270
-0.741984 0.157869 14.777189 -3.583132 -0.137240
-0.710410 0.157869 14.894394 -3.838211 -0.198625
-0.678837 0.157869 15.019356 -4.073650 -0.257224
-0.647263 0.157869 15.151378 -4.284656 -0.312871
-0.615689 0.157869 15.289617 -4.466704 -0.365440
-0.584115 0.157869 15.433091 -4.615620 -0.414839
-0.552541 0.157869 15.580694 -4.727651 -0.461013
-0.520968 0.157869 15.731208 -4.799535 -0.503939
-0.489394 0.157869 15.883322 -4.828557 -0.543626
-0.457820 0.157869 16.035646 -4.812602 -0.580108
-0.426246 0.157869 16.186737 -4.750194 -0.613444
-0.394672 0.157869 16.335112 -4.640527 -0.643713
-0.363099 0.157869 16.479276 -4.483482 -0.671013
-0.331525 0.157869 16.617740 -4.279637 -0.695450
-0.299951 0.157869 16.749045 -4.030263 -0.717144
-0.268377 0.157869 16.871783 -3.737310 -0.736217
-0.236803 0.157869 16.984616 -3.403380 -0.752790
-0.205230 0.157869 17.086300 -3.031691 -0.766985
-0.173656 0.157869 17.175702 -2.626032 -0.778915
-0.142082 0.157869 17.251816 -2.190706 -0.788684
-0.110508 0.157869 17.313778 -1.730465 -0.796383
-0.078934 0.157869 17.360882 -1.250441 -0.802087
-0.047361 0.157869 17.392589 -0.756066 -0.805857
-0.015787 0.157869 17.408534 -0.252994 -0.807731
0.015787 0.157869 17.408534 0.252994 -0.807731
0.047361 0.157869 17.392589 0.756066 -0.805857
0.078934 0.157869 17.360882 1.250441 -0.802087
0.110508 0.157869 17.313778 1.730465 -0.796383
0.142082 0.157869 17.251816 2.190706 -0.788684
0.173656 0.157869 17.175702 2.626032 -0.778915
0.205230 0.157869 17.086300 3.031691 -0.766985
0.236803 0.157869 16.984616 3.403380 -0.752790
0.268377 0.157869 16.871783 3.737310 -0.736217
0.299951 0.157869 16.749045 4.030263 -0.717144
0.331525 0.157869 16.617740 4.279637 -0.695450
0.363099 0.157869 16.479276 4.483482 -0.671013
0.394672 0.157869 16.335112 4.640527 -0.643713
0.426246 0.157869 16.186737 4.750194 -0.613444
0.457820 0.157869 16.035646 4.812602 -0.580108
0.489394 0.157869 15.883322 4.828557 -0.543626
0.520968 0.157869 15.731208 4.799535 -0.503939
0.552541 0.157869 15.580694 4.727651 -0.461013
0.584115 0.157869 15.433091 4.615620 -0.414839
0.615689 0.157869 15.289617 4.466704 -0.365440
0.647263 0.157869 15.151378 4.284656 -0.312871
0.678837 0.157869 15.019356 4.073650 -0.257224
0.710410 0.157869 14.894394 3.838211 -0.198625
0.741984 0.157869 14.777189 3.583132 -0.137240
0.773558 0.157869 14.668283 3.313393 -0.073270
0.805132 0.157869 14.568057 3.034073 -0.006956
0.836706 0.157869 14.476735 2.750261 0.061422
0.868279 0.157869 14.394379 2.466974 0.131552
0.899853 0.157869 14.320895 2.189060 0.203086
0.931427 0.157869 14.256040 1.921127 0.275643
0.963001 0.157869 14.199431 1.667451 0.348817
0.994575 0.157869 14.150554 1.431914 0.422175
1.026148 0.157869 14.108782 1.217929 0.495265
1.057722 0.157869 14.073387 1.028385 0.567616
1.089296 0.157869 14.043560 0.865596 0.638749
1.120870 0.157869 14.018427 0.731265 0.708178
1.152444 0.157869 13.997071 0.626446 0.775416
1.184017 0.157869 13.978553 0.551536 0.839980
1.215591 0.157869 13.961931 0.506263 0.901398
1.247165 0.157869 13.946282 0.489688 0.959216
1.278739 0.157869 13.930723 0.500229 1.012999
1.310313 0.157869 13.914431 0.535683 1.062340
1.341886 0.157869 13.896663 0.593265 1.106863
1.373460 0.157869 13.876770 0.669661 1.146230
1.405034 0.157869 13.854217 0.761082 1.180143
1.436608 0.157869 13.828595 0.863332 1.208349
1.468181 0.157869 13.799633 0.971887 1.230643
1.499755 0.157869 13.767207 1.081971 1.246870
1.531329 0.157869 13.731345 1.188644 1.256928
1.562903 0.157869 13.692235 1.286892 1.260771
1.594477 0.157869 13.650222 1.371721 1.258406
1.626050 0.157869 13.605807 1.438247 1.249896
1.657624 0.157869 13.559643 1.481790 1.235357
1.689198 0.157869 13.512524 1.497960 1.214960
1.720772 0.157869 13.465380 1.482749 1.188926
1.752346 0.157869 13.419260 1.432608 1.157525
1.783919 0.157869 13.375314 1.344518 1.121070
1.815493 0.157869 13.334782 1.216063 1.079918
1.847067 0.157869 13.298966 1.045479 1.034461
1.878641 0.157869 13.269217 0.831708 0.985123
1.910215 0.157869 13.246904 0.574430 0.932356
1.941788 0.157869 13.233397 0.274088 0.876632
1.973362 0.157869 13.230037 -0.068102 0.818439
2.004936 0.157869 13.238117 -0.450145 0.758276
2.036510 0.157869 13.258853 -0.869286 0.696644
2.068084 0.157869 13.293364 -1.322033 0.634043
2.099657 0.157869 13.342646 -1.804193 0.570964
2.131231 0.157869 13.407553 -2.310922 0.507886
2.162805 0.157869 13.488777 -2.836786 0.445268
2.194379 0.157869 13.586828 -3.375832 0.383546
2.225953 0.157869 13.702024 -3.921663 0.323128
2.257526 0.157869 13.834473 -4.467531 0.264389
2.289100 0.157869 13.984065 -5.006427 0.207668
2.320674 0.157869 14.150468 -5.531185 0.153266
2.352248 0.157869 14.333121 -6.034580 0.101442
2.383822 0.157869 14.531236 -6.509440 0.052413
2.415395 0.157869 14.743802 -6.948745 0.006353
2.446969 0.157869 14.969587 -7.345741 -0.036611
2.478543 0.157869 15.207155 -7.694035 -0.076392
2.510117 0.157869 15.454872 -7.987699 -0.112948
2.541691 0.157869 15.710927 -8.221361 -0.146278
2.573264 0.157869 15.973350 -8.390292 -0.176420
2.604838 0.157869 16.240030 -8.490482 -0.203447
2.636412 0.157869 16.508746 -8.518709 -0.227464
2.667986 0.157869 16.777183 -8.472595 -0.248608
2.699560 0.157869 17.042971 -8.350651 -0.267038
2.731133 0.157869 17.303703 -8.152311 -0.282936
2.762707 0.157869 17.556969 -7.877950 -0.296496
2.794281 0.157869 17.800390 -7.528893 -0.307928
2.825855 0.157869 18.031638 -7.107404 -0.317444
2.857428 0.157869 18.248476 -6.616667 -0.325258
2.889002 0.157869 18.448779 -6.060752 -0.331582
2.920576 0.157869 18.630563 -5.444568 -0.336619
2.952150 0.157869 18.792015 -4.773802 -0.340558
2.983724 0.157869 18.931510 -4.054854 -0.343575
3.015297 0.157869 19.047636 -3.294747 -0.345821
3.046871 0.157869 19.139212 -2.501047 -0.347429
3.078445 0.157869 19.205302 -1.681758 -0.348500
3.110019 0.157869 19.245229 -0.845220 -0.349112

-3.141593 0.189443 19.261589 0.000000 -0.411347
-3.110019 0.189443 19.248232 0.845330 -0.411108
-3.078445 0.189443 19.208299 1.681987 -0.410372
-3.046871 0.189443 19.142200 2.501412 -0.409085
-3.015297 0.189443 19.050610 3.295272 -0.407155
-2.983724 0.189443 18.934465 4.055571 -0.404458
-2.952150 0.189443 18.794944 4.774751 -0.400838
-2.920576 0.189443 18.633458 5.445793 -0.396113
-2.889002 0.189443 18.451629 6.062304 -0.390076
-2.857428 0.189443 18.251272 6.618600 -0.382497
-2.825855 0.189443 18.034366 7.109775 -0.373137
-2.794281 0.189443 17.803035 7.531761 -0.361742
-2.762707 0.189443 17.559516 7.881373 -0.348057
-2.731133 0.189443 17.306131 8.156346 -0.331827
-2.699560 0.189443 17.045262 8.355355 -0.312804
-2.667986 0.189443 16.779315 8.478020 -0.290754
-2.636412 0.189443 16.510693 8.524902 -0.265462
-2.604838 0.189443 16.241770 8.497484 -0.236737
-2.573264 0.189443 15.974855 8.398135 -0.204417
-2.541691 0.189443 15.712171 8.230070 -0.168375
-2.510117 0.189443 15.455827 7.997290 -0.128525
-2.478543 0.189443 15.207793 7.704512 -0.084821
-2.446969 0.189443 14.969881 7.357099 -0.037266
-2.415395 0.189443 14.743723 6.960967 0.014090
-2.383822 0.189443 14.530759 6.522495 0.069144
-2.352248 0.189443 14.332218 6.048429 0.127742
-2.320674 0.189443 14.149116 5.545772 0.189677
-2.289100 0.189443 13.982242 5.021688 0.254691
-2.257526 0.189443 13.832158 4.483388 0.322472
-2.225953 0.189443 13.699201 3.938029 0.392661
-2.194379 0.189443 13.583481 3.392608 0.464854
-2.162805 0.189443 13.484895 2.853865 0.538601
-2.131231 0.189443 13.403129 2.328188 0.613415
-2.099657 0.189443 13.337675 1.821522 0.688776
-2.068084 0.189443 13.287847 1.339298 0.764134
-2.036510 0.189443 13.252794 0.886353 0.838918
-2.004936 0.189443 13.231523 0.466877 0.912540
-1.973362 0.189443 13.222922 0.084361 0.984404
-1.941788 0.189443 13.225778 -0.258438 1.053909
-1.910215 0.189443 13.238803 -0.559527 1.120461
-1.878641 0.189443 13.260659 -0.817682 1.183476
-1.847067 0.189443 13.289981 -1.032457 1.242391
-1.815493 0.189443 13.325402 -1.204166 1.296665
-1.783919 0.189443 13.365578 -1.333858 1.345791
-1.752346 0.189443 13.409208 -1.423288 1.389302
-1.720772 0.189443 13.455057 -1.474862 1.426771
-1.689198 0.189443 13.501975 -1.491585 1.457823
-1.657624 0.189443 13.548917 -1.476994 1.482136
-1.626050 0.189443 13.594956 -1.435086 1.499446
-1.594477 0.189443 13.639298 -1.370233 1.509550
-1.562903 0.189443 13.681291 -1.287101 1.512308
-1.531329 0.189443 13.720434 -1.190560 1.507645
-1.499755 0.189443 13.756383 -1.085590 1.495551
-1.468181 0.189443 13.788950 -0.977188 1.476084
-1.436608 0.189443 13.818106 -0.870279 1.449365
-1.405034 0.189443 13.843972 -0.769625 1.415578
-1.373460 0.189443 13.866819 -0.679738 1.374969
-1.341886 0.189443 13.887054 -0.604801 1.327839
-1.310313 0.189443 13.905208 -0.548589 1.274545
-1.278739 0.189443 13.921928 -0.514408 1.215492
-1.247165 0.189443 13.937953 -0.505031 1.151128
-1.215591 0.189443 13.954104 -0.522655 1.081940
-1.184017 0.189443 13.971258 -0.568856 1.008446
-1.152444 0.189443 13.990336 -0.644565 0.931190
-1.120870 0.189443 14.012275 -0.750051 0.850738
-1.089296 0.189443 14.038010 -0.884918 0.767664
-1.057722 0.189443 14.068453 -1.048107 0.682551
-1.026148 0.189443 14.104475 -1.237920 0.595979
-0.994575 0.189443 14.146881 -1.452043 0.508524
-0.963001 0.189443 14.196394 -1.687591 0.420745
-0.931427 0.189443 14.253638 -1.941156 0.333185
-0.899853 0.189443 14.319122 -2.208863 0.246359
-0.868279 0.189443 14.393227 -2.486442 0.160756
-0.836706 0.189443 14.476191 -2.769296 0.076829
-0.805132 0.189443 14.568106 -3.052582 -0.005007
-0.773558 0.189443 14.668906 -3.331296 -0.084375
-0.741984 0.189443 14.778367 -3.600357 -0.160943
-0.710410 0.189443 14.896105 -3.854697 -0.234424
-0.678837 0.189443 15.021575 -4.089347 -0.304573
-0.647263 0.189443 15.154080 -4.299523 -0.371194
-0.615689 0.189443 15.292774 -4.480712 -0.434134
-0.584115 0.189443 15.436677 -4.628749 -0.493285
-0.552541 0.189443 15.584680 -4.739890 -0.548580
-0.520968 0.189443 15.735567 -4.810882 -0.599992
-0.489394 0.189443 15.888024 -4.839018 -0.647528
-0.457820 0.189443 16.040665 -4.822191 -0.691231
-0.426246 0.189443 16.192045 -4.758929 -0.731170
-0.394672 0.189443 16.340683 -4.648432 -0.767440
-0.363099 0.189443 16.485084 -4.490586 -0.800155
-0.331525 0.189443 16.623760 -4.285971 -0.829445
-0.299951 0.189443 16.755254 -4.035860 -0.855449
-0.268377 0.189443 16.878156 -3.742203 -0.878315
-0.236803 0.189443 16.991134 -3.407603 -0.898187
-0.205230 0.189443 17.092941 -3.035277 -0.915209
-0.173656 0.189443 17.182447 -2.629010 -0.929516
-0.142082 0.189443 17.258645 -2.193103 -0.941233
-0.110508 0.189443 17.320674 -1.732304 -0.950468
-0.078934 0.189443 17.367827 -1.251741 -0.957311
-0.047361 0.189443 17.399567 -0.756841 -0.961833
-0.015787 0.189443 17.415529 -0.253251 -0.964082
0.015787 0.189443 17.415529 0.253251 -0.964082
0.047361 0.189443 17.399567 0.756841 -0.961833
0.078934 0.189443 17.367827 1.251741 -0.957311
0.110508 0.189443 17.320674 1.732304 -0.950468
0.142082 0.189443 17.258645 2.193103 -0.941233
0.173656 0.189443 17.182447 2.629010 -0.929516
0.205230 0.189443 17.092941 3.035277 -0.915209
0.236803 0.189443 16.991134 3.407603 -0.898187
0.268377 0.189443 16.878156 3.742203 -0.878315
0.299951 0.189443 16.755254 4.035860 -0.855449
0.331525 0.189443 16.623760 4.285971 -0.829445
0.363099 0.189443 16.485084 4.490586 -0.800155
0.394672 0.189443 16.340683 4.648432 -0.767440
0.426246 0.189443 16.192045 4.758929 -0.731170
0.457820 0.189443 16.040665 4.822191 -0.691231
0.489394 0.189443 15.888024 4.839018 -0.647528
0.520968 0.189443 15.735567 4.810882 -0.599992
0.552541 0.189443 15.584680 4.739890 -0.548580
0.584115 0.189443 15.436677 4.628749 -0.493285
0.615689 0.189443 15.292774 4.480712 -0.434134
0.647263 0.189443 15.154080 4.299523 -0.371194
0.678837 0.189443 15.021575 4.089347 -0.304573
0.710410 0.189443 14.896105 3.854697 -0.234424
0.741984 0.189443 14.778367 3.600357 -0.160943
0.773558 0.189443 14.668906 3.331296 -0.084375
0.805132 0.189443 14.568106 3.052582 -0.005007
0.836706 0.189443 14.476191 2.769296 0.076829
0.868279 0.189443 14.393227 2.486442 0.160756
0.899853 0.189443 14.319122 2.208863 0.246359
0.931427 0.189443 14.253638 1.941156 0.333185
0.963001 0.189443 14.196394 1.687591 0.420745
0.994575 0.189443 14.146881 1.452043 0.508524
1.026148 0.189443 14.104475 1.237920 0.595979
1.057722 0.189443 14.068453 1.048107 0.682551
1.089296 0.189443 14.038010 0.884918 0.767664
1.120870 0.189443 14.012275 0.750051 0.850738
1.152444 0.189443 13.990336 0.644565 0.931190
1.184017 0.189443 13.971258 0.568856 1.008446
1.215591 0.189443 13.954104 0.522655 1.081940
1.247165 0.189443 13.937953 0.505031 1.151128
1.278739 0.189443 13.921928 0.514408 1.215492
1.310313 0.189443 13.905208 0.548589 1.274545
1.341886 0.189443 13.887054 0.604801 1.327839
1.373460 0.189443 13.866819 0.679738 1.374969
1.405034 0.189443 13.843972 0.769625 1.415578
1.436608 0.189443 13.818106 0.870279 1.449365
1.468181 0.189443 13.788950 0.977188 1.476084
1.499755 0.189443 13.756383 1.085590 1.495551
1.531329 0.189443 13.720434 1.190560 1.507645
1.562903 0.189443 13.681291 1.287101 1.512308
1.594477 0.189443 13.639298 1.370233 1.509550
1.626050 0.189443 13.594956 1.435086 1.499446
1.657624 0.189443 13.548917 1.476994 1.482136
1.689198 0.189443 13.501975 1.491585 1.457823
1.720772 0.189443 13.455057 1.474862 1.426771
1.752346 0.189443 13.409208 1.423288 1.389302
1.783919 0.189443 13.365578 1.333858 1.345791
1.815493 0.189443 13.325402 1.204166 1.296665
1.847067 0.189443 13.289981 1.032457 1.242391
1.878641 0.189443 13.260659 0.817682 1.183476
1.910215 0.189443 13.238803 0.559527 1.120461
1.941788 0.189443 13.225778 0.258438 1.053909
1.973362 0.189443 13.222922 -0.084361 0.984404
2.004936 0.189443 13.231523 -0.466877 0.912540
2.036510 0.189443 13.252794 -0.886353 0.838918
2.068084 0.189443 13.287847 -1.339298 0.764134
2.099657 0.189443 13.337675 -1.821522 0.688776
2.131231 0.189443 13.403129 -2.328188 0.613415
2.162805 0.189443 13.484895 -2.853865 0.538601
2.194379 0.189443 13.583481 -3.392608 0.464854
2.225953 0.189443 13.699201 -3.938029 0.392661
2.257526 0.189443 13.832158 -4.483388 0.322472
2.289100 0.189443 13.982242 -5.021688 0.254691
2.320674 0.189443 14.149116 -5.545772 0.189677
2.352248 0.189443 14.332218 -6.048429 0.127742
2.383822 0.189443 14.530759 -6.522495 0.069144
2.415395 0.189443 14.743723 -6.960967 0.014090
2.446969 0.189443 14.969881 -7.357099 -0.037266
2.478543 0.189443 15.207793 -7.704512 -0.084821
2.510117 0.189443 15.455827 -7.997290 -0.128525
2.541691 0.189443 15.712171 -8.230070 -0.168375
2.573264 0.189443 15.974855 -8.398135 -0.204417
2.604838 0.189443 16.241770 -8.497484 -0.236737
2.636412 0.189443 16.510693 -8.524902 -0.265462
2.667986 0.189443 16.779315 -8.478020 -0.290754
2.699560 0.189443 17.045262 -8.355355 -0.312804
2.731133 0.189443 17.306131 -8.156346 -0.331827
2.762707 0.189443 17.559516 -7.881373 -0.348057
2.794281 0.189443 17.803035 -7.531761 -0.361742
2.825855 0.189443 18.034366 -7.109775 -0.373137
2.857428 0.189443 18.251272 -6.618600 -0.382497
2.889002 0.189443 18.451629 -6.062304 -0.390076
2.920576 0.189443 18.633458 -5.445793 -0.396113
2.952150 0.189443 18.794944 -4.774751 -0.400838
2.983724 0.189443 18.934465 -4.055571 -0.404458
3.015297 0.189443 19.050610 -3.295272 -0.407155
3.046871 0.189443 19.142200 -2.501412 -0.409085
3.078445 0.189443 19.208299 -1.681987 -0.410372
3.110019 0.189443 19.248232 -0.845330 -0.411108

-3.141593 0.221017 19.265067 0.000000 -0.469200
-3.110019 0.221017 19.251708 0.845460 -0.468921
-3.078445 0.221017 19.211769 1.682258 -0.468062
-3.046871 0.221017 19.145659 2.501843 -0.466559
-3.015297 0.221017 19.054053 3.295892 -0.464306
-2.983724 0.221017 18.937884 4.056418 -0.461161
-2.952150 0.221017 18.798332 4.775872 -0.456942
-2.920576 0.221017 18.636806 5.447240 -0.451437
-2.889002 0.221017 18.454926 6.064136 -0.444405
-2.857428 0.221017 18.254504 6.620880 -0.435583
-2.825855 0.221017 18.037518 7.112570 -0.424691
-2.794281 0.221017 17.806090 7.535140 -0.411435
-2.762707 0.221017 17.562453 7.885406 -0.395519
-2.731133 0.221017 17.308930 8.161101 -0.376648
-2.699560 0.221017 17.047899 8.360897 -0.354534
-2.667986 0.221017 16.781763 8.484409 -0.328907
-2.636412 0.221017 16.512926 8.532194 -0.299516
-2.604838 0.221017 16.243757 8.505727 -0.266140
-2.573264 0.221017 15.976567 8.407368 -0.228592
-2.541691 0.221017 15.713576 8.240322 -0.186725
-2.510117 0.221017 15.456891 8.008578 -0.140439
-2.478543 0.221017 15.208485 7.716843 -0.089681
-2.446969 0.221017 14.970167 7.370466 -0.034454
-2.415395 0.221017 14.743571 6.975349 0.025181
-2.383822 0.221017 14.530136 6.537857 0.089107
-2.352248 0.221017 14.331096 6.064722 0.157144
-2.320674 0.221017 14.147465 5.562934 0.229052
-2.289100 0.221017 13.980036 5.039641 0.304529
-2.257526 0.221017 13.829375 4.502042 0.383216
-2.225953 0.221017 13.695819 3.957280 0.464695
-2.194379 0.221017 13.579484 3.412342 0.548495
-2.162805 0.221017 13.480268 2.873954 0.634095
-2.131231 0.221017 13.397864 2.348496 0.720930
-2.099657 0.221017 13.331768 1.841904 0.808395
-2.068084 0.221017 13.281297 1.359602 0.895853
-2.036510 0.221017 13.245606 0.906423 0.982640
-2.004936 0.221017 13.223707 0.486552 1.068074
-1.973362 0.221017 13.214493 0.103480 1.151462
-1.941788 0.221017 13.216756 -0.240038 1.232108
-1.910215 0.221017 13.229214 -0.542004 1.309322
-1.878641 0.221017 13.250532 -0.801193 1.382427
-1.847067 0.221017 13.279352 -1.017151 1.450767
-1.815493 0.221017 13.314311 -1.190183 1.513715
-1.783919 0.221017 13.354068 -1.321332 1.570685
-1.752346 0.221017 13.397327 -1.412339 1.621130
-1.720772 0.221017 13.442856 -1.465599 1.664558
-1.689198 0.221017 13.489510 -1.484102 1.700534
-1.657624 0.221017 13.536245 -1.471370 1.728682
-1.626050 0.221017 13.582136 -1.431384 1.748697
-1.594477 0.221017 13.626392 -1.368501 1.760342
-1.562903 0.221017 13.668362 -1.287367 1.763456
-1.531329 0.221017 13.707545 -1.192836 1.757951
-1.499755 0.221017 13.743598 -1.089868 1.743816
-1.468181 0.221017 13.776331 -0.983445 1.721118
-1.436608 0.221017 13.805715 -0.878474 1.689996
-1.405034 0.221017 13.831870 -0.779700 1.650666
-1.373460 0.221017 13.855064 -0.691618 1.603411
-1.341886 0.221017 13.875701 -0.618397 1.548583
-1.310313 0.221017 13.894311 -0.563798 1.486594
-1.278739 0.221017 13.911534 -0.531115 1.417916
-1.247165 0.221017 13.928109 -0.523110 1.343067
-1.215591 0.221017 13.944850 -0.541968 1.262614
-1.184017 0.221017 13.962633 -0.589260 1.177159
-1.152444 0.221017 13.982370 -0.665910 1.087332
-1.120870 0.221017 14.004995 -0.772184 0.993790
-1.089296 0.221017 14.031439 -0.907681 0.897200
-1.057722 0.221017 14.062610 -1.071343 0.798239
-1.026148 0.221017 14.099371 -1.261472 0.697581
-0.994575 0.221017 14.142523 -1.475757 0.595893
-0.963001 0.221017 14.192785 -1.711319 0.493827
-0.931427 0.221017 14.250777 -1.964754 0.392010
-0.899853 0.221017 14.317002 -2.232196 0.291044
-0.868279 0.221017 14.391837 -2.509383 0.191494
-0.836706 0.221017 14.475518 -2.791726 0.093887
-0.805132 0.221017 14.568132 -3.074394 -0.001293
-0.773558 0.221017 14.669610 -3.352394 -0.093609
-0.741984 0.221017 14.779725 -3.620658 -0.182676
-0.710410 0.221017 14.898090 -3.874129 -0.268158
-0.678837 0.221017 15.024159 -4.107850 -0.349773
-0.647263 0.221017 15.157232 -4.317051 -0.427290
-0.615689 0.221017 15.296465 -4.497229 -0.500533
-0.584115 0.221017 15.440872 -4.644230 -0.569374
-0.552541 0.221017 15.589348 -4.754324 -0.633736
-0.520968 0.221017 15.740674 -4.824266 -0.693585
-0.489394 0.221017 15.893538 -4.851359 -0.748931
-0.457820 0.221017 16.046552 -4.833503 -0.799820
-0.426246 0.221017 16.198273 -4.769236 -0.846334
-0.394672 0.221017 16.347221 -4.657762 -0.888582
-0.363099 0.221017 16.491901 -4.498971 -0.926695
-0.331525 0.221017 16.630828 -4.293447 -0.960823
-0.299951 0.221017 16.762543 -4.042467 -0.991129
-0.268377 0.221017 16.885642 -3.747981 -1.017780
-0.236803 0.221017 16.998789 -3.412591 -1.040946
-0.205230 0.221017 17.100742 -3.039512 -1.060792
-0.173656 0.221017 17.190369 -2.632528 -1.077476
-0.142082 0.221017 17.266668 -2.195935 -1.091141
-0.110508 0.221017 17.328776 -1.734477 -1.101912
-0.078934 0.221017 17.375988 -1.253277 -1.109895
-0.047361 0.221017 17.407766 -0.757756 -1.115170
-0.015787 0.221017 17.423747 -0.253555 -1.117794
0.015787 0.221017 17.423747 0.253555 -1.117794
0.047361 0.221017 17.407766 0.757756 -1.115170
0.078934 0.221017 17.375988 1.253277 -1.109895
0.110508 0.221017 17.328776 1.734477 -1.101912
0.142082 0.221017 17.266668 2.195935 -1.091141
0.173656 0.221017 17.190369 2.632528 -1.077476
0.205230 0.221017 17.100742 3.039512 -1.060792
0.236803 0.221017 16.998789 3.412591 -1.040946
0.268377 0.221017 16.885642 3.747981 -1.017780
0.299951 0.221017 16.762543 4.042467 -0.991129
0.331525 0.221017 16.630828 4.293447 -0.960823
0.363099 0.221017 16.491901 4.498971 -0.926695
0.394672 0.221017 16.347221 4.657762 -0.888582
0.426246 0.221017 16.198273 4.769236 -0.846334
0.457820 0.221017 16.046552 4.833503 -0.799820
0.489394 0.221017 15.893538 4.851359 -0.748931
0.520968 0.221017 15.740674 4.824266 -0.693585
0.552541 0.221017 15.589348 4.754324 -0.633736
0.584115 0.221017 15.440872 4.644230 -0.569374
0.615689 0.221017 15.296465 4.497229 -0.500533
0.647263 0.221017 15.157232 4.317051 -0.427290
0.678837 0.221017 15.024159 4.107850 -0.349773
0.710410 0.221017 14.898090 3.874129 -0.268158
0.741984 0.221017 14.779725 3.620658 -0.182676
0.773558 0.221017 14.669610 3.352394 -0.093609
0.805132 0.221017 14.568132 3.074394 -0.001293
0.836706 0.221017 14.475518 2.791726 0.093887
0.868279 0.221017 14.391837 2.509383 0.191494
0.899853 0.221017 14.317002 2.232196 0.291044
0.931427 0.221017 14.250777 1.964754 0.392010
0.963001 0.221017 14.192785 1.711319 0.493827
0.994575 0.221017 14.142523 1.475757 0.595893
1.026148 0.221017 14.099371 1.261472 0.697581
1.057722 0.221017 14.062610 1.071343 0.798239
1.089296 0.221017 14.031439 0.907681 0.897200
1.120870 0.221017 14.004995 0.772184 0.993790
1.152444 0.221017 13.982370 0.665910 1.087332
1.184017 0.221017 13.962633 0.589260 1.177159
1.215591 0.221017 13.944850 0.541968 1.262614
1.247165 0.221017 13.928109 0.523110 1.343067
1.278739 0.221017 13.911534 0.531115 1.417916
1.310313 0.221017 13.894311 0.563798 1.486594
1.341886 0.221017 13.875701 0.618397 1.548583
1.373460 0.221017 13.855064 0.691618 1.603411
1.405034 0.221017 13.831870 0.779700 1.650666
1.436608 0.221017 13.805715 0.878474 1.689996
1.468181 0.221017 13.776331 0.983445 1.721118
1.499755 0.221017 13.743598 1.089868 1.743816
1.531329 0.221017 13.707545 1.192836 1.757951
1.562903 0.221017 13.668362 1.287367 1.763456
1.594477 0.221017 13.626392 1.368501 1.760342
1.626050 0.221017 13.582136 1.431384 1.748697
1.657624 0.221017 13.536245 1.471370 1.728682
1.689198 0.221017 13.489510 1.484102 1.700534
1.720772 0.221017 13.442856 1.465599 1.664558
1.752346 0.221017 13.397327 1.412339 1.621130
1.783919 0.221017 13.354068 1.321332 1.570685
1.815493 0.221017 13.314311 1.190183 1.513715
1.847067 0.221017 13.279352 1.017151 1.450767
1.878641 0.221017 13.250532 0.801193 1.382427
1.910215 0.221017 13.229214 0.542004 1.309322
1.941788 0.221017 13.216756 0.240038 1.232108
1.973362 0.221017 13.214493 -0.103480 1.151462
2.004936 0.221017 13.223707 -0.486552 1.068074
2.036510 0.221017 13.245606 -0.906423 0.982640
2.068084 0.221017 13.281297 -1.359602 0.895853
2.099657 0.221017 13.331768 -1.841904 0.808395
2.131231 0.221017 13.397864 -2.348496 0.720930
2.162805 0.221017 13.480268 -2.873954 0.634095
2.194379 0.221017 13.579484 -3.412342 0.548495
2.225953 0.221017 13.695819 -3.957280 0.464695
2.257526 0.221017 13.829375 -4.502042 0.383216
2.289100 0.221017 13.980036 -5.039641 0.304529
2.320674 0.221017 14.147465 -5.562934 0.229052
2.352248 0.221017 14.331096 -6.064722 0.157144
2.383822 0.221017 14.530136 -6.537857 0.089107
2.415395 0.221017 14.743571 -6.975349 0.025181
2.446969 0.221017 14.970167 -7.370466 -0.034454
2.478543 0.221017 15.208485 -7.716843 -0.089681
2.510117 0.221017 15.456891 -8.008578 -0.140439
2.541691 0.221017 15.713576 -8.240322 -0.186725
2.573264 0.221017 15.976567 -8.407368 -0.228592
2.604838 0.221017 16.243757 -8.505727 -0.266140
2.636412 0.221017 16.512926 -8.532194 -0.299516
2.667986 0.221017 16.781763 -8.484409 -0.328907
2.699560 0.221017 17.047899 -8.360897 -0.354534
2.731133 0.221017 17.308930 -8.161101 -0.376648
2.762707 0.221017 17.562453 -7.885406 -0.395519
2.794281 0.221017 17.806090 -7.535140 -0.411435
2.825855 0.221017 18.037518 -7.112570 -0.424691
2.857428 0.221017 18.254504 -6.620880 -0.435583
2.889002 0.221017 18.454926 -6.064136 -0.444405
2.920576 0.221017 18.636806 -5.447240 -0.451437
2.952150 0.221017 18.798332 -4.775872 -0.456942
2.983724 0.221017 18.937884 -4.056418 -0.461161
3.015297 0.221017 19.054053 -3.295892 -0.464306
3.046871 0.221017 19.145659 -2.501843 -0.466559
3.078445 0.221017 19.211769 -1.682258 -0.468062
3.110019 0.221017 19.251708 -0.845460 -0.468921

-3.141593 0.252590 19.268983 0.000000 -0.522244
-3.110019 0.252590 19.255622 0.845611 -0.521924
-3.078445 0.252590 19.215676 1.682570 -0.520942
-3.046871 0.252590 19.149553 2.502340 -0.519224
-3.015297 0.252590 19.057928 3.296608 -0.516651
-2.983724 0.252590 18.941733 4.057395 -0.513060
-2.952150 0.252590 18.802145 4.777163 -0.508245
-2.920576 0.252590 18.640572 5.448906 -0.501966
-2.889002 0.252590 18.458632 6.066244 -0.493949
-2.857428 0.252590 18.258136 6.623504 -0.483895
-2.825855 0.252590 18.041058 7.115786 -0.471486
-2.794281 0.252590 17.809518 7.539027 -0.456390
-2.762707 0.252590 17.565747 7.890043 -0.438270
-2.731133 0.252590 17.312065 8.166566 -0.416790
-2.699560 0.252590 17.050847 8.367265 -0.391626
-2.667986 0.252590 16.784495 8.491751 -0.362469
-2.636412 0.252590 16.515410 8.540572 -0.329035
-2.604838 0.252590 16.245960 8.515195 -0.291074
-2.573264 0.252590 15.978452 8.417972 -0.248374
-2.541691 0.252590 15.715108 8.252095 -0.200768
-2.510117 0.252590 15.458033 8.021540 -0.148142
-2.478543 0.252590 15.209198 7.731001 -0.090437
-2.446969 0.252590 14.970415 7.385812 -0.027657
-2.415395 0.252590 14.743316 6.991859 0.040129
-2.383822 0.252590 14.529342 6.555492 0.112788
-2.352248 0.252590 14.329728 6.083424 0.190114
-2.320674 0.252590 14.145491 5.582632 0.271834
-2.289100 0.252590 13.977425 5.060247 0.357606
-2.257526 0.252590 13.826100 4.523451 0.447021
-2.225953 0.252590 13.691857 3.979374 0.539603
-2.194379 0.252590 13.574815 3.434987 0.634818
-2.162805 0.252590 13.474878 2.897006 0.732074
-2.131231 0.252590 13.391742 2.371798 0.830728
-2.099657 0.252590 13.324908 1.865290 0.930093
-2.068084 0.252590 13.273699 1.382898 1.029444
-2.036510 0.252590 13.237276 0.929448 1.128028
-2.004936 0.252590 13.214658 0.509123 1.225070
-1.973362 0.252590 13.204741 0.125411 1.319781
-1.941788 0.252590 13.206324 -0.218932 1.411372
-1.910215 0.252590 13.218130 -0.521907 1.499057
-1.878641 0.252590 13.238833 -0.782282 1.582068
-1.847067 0.252590 13.267076 -0.999598 1.659659
-1.815493 0.252590 13.301504 -1.174152 1.731119
-1.783919 0.252590 13.340782 -1.306974 1.795779
-1.752346 0.252590 13.383615 -1.399792 1.853021
-1.720772 0.252590 13.428779 -1.454987 1.902284
-1.689198 0.252590 13.475129 -1.475534 1.943074
-1.657624 0.252590 13.521627 -1.464938 1.974964
-1.626050 0.252590 13.567351 -1.427160 1.997606
-1.594477 0.252590 13.611509 -1.366537 2.010733
-1.562903 0.252590 13.653452 -1.287698 2.014160
-1.531329 0.252590 13.692683 -1.195474 2.007788
-1.499755 0.252590 13.728855 -1.094806 1.991604
-1.468181 0.252590 13.761780 -0.990656 1.965684
-1.436608 0.252590 13.791427 -0.887910 1.930186
-1.405034 0.252590 13.817914 -0.791294 1.885355
-1.373460 0.252590 13.841507 -0.705286 1.831513
-1.341886 0.252590 13.862607 -0.634035 1.769060
-1.310313 0.252590 13.881740 -0.581289 1.698464
-1.278739 0.252590 13.899543 -0.550326 1.620259
-1.247165 0.252590 13.916750 -0.543896 1.535038
-1.215591 0.252590 13.934170 -0.564173 1.443442
-1.184017 0.252590 13.952674 -0.612719 1.346154
-1.152444 0.252590 13.973169 -0.690450 1.243895
-1.120870 0.252590 13.996584 -0.797628 1.137406
-1.089296 0.252590 14.023844 -0.933850 1.027449
-1.057722 0.252590 14.055849 -1.098055 0.914791
-1.026148 0.252590 14.093460 -1.288548 0.800199
-0.994575 0.252590 14.137471 -1.503022 0.684432
-0.963001 0.252590 14.188595 -1.738600 0.568230
-0.931427 0.252590 14.247446 -1.991888 0.452307
-0.899853 0.252590 14.314523 -2.259026 0.337345
-0.868279 0.252590 14.390199 -2.535762 0.223990
-0.836706 0.252590 14.474704 -2.817520 0.112840
-0.805132 0.252590 14.568121 -3.099480 0.004445
-0.773558 0.252590 14.670378 -3.376662 -0.100698
-0.741984 0.252590 14.781245 -3.644011 -0.202149
-0.710410 0.252590 14.900332 -3.896484 -0.299527
-0.678837 0.252590 15.027090 -4.129139 -0.392510
-0.647263 0.252590 15.160818 -4.337219 -0.480835
-0.615689 0.252590 15.300669 -4.516235 -0.564300
-0.584115 0.252590 15.445658 -4.662049 -0.642760
-0.552541 0.252590 15.594677 -4.770939 -0.716126
-0.520968 0.252590 15.746509 -4.839674 -0.784358
-0.489394 0.252590 15.899840 -4.865568 -0.847466
-0.457820 0.252590 16.053284 -4.846531 -0.905504
-0.426246 0.252590 16.205398 -4.781107 -0.958560
-0.394672 0.252590 16.354703 -4.668509 -1.006759
-0.363099 0.252590 16.499706 -4.508632 -1.050250
-0.331525 0.252590 16.638921 -4.302064 -1.089201
-0.299951 0.252590 16.770892 -4.050084 -1.123796
-0.268377 0.252590 16.894216 -3.754643 -1.154224
-0.236803 0.252590 17.007559 -3.418343 -1.180679
-0.205230 0.252590 17.109680 -3.044397 -1.203347
-0.173656 0.252590 17.199449 -2.636586 -1.222407
-0.142082 0.252590 17.275862 -2.199202 -1.238019
-0.110508 0.252590 17.338061 -1.736985 -1.250327
-0.078934 0.252590 17.385341 -1.255050 -1.259449
-0.047361 0.252590 17.417164 -0.758812 -1.265478
-0.015787 0.252590 17.433167 -0.253906 -1.268477
0.015787 0.252590 17.433167 0.253906 -1.268477
0.047361 0.252590 17.417164 0.758812 -1.265478
0.078934 0.252590 17.385341 1.255050 -1.259449
0.110508 0.252590 17.338061 1.736985 -1.250327
0.142082 0.252590 17.275862 2.199202 -1.238019
0.173656 0.252590 17.199449 2.636586 -1.222407
0.205230 0.252590 17.109680 3.044397 -1.203347
0.236803 0.252590 17.007559 3.418343 -1.180679
0.268377 0.252590 16.894216 3.754643 -1.154224
0.299951 0.252590 16.770892 4.050084 -1.123796
0.331525 0.252590 16.638921 4.302064 -1.089201
0.363099 0.252590 16.499706 4.508632 -1.050250
0.394672 0.252590 16.354703 4.668509 -1.006759
0.426246 0.252590 16.205398 4.781107 -0.958560
0.457820 0.252590 16.053284 4.846531 -0.905504
0.489394 0.252590 15.899840 4.865568 -0.847466
0.520968 0.252590 15.746509 4.839674 -0.784358
0.552541 0.252590 15.594677 4.770939 -0.716126
0.584115 0.252590 15.445658 4.662049 -0.642760
0.615689 0.252590 15.300669 4.516235 -0.564300
0.647263 0.252590 15.160818 4.337219 -0.480835
0.678837 0.252590 15.027090 4.129139 -0.392510
0.710410 0.252590 14.900332 3.896484 -0.299527
0.741984 0.252590 14.781245 3.644011 -0.202149
0.773558 0.252590 14.670378 3.376662 -0.100698
0.805132 0.252590 14.568121 3.099480 0.004445
0.836706 0.252590 14.474704 2.817520 0.112840
0.868279 0.252590 14.390199 2.535762 0.223990
0.899853 0.252590 14.314523 2.259026 0.337345
0.931427 0.252590 14.247446 1.991888 0.452307
0.963001 0.252590 14.188595 1.738600 0.568230
0.994575 0.252590 14.137471 1.503022 0.684432
1.026148 0.252590 14.093460 1.288548 0.800199
1.057722 0.252590 14.055849 1.098055 0.914791
1.089296 0.252590 14.023844 0.933850 1.027449
1.120870 0.252590 13.996584 0.797628 1.137406
1.152444 0.252590 13.973169 0.690450 1.243895
1.184017 0.252590 13.952674 0.612719 1.346154
1.215591 0.252590 13.934170 0.564173 1.443442
1.247165 0.252590 13.916750 0.543896 1.535038
1.278739 0.252590 13.899543 0.550326 1.620259
1.310313 0.252590 13.881740 0.581289 1.698464
1.341886 0.252590 13.862607 0.634035 1.769060
1.373460 0.252590 13.841507 0.705286 1.831513
1.405034 0.252590 13.817914 0.791294 1.885355
1.436608 0.252590 13.791427 0.887910 1.930186
1.468181 0.252590 13.761780 0.990656 1.965684
1.499755 0.252590 13.728855 1.094806 1.991604
1.531329 0.252590 13.692683 1.195474 2.007788
1.562903 0.252590 13.653452 1.287698 2.014160
1.594477 0.252590 13.611509 1.366537 2.010733
1.626050 0.252590 13.567351 1.427160 1.997606
1.657624 0.252590 13.521627 1.464938 1.974964
1.689198 0.252590 13.475129 1.475534 1.943074
1.720772 0.252590 13.428779 1.454987 1.902284
1.752346 0.252590 13.383615 1.399792 1.853021
1.783919 0.252590 13.340782 1.306974 1.795779
1.815493 0.252590 13.301504 1.174152 1.731119
1.847067 0.252590 13.267076 0.999598 1.659659
1.878641 0.252590 13.238833 0.782282 1.582068
1.910215 0.252590 13.218130 0.521907 1.499057
1.941788 0.252590 13.206324 0.218932 1.411372
1.973362 0.252590 13.204741 -0.125411 1.319781
2.004936 0.252590 13.214658 -0.509123 1.225070
2.036510 0.252590 13.237276 -0.929448 1.128028
2.068084 0.252590 13.273699 -1.382898 1.029444
2.099657 0.252590 13.324908 -1.865290 0.930093
2.131231 0.252590 13.391742 -2.371798 0.830728
2.162805 0.252590 13.474878 -2.897006 0.732074
2.194379 0.252590 13.574815 -3.434987 0.634818
2.225953 0.252590 13.691857 -3.979374 0.539603
2.257526 0.252590 13.826100 -4.523451 0.447021
2.289100 0.252590 13.977425 -5.060247 0.357606
2.320674 0.252590 14.145491 -5.582632 0.271834
2.352248 0.252590 14.329728 -6.083424 0.190114
2.383822 0.252590 14.529342 -6.555492 0.112788
2.415395 0.252590 14.743316 -6.991859 0.040129
2.446969 0.252590 14.970415 -7.385812 -0.027657
2.478543 0.252590 15.209198 -7.731001 -0.090437
2.510117 0.252590 15.458033 -8.021540 -0.148142
2.541691 0.252590 15.715108 -8.252095 -0.200768
2.573264 0.252590 15.978452 -8.417972 -0.248374
2.604838 0.252590 16.245960 -8.515195 -0.291074
2.636412 0.252590 16.515410 -8.540572 -0.329035
2.667986 0.252590 16.784495 -8.491751 -0.362469
2.699560 0.252590 17.050847 -8.367265 -0.391626
2.731133 0.252590 17.312065 -8.166566 -0.416790
2.762707 0.252590 17.565747 -7.890043 -0.438270
2.794281 0.252590 17.809518 -7.539027 -0.456390
2.825855 0.252590 18.041058 -7.115786 -0.471486
2.857428 0.252590 18.258136 -6.623504 -0.483895
2.889002 0.252590 18.458632 -6.066244 -0.493949
2.920576 0.252590 18.640572 -5.448906 -0.501966
2.952150 0.252590 18.802145 -4.777163 -0.508245
2.983724 0.252590 18.941733 -4.057395 -0.513060
3.015297 0.252590 19.057928 -3.296608 -0.516651
3.046871 0.252590 19.149553 -2.502340 -0.519224
3.078445 0.252590 19.215676 -1.682570 -0.520942
3.110019 0.252590 19.255622 -0.845611 -0.521924

-3.141593 0.284164 19.273297 0.000000 -0.569885
-3.110019 0.284164 19.259934 0.845782 -0.569526
-3.078445 0.284164 19.219979 1.682925 -0.568420
-3.046871 0.284164 19.153842 2.502904 -0.566488
-3.015297 0.284164 19.062195 3.297418 -0.563596
-2.983724 0.284164 18.945970 4.058501 -0.559561
-2.952150 0.284164 18.806342 4.778623 -0.554155
-2.920576 0.284164 18.644716 5.450789 -0.547108
-2.889002 0.284164 18.462709 6.068626 -0.538115
-2.857428 0.284164 18.262129 6.626467 -0.526843
-2.825855 0.284164 18.044947 7.119417 -0.512935
-2.794281 0.284164 17.813281 7.543414 -0.496022
-2.762707 0.284164 17.569358 7.895275 -0.475728
-2.731133 0.284164 17.315496 8.172732 -0.451677
-2.699560 0.284164 17.054067 8.374448 -0.423507
-2.667986 0.284164 16.787472 8.500030 -0.390874
-2.636412 0.284164 16.518107 8.550018 -0.353461
-2.604838 0.284164 16.248339 8.525869 -0.310989
-2.573264 0.284164 15.980475 8.429925 -0.263221
-2.541691 0.284164 15.716732 8.265364 -0.209972
-2.510117 0.284164 15.459218 8.036149 -0.151114
-2.478543 0.284164 15.209900 7.746957 -0.086582
-2.446969 0.284164 14.970591 7.403104 -0.016382
-2.415395 0.284164 14.742926 7.010461 0.059411
-2.383822 0.284164 14.528345 6.575360 0.140645
-2.352248 0.284164 14.328084 6.104495 0.227092
-2.320674 0.284164 14.143164 5.604823 0.318445
-2.289100 0.284164 13.974381 5.083458 0.414322
-2.257526 0.284164 13.822309 4.547566 0.514265
-2.225953 0.284164 13.687291 4.004259 0.617744
-2.194379 0.284164 13.569454 3.460493 0.724158
-2.162805 0.284164 13.468704 2.922969 0.832848
-2.131231 0.284164 13.384743 2.398040 0.943095
-2.099657 0.284164 13.317078 1.891626 1.054130
-2.068084 0.284164 13.265039 1.409131 1.165144
-2.036510 0.284164 13.227793 0.955375 1.275294
-2.004936 0.284164 13.204363 0.534537 1.383713
-1.973362 0.284164 13.193654 0.150102 1.489522
-1.941788 0.284164 13.194472 -0.195172 1.591836
-1.910215 0.284164 13.205546 -0.499285 1.689778
-1.878641 0.284164 13.225554 -0.760998 1.782489
-1.847067 0.284164 13.253149 -0.979846 1.869136
-1.815493 0.284164 13.286981 -1.156114 1.948923
-1.783919 0.284164 13.325718 -1.290821 2.021104
-1.752346 0.284164 13.368073 -1.385681 2.084988
-1.720772 0.284164 13.412825 -1.443058 2.139946
-1.689198 0.284164 13.458835 -1.465909 2.185426
-1.657624 0.284164 13.505067 -1.457719 2.220953
-1.626050 0.284164 13.550601 -1.422430 2.246137
-1.594477 0.284164 13.594650 -1.364355 2.260678
-1.562903 0.284164 13.636566 -1.288102 2.264370
-1.531329 0.284164 13.675850 -1.198479 2.257102
-1.499755 0.284164 13.712158 -1.100404 2.238860
-1.468181 0.284164 13.745301 -0.998815 2.209728
-1.436608 0.284164 13.775245 -0.898577 2.169883
-1.405034 0.284164 13.802108 -0.804393 2.119599
-1.373460 0.284164 13.826151 -0.720722 2.059235
-1.341886 0.284164 13.847774 -0.651694 1.989238
-1.310313 0.284164 13.867498 -0.601037 1.910132
-1.278739 0.284164 13.885956 -0.572013 1.822513
-1.247165 0.284164 13.903875 -0.567359 1.727043
-1.215591 0.284164 13.922062 -0.589236 1.624439
-1.184017 0.284164 13.941380 -0.639196 1.515466
-1.152444 0.284164 13.962731 -0.718147 1.400927
-1.120870 0.284164 13.987037 -0.826346 1.281653
-1.089296 0.284164 14.015217 -0.963385 1.158494
-1.057722 0.284164 14.048165 -1.128205 1.032308
-1.026148 0.284164 14.086735 -1.319109 0.903955
-0.994575 0.284164 14.131715 -1.533796 0.774280
-0.963001 0.284164 14.183811 -1.769395 0.644111
-0.931427 0.284164 14.243632 -2.022517 0.514249
-0.899853 0.284164 14.311672 -2.289314 0.385457
-0.868279 0.284164 14.388296 -2.565544 0.258455
-0.836706 0.284164 14.473731 -2.846643 0.133914
-0.805132 0.284164 14.568056 -3.127806 0.012449
-0.773558 0.284164 14.671193 -3.404066 -0.105384
-0.741984 0.284164 14.782910 -3.670385 -0.219091
-0.710410 0.284164 14.902811 -3.921734 -0.328246
-0.678837 0.284164 15.030348 -4.153188 -0.432487
-0.647263 0.284164 15.164816 -4.360005 -0.531520
-0.615689 0.284164 15.305365 -4.537713 -0.625119
-0.584115 0.284164 15.451012 -4.682186 -0.713118
-0.552541 0.284164 15.600645 -4.789719 -0.795417
-0.520968 0.284164 15.753048 -4.857094 -0.871971
-0.489394 0.284164 15.906908 -4.881635 -0.942789
-0.457820 0.284164 16.060839 -4.861264 -1.007930
-0.426246 0.284164 16.213397 -4.794536 -1.067493
-0.394672 0.284164 16.363106 -4.680668 -1.121614
-0.363099 0.284164 16.508473 -4.519564 -1.170459
-0.331525 0.284164 16.648014 -4.311817 -1.214215
-0.299951 0.284164 16.780276 -4.058706 -1.253086
-0.268377 0.284164 16.903854 -3.762186 -1.287283
-0.236803 0.284164 17.017419 -3.424856 -1.317021
-0.205230 0.284164 17.119730 -3.049930 -1.342507
-0.173656 0.284164 17.209659 -2.641183 -1.363940
-0.142082 0.284164 17.286203 -2.202904 -1.381499
-0.110508 0.284164 17.348506 -1.739826 -1.395344
-0.078934 0.284164 17.395862 -1.257059 -1.405607
-0.047361 0.284164 17.427735 -0.760009 -1.412391
-0.015787 0.284164 17.443763 -0.254303 -1.415765
0.015787 0.284164 17.443763 0.254303 -1.415765
0.047361 0.284164 17.427735 0.760009 -1.412391
0.078934 0.284164 17.395862 1.257059 -1.405607
0.110508 0.284164 17.348506 1.739826 -1.395344
0.142082 0.284164 17.286203 2.202904 -1.381499
0.173656 0.284164 17.209659 2.641183 -1.363940
0.205230 0.284164 17.119730 3.049930 -1.342507
0.236803 0.284164 17.017419 3.424856 -1.317021
0.268377 0.284164 16.903854 3.762186 -1.287283
0.299951 0.284164 16.780276 4.058706 -1.253086
0.331525 0.284164 16.648014 4.311817 -1.214215
0.363099 0.284164 16.508473 4.519564 -1.170459
0.394672 0.284164 16.363106 4.680668 -1.121614
0.426246 0.284164 16.213397 4.794536 -1.067493
0.457820 0.284164 16.060839 4.861264 -1.007930
0.489394 0.284164 15.906908 4.881635 -0.942789
0.520968 0.284164 15.753048 4.857094 -0.871971
0.552541 0.284164 15.600645 4.789719 -0.795417
0.584115 0.284164 15.451012 4.682186 -0.713118
0.615689 0.284164 15.305365 4.537713 -0.625119
0.647263 0.284164 15.164816 4.360005 -0.531520
0.678837 0.284164 15.030348 4.153188 -0.432487
0.710410 0.284164 14.902811 3.921734 -0.328246
0.741984 0.284164 14.782910 3.670385 -0.219091
0.773558 0.284164 14.671193 3.404066 -0.105384
0.805132 0.284164 14.568056 3.127806 0.012449
0.836706 0.284164 14.473731 2.846643 0.133914
0.868279 0.284164 14.388296 2.565544 0.258455
0.899853 0.284164 14.311672 2.289314 0.385457
0.931427 0.284164 14.243632 2.022517 0.514249
0.963001 0.284164 14.183811 1.769395 0.644111
0.994575 0.284164 14.131715 1.533796 0.774280
1.026148 0.284164 14.086735 1.319109 0.903955
1.057722 0.284164 14.048165 1.128205 1.032308
1.089296 0.284164 14.015217 0.963385 1.158494
1.120870 0.284164 13.987037 0.826346 1.281653
1.152444 0.284164 13.962731 0.718147 1.400927
1.184017 0.284164 13.941380 0.639196 1.515466
1.215591 0.284164 13.922062 0.589236 1.624439
1.247165 0.284164 13.903875 0.567359 1.727043
1.278739 0.284164 13.885956 0.572013 1.822513
1.310313 0.284164 13.867498 0.601037 1.910132
1.341886 0.284164 13.847774 0.651694 1.989238
1.373460 0.284164 13.826151 0.720722 2.059235
1.405034 0.284164 13.802108 0.804393 2.119599
1.436608 0.284164 13.775245 0.898577 2.169883
1.468181 0.284164 13.745301 0.998815 2.209728
1.499755 0.284164 13.712158 1.100404 2.238860
1.531329 0.284164 13.675850 1.198479 2.257102
1.562903 0.284164 13.636566 1.288102 2.264370
1.594477 0.284164 13.594650 1.364355 2.260678
1.626050 0.284164 13.550601 1.422430 2.246137
1.657624 0.284164 13.505067 1.457719 2.220953
1.689198 0.284164 13.458835 1.465909 2.185426
1.720772 0.284164 13.412825 1.443058 2.139946
1.752346 0.284164 13.368073 1.385681 2.084988
1.783919 0.284164 13.325718 1.290821 2.021104
1.815493 0.284164 13.286981 1.156114 1.948923
1.847067 0.284164 13.253149 0.979846 1.869136
1.878641 0.284164 13.225554 0.760998 1.782489
1.910215 0.284164 13.205546 0.499285 1.689778
1.941788 0.284164 13.194472 0.195172 1.591836
1.973362 0.284164 13.193654 -0.150102 1.489522
2.004936 0.284164 13.204363 -0.534537 1.383713
2.036510 0.284164 13.227793 -0.955375 1.275294
2.068084 0.284164 13.265039 -1.409131 1.165144
2.099657 0.284164 13.317078 -1.891626 1.054130
2.131231 0.284164 13.384743 -2.398040 0.943095
2.162805 0.284164 13.468704 -2.922969 0.832848
2.194379 0.284164 13.569454 -3.460493 0.724158
2.225953 0.284164 13.687291 -4.004259 0.617744
2.257526 0.284164 13.822309 -4.547566 0.514265
2.289100 0.284164 13.974381 -5.083458 0.414322
2.320674 0.284164 14.143164 -5.604823 0.318445
2.352248 0.284164 14.328084 -6.104495 0.227092
2.383822 0.284164 14.528345 -6.575360 0.140645
2.415395 0.284164 14.742926 -7.010461 0.059411
2.446969 0.284164 14.970591 -7.403104 -0.016382
2.478543 0.284164 15.209900 -7.746957 -0.086582
2.510117 0.284164 15.459218 -8.036149 -0.151114
2.541691 0.284164 15.716732 -8.265364 -0.209972
2.573264 0.284164 15.980475 -8.429925 -0.263221
2.604838 0.284164 16.248339 -8.525869 -0.310989
2.636412 0.284164 16.518107 -8.550018 -0.353461
2.667986 0.284164 16.787472 -8.500030 -0.390874
2.699560 0.284164 17.054067 -8.374448 -0.423507
2.731133 0.284164 17.315496 -8.172732 -0.451677
2.762707 0.284164 17.569358 -7.895275 -0.475728
2.794281 0.284164 17.813281 -7.543414 -0.496022
2.825855 0.284164 18.044947 -7.119417 -0.512935
2.857428 0.284164 18.262129 -6.626467 -0.526843
2.889002 0.284164 18.462709 -6.068626 -0.538115
2.920576 0.284164 18.644716 -5.450789 -0.547108
2.952150 0.284164 18.806342 -4.778623 -0.554155
2.983724 0.284164 18.945970 -4.058501 -0.559561
3.015297 0.284164 19.062195 -3.297418 -0.563596
3.046871 0.284164 19.153842 -2.502904 -0.566488
3.078445 0.284164 19.219979 -1.682925 -0.568420
3.110019 0.284164 19.259934 -0.845782 -0.569526

-3.141593 0.315738 19.277964 0.000000 -0.611566
-3.110019 0.315738 19.264598 0.845973 -0.611167
-3.078445 0.315738 19.224634 1.683321 -0.609940
-3.046871 0.315738 19.158480 2.503533 -0.607794
-3.015297 0.315738 19.066809 3.298322 -0.604585
-2.983724 0.315738 18.950551 4.059735 -0.600109
-2.952150 0.315738 18.810878 4.780252 -0.594116
-2.920576 0.315738 18.649193 5.452888 -0.586308
-2.889002 0.315738 18.467112 6.071280 -0.576351
-2.857428 0.315738 18.266437 6.629767 -0.563874
-2.825855 0.315738 18.049140 7.123458 -0.548488
-2.794281 0.315738 17.817333 7.548295 -0.529784
-2.762707 0.315738 17.573242 7.901095 -0.507347
-2.731133 0.315738 17.319180 8.179588 -0.480766
-2.699560 0.315738 17.057518 8.382434 -0.449639
-2.667986 0.315738 16.790651 8.509232 -0.413589
-2.636412 0.315738 16.520975 8.560515 -0.372268
-2.604838 0.315738 16.250855 8.537730 -0.325366
-2.573264 0.315738 15.982593 8.443204 -0.272624
-2.541691 0.315738 15.718409 8.280104 -0.213837
-2.510117 0.315738 15.460405 8.052374 -0.148866
-2.478543 0.315738 15.210552 7.764676 -0.077641
-2.446969 0.315738 14.970660 7.422307 -0.000166
-2.415395 0.315738 14.742365 7.031117 0.083475
-2.383822 0.315738 14.527110 6.597419 0.173112
-2.352248 0.315738 14.326131 6.127887 0.268494
-2.320674 0.315738 14.140452 5.629458 0.369283
-2.289100 0.315738 13.970874 5.109225 0.475057
-2.257526 0.315738 13.817971 4.574335 0.585308
-2.225953 0.315738 13.682095 4.031880 0.699453
-2.194379 0.315738 13.563374 3.488801 0.816831
-2.162805 0.315738 13.461722 2.951782 0.936711
-2.131231 0.315738 13.376846 2.427163 1.058301
-2.099657 0.315738 13.308260 1.920850 1.180753
-2.068084 0.315738 13.255299 1.438239 1.303175
-2.036510 0.315738 13.217138 0.984142 1.424635
-2.004936 0.315738 13.192809 0.562733 1.544179
-1.973362 0.315738 13.181222 0.177495 1.660836
-1.941788 0.315738 13.181190 -0.168816 1.773630
-1.910215 0.315738 13.191451 -0.474192 1.881593
-1.878641 0.315738 13.210690 -0.737394 1.983778
-1.847067 0.315738 13.237567 -0.957943 2.079265
-1.815493 0.315738 13.270736 -1.136116 2.167178
-1.783919 0.315738 13.308874 -1.272917 2.246692
-1.752346 0.315738 13.350700 -1.370046 2.317045
-1.720772 0.315738 13.394996 -1.429846 2.377544
-1.689198 0.315738 13.440629 -1.455257 2.427579
-1.657624 0.315738 13.486566 -1.449740 2.466626
-1.626050 0.315738 13.531892 -1.417214 2.494255
-1.594477 0.315738 13.575821 -1.361971 2.510136
-1.562903 0.315738 13.617706 -1.288590 2.514039
-1.531329 0.315738 13.657051 -1.201856 2.505843
-1.499755 0.315738 13.693512 -1.106661 2.485533
-1.468181 0.315738 13.726897 -1.007917 2.453200
-1.436608 0.315738 13.757173 -0.910465 2.409041
-1.405034 0.315738 13.784454 -0.818984 2.353355
-1.373460 0.315738 13.808999 -0.737910 2.286541
-1.341886 0.315738 13.831204 -0.671350 2.209089
-1.310313 0.315738 13.851585 -0.623013 2.121579
-1.278739 0.315738 13.870772 -0.596145 2.024668
-1.247165 0.315738 13.889485 -0.593464 1.919085
-1.215591 0.315738 13.908525 -0.617120 1.805623
-1.184017 0.315738 13.928749 -0.668651 1.685124
-1.152444 0.315738 13.951052 -0.748960 1.558474
-1.120870 0.315738 13.976349 -0.858293 1.426592
-1.089296 0.315738 14.005552 -0.996242 1.290413
-1.057722 0.315738 14.039550 -1.161746 1.150887
-1.026148 0.315738 14.079186 -1.353110 1.008959
-0.994575 0.315738 14.125244 -1.568035 0.865564
-0.963001 0.315738 14.178422 -1.803658 0.721617
-0.931427 0.315738 14.239323 -2.056598 0.578001
-0.899853 0.315738 14.308433 -2.323018 0.435558
-0.868279 0.315738 14.386113 -2.598687 0.295083
-0.836706 0.315738 14.472583 -2.879057 0.157318
-0.805132 0.315738 14.567918 -3.159335 0.022942
-0.773558 0.315738 14.672035 -3.434573 -0.107429
-0.741984 0.315738 14.784697 -3.699748 -0.233252
-0.710410 0.315738 14.905506 -3.949850 -0.354052
-0.678837 0.315738 15.033910 -4.179970 -0.469431
-0.647263 0.315738 15.169201 -4.385384 -0.579063
-0.615689 0.315738 15.310529 -4.561638 -0.682695
-0.584115 0.315738 15.456907 -4.704622 -0.780145
-0.552541 0.315738 15.607226 -4.810647 -0.871299
-0.520968 0.315738 15.760265 -4.876509 -0.956108
-0.489394 0.315738 15.914715 -4.899547 -1.034579
-0.457820 0.315738 16.069187 -4.877693 -1.106775
-0.426246 0.315738 16.222241 -4.809513 -1.172804
-0.394672 0.315738 16.372400 -4.694233 -1.232814
-0.363099 0.315738 16.518174 -4.531763 -1.286987
-0.331525 0.315738 16.658080 -4.322702 -1.335528
-0.299951 0.315738 16.790665 -4.068332 -1.378660
-0.268377 0.315738 16.914529 -3.770608 -1.416616
-0.236803 0.315738 17.028341 -3.432131 -1.449629
-0.205230 0.315738 17.130864 -3.056110 -1.477930
-0.173656 0.315738 17.220971 -2.646320 -1.501734
-0.142082 0.315738 17.297662 -2.207041 -1.521240
-0.110508 0.315738 17.360080 -1.743002 -1.536622
-0.078934 0.315738 17.407522 -1.259304 -1.548026
-0.047361 0.315738 17.439452 -0.761347 -1.555565
-0.015787 0.315738 17.455508 -0.254748 -1.559314
0.015787 0.315738 17.455508 0.254748 -1.559314
0.047361 0.315738 17.439452 0.761347 -1.555565
0.078934 0.315738 17.407522 1.259304 -1.548026
0.110508 0.315738 17.360080 1.743002 -1.536622
0.142082 0.315738 17.297662 2.207041 -1.521240
0.173656 0.315738 17.220971 2.646320 -1.501734
0.205230 0.315738 17.130864 3.056110 -1.477930
