#! FIELDS DIH_23 OOP_23 ext_23.bias der_DIH_23 der_OOP_23
#! SET min_DIH_23 -pi
#! SET max_DIH_23 pi
#! SET nbins_DIH_23 199
#! SET periodic_DIH_23 true
#! SET min_OOP_23 0
#! SET max_OOP_23 2*pi
#! SET nbins_OOP_23 199
#! SET periodic_OOP_23 false
-3.141593 0.000000 1.860051 -0.000000 0.000009
-3.110019 0.000000 1.870791 -0.680164 0.000009
-3.078445 0.000000 1.902985 -1.358748 0.000009
-3.046871 0.000000 1.956559 -2.034157 0.000010
-3.015297 0.000000 2.031387 -2.704771 0.000010
-2.983724 0.000000 2.127291 -3.368924 0.000011
-2.952150 0.000000 2.244040 -4.024902 0.000011
-2.920576 0.000000 2.381349 -4.670925 0.000012
-2.889002 0.000000 2.538873 -5.305142 0.000013
-2.857428 0.000000 2.716211 -5.925624 0.000014
-2.825855 0.000000 2.912897 -6.530361 0.000015
-2.794281 0.000000 3.128400 -7.117258 0.000016
-2.762707 0.000000 3.362124 -7.684138 0.000017
-2.731133 0.000000 3.613400 -8.228748 0.000019
-2.699560 0.000000 3.881491 -8.748763 0.000020
-2.667986 0.000000 4.165580 -9.241798 0.000021
-2.636412 0.000000 4.464778 -9.705420 0.000022
-2.604838 0.000000 4.778118 -10.137166 0.000024
-2.573264 0.000000 5.104554 -10.534558 0.000025
-2.541691 0.000000 5.442963 -10.895127 0.000026
-2.510117 0.000000 5.792142 -11.216436 0.000027
-2.478543 0.000000 6.150815 -11.496101 0.000028
-2.446969 0.000000 6.517631 -11.731822 0.000029
-2.415395 0.000000 6.891166 -11.921408 0.000030
-2.383822 0.000000 7.269932 -12.062809 0.000031
-2.352248 0.000000 7.652376 -12.154137 0.000032
-2.320674 0.000000 8.036891 -12.193704 0.000032
-2.289100 0.000000 8.421819 -12.180041 0.000033
-2.257526 0.000000 8.805458 -12.111932 0.000033
-2.225953 0.000000 9.186075 -11.988436 0.000033
-2.194379 0.000000 9.561909 -11.808910 0.000033
-2.162805 0.000000 9.931186 -11.573031 0.000033
-2.131231 0.000000 10.292125 -11.280816 0.000033
-2.099657 0.000000 10.642953 -10.932632 0.000033
-2.068084 0.000000 10.981913 -10.529216 0.000033
-2.036510 0.000000 11.307278 -10.071674 0.000033
-2.004936 0.000000 11.617361 -9.561494 0.000032
-1.973362 0.000000 11.910529 -9.000538 0.000032
-1.941788 0.000000 12.185213 -8.391046 0.000032
-1.910215 0.000000 12.439920 -7.735621 0.000031
-1.878641 0.000000 12.673246 -7.037220 0.000030
-1.847067 0.000000 12.883886 -6.299138 0.000030
-1.815493 0.000000 13.070642 -5.524986 0.000029
-1.783919 0.000000 13.232436 -4.718666 0.000029
-1.752346 0.000000 13.368319 -3.884345 0.000028
-1.720772 0.000000 13.477475 -3.026423 0.000028
-1.689198 0.000000 13.559231 -2.149496 0.000027
-1.657624 0.000000 13.613061 -1.258326 0.000027
-1.626050 0.000000 13.638592 -0.357796 0.000026
-1.594477 0.000000 13.635608 0.547128 0.000026
-1.562903 0.000000 13.604049 1.451440 0.000026
-1.531329 0.000000 13.544013 2.350131 0.000025
-1.499755 0.000000 13.455755 3.238240 0.000025
-1.468181 0.000000 13.339688 4.110887 0.000025
-1.436608 0.000000 13.196375 4.963321 0.000025
-1.405034 0.000000 13.026528 5.790953 0.000025
-1.373460 0.000000 12.830998 6.589400 0.000025
-1.341886 0.000000 12.610774 7.354516 0.000025
-1.310313 0.000000 12.366970 8.082425 0.000025
-1.278739 0.000000 12.100817 8.769550 0.000026
-1.247165 0.000000 11.813657 9.412641 0.000026
-1.215591 0.000000 11.506926 10.008792 0.000026
-1.184017 0.000000 11.182147 10.555465 0.000027
-1.152444 0.000000 10.840917 11.050497 0.000027
-1.120870 0.000000 10.484897 11.492114 0.000027
-1.089296 0.000000 10.115795 11.878933 0.000028
-1.057722 0.000000 9.735358 12.209962 0.000028
-1.026148 0.000000 9.345359 12.484599 0.000029
-0.994575 0.000000 8.947582 12.702620 0.000029
-0.963001 0.000000 8.543813 12.864169 0.000029
-0.931427 0.000000 8.135830 12.969742 0.000030
-0.899853 0.000000 7.725386 13.020164 0.000030
-0.868279 0.000000 7.314206 13.016573 0.000031
-0.836706 0.000000 6.903974 12.960388 0.000031
-0.805132 0.000000 6.496325 12.853286 0.000031
-0.773558 0.000000 6.092836 12.697170 0.000031
-0.741984 0.000000 5.695023 12.494138 0.000031
-0.710410 0.000000 5.304332 12.246454 0.000032
-0.678837 0.000000 4.922134 11.956511 0.000032
-0.647263 0.000000 4.549725 11.626805 0.000032
-0.615689 0.000000 4.188321 11.259897 0.000032
-0.584115 0.000000 3.839054 10.858389 0.000031
-0.552541 0.000000 3.502976 10.424888 0.000031
-0.520968 0.000000 3.181057 9.961986 0.000031
-0.489394 0.000000 2.874183 9.472230 0.000031
-0.457820 0.000000 2.583165 8.958102 0.000031
-0.426246 0.000000 2.308732 8.421998 0.000030
-0.394672 0.000000 2.051543 7.866214 0.000030
-0.363099 0.000000 1.812184 7.292929 0.000030
-0.331525 0.000000 1.591174 6.704202 0.000030
-0.299951 0.000000 1.388972 6.101959 0.000029
-0.268377 0.000000 1.205974 5.487993 0.000029
-0.236803 0.000000 1.042524 4.863967 0.000029
-0.205230 0.000000 0.898916 4.231412 0.000028
-0.173656 0.000000 0.775395 3.591740 0.000028
-0.142082 0.000000 0.672167 2.946251 0.000028
-0.110508 0.000000 0.589395 2.296147 0.000028
-0.078934 0.000000 0.527208 1.642545 0.000028
-0.047361 0.000000 0.485698 0.986493 0.000028
-0.015787 0.000000 0.464928 0.328991 0.000028
0.015787 0.000000 0.464928 -0.328991 0.000028
0.047361 0.000000 0.485698 -0.986493 0.000028
0.078934 0.000000 0.527208 -1.642545 0.000028
0.110508 0.000000 0.589395 -2.296147 0.000028
0.142082 0.000000 0.672167 -2.946251 0.000028
0.173656 0.000000 0.775395 -3.591740 0.000028
0.205230 0.000000 0.898916 -4.231412 0.000028
0.236803 0.000000 1.042524 -4.863967 0.000029
0.268377 0.000000 1.205974 -5.487993 0.000029
0.299951 0.000000 1.388972 -6.101959 0.000029
0.331525 0.000000 1.591174 -6.704202 0.000030
0.363099 0.000000 1.812184 -7.292929 0.000030
0.394672 0.000000 2.051543 -7.866214 0.000030
0.426246 0.000000 2.308732 -8.421998 0.000030
0.457820 0.000000 2.583165 -8.958102 0.000031
0.489394 0.000000 2.874183 -9.472230 0.000031
0.520968 0.000000 3.181057 -9.961986 0.000031
0.552541 0.000000 3.502976 -10.424888 0.000031
0.584115 0.000000 3.839054 -10.858389 0.000031
0.615689 0.000000 4.188321 -11.259897 0.000032
0.647263 0.000000 4.549725 -11.626805 0.000032
0.678837 0.000000 4.922134 -11.956511 0.000032
0.710410 0.000000 5.304332 -12.246454 0.000032
0.741984 0.000000 5.695023 -12.494138 0.000031
0.773558 0.000000 6.092836 -12.697170 0.000031
0.805132 0.000000 6.496325 -12.853286 0.000031
0.836706 0.000000 6.903974 -12.960388 0.000031
0.868279 0.000000 7.314206 -13.016573 0.000031
0.899853 0.000000 7.725386 -13.020164 0.000030
0.931427 0.000000 8.135830 -12.969742 0.000030
0.963001 0.000000 8.543813 -12.864169 0.000029
0.994575 0.000000 8.947582 -12.702620 0.000029
1.026148 0.000000 9.345359 -12.484599 0.000029
1.057722 0.000000 9.735358 -12.209962 0.000028
1.089296 0.000000 10.115795 -11.878933 0.000028
1.120870 0.000000 10.484897 -11.492114 0.000027
1.152444 0.000000 10.840917 -11.050497 0.000027
1.184017 0.000000 11.182147 -10.555465 0.000027
1.215591 0.000000 11.506926 -10.008792 0.000026
1.247165 0.000000 11.813657 -9.412641 0.000026
1.278739 0.000000 12.100817 -8.769550 0.000026
1.310313 0.000000 12.366970 -8.082425 0.000025
1.341886 0.000000 12.610774 -7.354516 0.000025
1.373460 0.000000 12.830998 -6.589400 0.000025
1.405034 0.000000 13.026528 -5.790953 0.000025
1.436608 0.000000 13.196375 -4.963321 0.000025
1.468181 0.000000 13.339688 -4.110887 0.000025
1.499755 0.000000 13.455755 -3.238240 0.000025
1.531329 0.000000 13.544013 -2.350131 0.000025
1.562903 0.000000 13.604049 -1.451440 0.000026
1.594477 0.000000 13.635608 -0.547128 0.000026
1.626050 0.000000 13.638592 0.357796 0.000026
1.657624 0.000000 13.613061 1.258326 0.000027
1.689198 0.000000 13.559231 2.149496 0.000027
1.720772 0.000000 13.477475 3.026423 0.000028
1.752346 0.000000 13.368319 3.884345 0.000028
1.783919 0.000000 13.232436 4.718666 0.000029
1.815493 0.000000 13.070642 5.524986 0.000029
1.847067 0.000000 12.883886 6.299138 0.000030
1.878641 0.000000 12.673246 7.037220 0.000030
1.910215 0.000000 12.439920 7.735621 0.000031
1.941788 0.000000 12.185213 8.391046 0.000032
1.973362 0.000000 11.910529 9.000538 0.000032
2.004936 0.000000 11.617361 9.561494 0.000032
2.036510 0.000000 11.307278 10.071674 0.000033
2.068084 0.000000 10.981913 10.529216 0.000033
2.099657 0.000000 10.642953 10.932632 0.000033
2.131231 0.000000 10.292125 11.280816 0.000033
2.162805 0.000000 9.931186 11.573031 0.000033
2.194379 0.000000 9.561909 11.808910 0.000033
2.225953 0.000000 9.186075 11.988436 0.000033
2.257526 0.000000 8.805458 12.111932 0.000033
2.289100 0.000000 8.421819 12.180041 0.000033
2.320674 0.000000 8.036891 12.193704 0.000032
2.352248 0.000000 7.652376 12.154137 0.000032
2.383822 0.000000 7.269932 12.062809 0.000031
2.415395 0.000000 6.891166 11.921408 0.000030
2.446969 0.000000 6.517631 11.731822 0.000029
2.478543 0.000000 6.150815 11.496101 0.000028
2.510117 0.000000 5.792142 11.216436 0.000027
2.541691 0.000000 5.442963 10.895127 0.000026
2.573264 0.000000 5.104554 10.534558 0.000025
2.604838 0.000000 4.778118 10.137166 0.000024
2.636412 0.000000 4.464778 9.705420 0.000022
2.667986 0.000000 4.165580 9.241798 0.000021
2.699560 0.000000 3.881491 8.748763 0.000020
2.731133 0.000000 3.613400 8.228748 0.000019
2.762707 0.000000 3.362124 7.684138 0.000017
2.794281 0.000000 3.128400 7.117258 0.000016
2.825855 0.000000 2.912897 6.530361 0.000015
2.857428 0.000000 2.716211 5.925624 0.000014
2.889002 0.000000 2.538873 5.305142 0.000013
2.920576 0.000000 2.381349 4.670925 0.000012
2.952150 0.000000 2.244040 4.024902 0.000011
2.983724 0.000000 2.127291 3.368924 0.000011
3.015297 0.000000 2.031387 2.704771 0.000010
3.046871 0.000000 1.956559 2.034157 0.000010
3.078445 0.000000 1.902985 1.358748 0.000009
3.110019 0.000000 1.870791 0.680164 0.000009

-3.141593 0.031574 1.862256 -0.000000 -0.558594
-3.110019 0.031574 1.872995 -0.680122 -0.558427
-3.078445 0.031574 1.905187 -1.358665 -0.557927
-3.046871 0.031574 1.958758 -2.034034 -0.557102
-3.015297 0.031574 2.033581 -2.704609 -0.555964
-2.983724 0.031574 2.129480 -3.368727 -0.554528
-2.952150 0.031574 2.246222 -4.024671 -0.552814
-2.920576 0.031574 2.383523 -4.670664 -0.550848
-2.889002 0.031574 2.541039 -5.304855 -0.548656
-2.857428 0.031574 2.718368 -5.925315 -0.546270
-2.825855 0.031574 2.915043 -6.530034 -0.543722
-2.794281 0.031574 3.130536 -7.116918 -0.541050
-2.762707 0.031574 3.364249 -7.683790 -0.538291
-2.731133 0.031574 3.615514 -8.228396 -0.535483
-2.699560 0.031574 3.883593 -8.748412 -0.532666
-2.667986 0.031574 4.167672 -9.241453 -0.529881
-2.636412 0.031574 4.466859 -9.705087 -0.527166
-2.604838 0.031574 4.780189 -10.136848 -0.524560
-2.573264 0.031574 5.106615 -10.534261 -0.522101
-2.541691 0.031574 5.445015 -10.894855 -0.519822
-2.510117 0.031574 5.794186 -11.216192 -0.517757
-2.478543 0.031574 6.152852 -11.495889 -0.515936
-2.446969 0.031574 6.519661 -11.731646 -0.514384
-2.415395 0.031574 6.893192 -11.921270 -0.513125
-2.383822 0.031574 7.271954 -12.062711 -0.512178
-2.352248 0.031574 7.654396 -12.154081 -0.511558
-2.320674 0.031574 8.038910 -12.193690 -0.511275
-2.289100 0.031574 8.423838 -12.180070 -0.511336
-2.257526 0.031574 8.807479 -12.112005 -0.511742
-2.225953 0.031574 9.188098 -11.988551 -0.512490
-2.194379 0.031574 9.563937 -11.809066 -0.513574
-2.162805 0.031574 9.933219 -11.573227 -0.514983
-2.131231 0.031574 10.294165 -11.281049 -0.516700
-2.099657 0.031574 10.645001 -10.932901 -0.518707
-2.068084 0.031574 10.983970 -10.529516 -0.520982
-2.036510 0.031574 11.309345 -10.072003 -0.523499
-2.004936 0.031574 11.619439 -9.561847 -0.526230
-1.973362 0.031574 11.912618 -9.000913 -0.529144
-1.941788 0.031574 12.187314 -8.391437 -0.532210
-1.910215 0.031574 12.442033 -7.736025 -0.535392
-1.878641 0.031574 12.675373 -7.037632 -0.538657
-1.847067 0.031574 12.886025 -6.299554 -0.541970
-1.815493 0.031574 13.072794 -5.525402 -0.545296
-1.783919 0.031574 13.234602 -4.719077 -0.548601
-1.752346 0.031574 13.370498 -3.884747 -0.551852
-1.720772 0.031574 13.479666 -3.026812 -0.555017
-1.689198 0.031574 13.561434 -2.149869 -0.558066
-1.657624 0.031574 13.615275 -1.258680 -0.560973
-1.626050 0.031574 13.640818 -0.358127 -0.563712
-1.594477 0.031574 13.637844 0.546822 -0.566261
-1.562903 0.031574 13.606294 1.451161 -0.568602
-1.531329 0.031574 13.546266 2.349881 -0.570720
-1.499755 0.031574 13.458016 3.238020 -0.572603
-1.468181 0.031574 13.341955 4.110698 -0.574242
-1.436608 0.031574 13.198648 4.963162 -0.575634
-1.405034 0.031574 13.028805 5.790826 -0.576776
-1.373460 0.031574 12.833278 6.589304 -0.577672
-1.341886 0.031574 12.613057 7.354449 -0.578327
-1.310313 0.031574 12.369254 8.082386 -0.578751
-1.278739 0.031574 12.103103 8.769538 -0.578954
-1.247165 0.031574 11.815943 9.412653 -0.578953
-1.215591 0.031574 11.509211 10.008827 -0.578764
-1.184017 0.031574 11.184430 10.555520 -0.578405
-1.152444 0.031574 10.843199 11.050569 -0.577898
-1.120870 0.031574 10.487176 11.492201 -0.577265
-1.089296 0.031574 10.118071 11.879031 -0.576528
-1.057722 0.031574 9.737631 12.210069 -0.575710
-1.026148 0.031574 9.347628 12.484712 -0.574836
-0.994575 0.031574 8.949848 12.702735 -0.573928
-0.963001 0.031574 8.546076 12.864284 -0.573009
-0.931427 0.031574 8.138088 12.969854 -0.572100
-0.899853 0.031574 7.727641 13.020272 -0.571222
-0.868279 0.031574 7.316458 13.016673 -0.570393
-0.836706 0.031574 6.906223 12.960479 -0.569628
-0.805132 0.031574 6.498571 12.853367 -0.568944
-0.773558 0.031574 6.095080 12.697238 -0.568352
-0.741984 0.031574 5.697265 12.494193 -0.567861
-0.710410 0.031574 5.306572 12.246495 -0.567478
-0.678837 0.031574 4.924373 11.956538 -0.567209
-0.647263 0.031574 4.551964 11.626817 -0.567054
-0.615689 0.031574 4.190559 11.259895 -0.567013
-0.584115 0.031574 3.841293 10.858373 -0.567084
-0.552541 0.031574 3.505216 10.424860 -0.567259
-0.520968 0.031574 3.183297 9.961947 -0.567533
-0.489394 0.031574 2.876425 9.472180 -0.567895
-0.457820 0.031574 2.585408 8.958043 -0.568333
-0.426246 0.031574 2.310978 8.421932 -0.568836
-0.394672 0.031574 2.053791 7.866142 -0.569389
-0.363099 0.031574 1.814434 7.292854 -0.569978
-0.331525 0.031574 1.593427 6.704125 -0.570588
-0.299951 0.031574 1.391227 6.101883 -0.571203
-0.268377 0.031574 1.208231 5.487919 -0.571808
-0.236803 0.031574 1.044784 4.863896 -0.572389
-0.205230 0.031574 0.901177 4.231347 -0.572931
-0.173656 0.031574 0.777659 3.591682 -0.573422
-0.142082 0.031574 0.674433 2.946202 -0.573850
-0.110508 0.031574 0.591662 2.296108 -0.574205
-0.078934 0.031574 0.529476 1.642516 -0.574478
-0.047361 0.031574 0.487967 0.986475 -0.574664
-0.015787 0.031574 0.467197 0.328985 -0.574758
0.015787 0.031574 0.467197 -0.328985 -0.574758
0.047361 0.031574 0.487967 -0.986475 -0.574664
0.078934 0.031574 0.529476 -1.642516 -0.574478
0.110508 0.031574 0.591662 -2.296108 -0.574205
0.142082 0.031574 0.674433 -2.946202 -0.573850
0.173656 0.031574 0.777659 -3.591682 -0.573422
0.205230 0.031574 0.901177 -4.231347 -0.572931
0.236803 0.031574 1.044784 -4.863896 -0.572389
0.268377 0.031574 1.208231 -5.487919 -0.571808
0.299951 0.031574 1.391227 -6.101883 -0.571203
0.331525 0.031574 1.593427 -6.704125 -0.570588
0.363099 0.031574 1.814434 -7.292854 -0.569978
0.394672 0.031574 2.053791 -7.866142 -0.569389
0.426246 0.031574 2.310978 -8.421932 -0.568836
0.457820 0.031574 2.585408 -8.958043 -0.568333
0.489394 0.031574 2.876425 -9.472180 -0.567895
0.520968 0.031574 3.183297 -9.961947 -0.567533
0.552541 0.031574 3.505216 -10.424860 -0.567259
0.584115 0.031574 3.841293 -10.858373 -0.567084
0.615689 0.031574 4.190559 -11.259895 -0.567013
0.647263 0.031574 4.551964 -11.626817 -0.567054
0.678837 0.031574 4.924373 -11.956538 -0.567209
0.710410 0.031574 5.306572 -12.246495 -0.567478
0.741984 0.031574 5.697265 -12.494193 -0.567861
0.773558 0.031574 6.095080 -12.697238 -0.568352
0.805132 0.031574 6.498571 -12.853367 -0.568944
0.836706 0.031574 6.906223 -12.960479 -0.569628
0.868279 0.031574 7.316458 -13.016673 -0.570393
0.899853 0.031574 7.727641 -13.020272 -0.571222
0.931427 0.031574 8.138088 -12.969854 -0.572100
0.963001 0.031574 8.546076 -12.864284 -0.573009
0.994575 0.031574 8.949848 -12.702735 -0.573928
1.026148 0.031574 9.347628 -12.484712 -0.574836
1.057722 0.031574 9.737631 -12.210069 -0.575710
1.089296 0.031574 10.118071 -11.879031 -0.576528
1.120870 0.031574 10.487176 -11.492201 -0.577265
1.152444 0.031574 10.843199 -11.050569 -0.577898
1.184017 0.031574 11.184430 -10.555520 -0.578405
1.215591 0.031574 11.509211 -10.008827 -0.578764
1.247165 0.031574 11.815943 -9.412653 -0.578953
1.278739 0.031574 12.103103 -8.769538 -0.578954
1.310313 0.031574 12.369254 -8.082386 -0.578751
1.341886 0.031574 12.613057 -7.354449 -0.578327
1.373460 0.031574 12.833278 -6.589304 -0.577672
1.405034 0.031574 13.028805 -5.790826 -0.576776
1.436608 0.031574 13.198648 -4.963162 -0.575634
1.468181 0.031574 13.341955 -4.110698 -0.574242
1.499755 0.031574 13.458016 -3.238020 -0.572603
1.531329 0.031574 13.546266 -2.349881 -0.570720
1.562903 0.031574 13.606294 -1.451161 -0.568602
1.594477 0.031574 13.637844 -0.546822 -0.566261
1.626050 0.031574 13.640818 0.358127 -0.563712
1.657624 0.031574 13.615275 1.258680 -0.560973
1.689198 0.031574 13.561434 2.149869 -0.558066
1.720772 0.031574 13.479666 3.026812 -0.555017
1.752346 0.031574 13.370498 3.884747 -0.551852
1.783919 0.031574 13.234602 4.719077 -0.548601
1.815493 0.031574 13.072794 5.525402 -0.545296
1.847067 0.031574 12.886025 6.299554 -0.541970
1.878641 0.031574 12.675373 7.037632 -0.538657
1.910215 0.031574 12.442033 7.736025 -0.535392
1.941788 0.031574 12.187314 8.391437 -0.532210
1.973362 0.031574 11.912618 9.000913 -0.529144
2.004936 0.031574 11.619439 9.561847 -0.526230
2.036510 0.031574 11.309345 10.072003 -0.523499
2.068084 0.031574 10.983970 10.529516 -0.520982
2.099657 0.031574 10.645001 10.932901 -0.518707
2.131231 0.031574 10.294165 11.281049 -0.516700
2.162805 0.031574 9.933219 11.573227 -0.514983
2.194379 0.031574 9.563937 11.809066 -0.513574
2.225953 0.031574 9.188098 11.988551 -0.512490
2.257526 0.031574 8.807479 12.112005 -0.511742
2.289100 0.031574 8.423838 12.180070 -0.511336
2.320674 0.031574 8.038910 12.193690 -0.511275
2.352248 0.031574 7.654396 12.154081 -0.511558
2.383822 0.031574 7.271954 12.062711 -0.512178
2.415395 0.031574 6.893192 11.921270 -0.513125
2.446969 0.031574 6.519661 11.731646 -0.514384
2.478543 0.031574 6.152852 11.495889 -0.515936
2.510117 0.031574 5.794186 11.216192 -0.517757
2.541691 0.031574 5.445015 10.894855 -0.519822
2.573264 0.031574 5.106615 10.534261 -0.522101
2.604838 0.031574 4.780189 10.136848 -0.524560
2.636412 0.031574 4.466859 9.705087 -0.527166
2.667986 0.031574 4.167672 9.241453 -0.529881
2.699560 0.031574 3.883593 8.748412 -0.532666
2.731133 0.031574 3.615514 8.228396 -0.535483
2.762707 0.031574 3.364249 7.683790 -0.538291
2.794281 0.031574 3.130536 7.116918 -0.541050
2.825855 0.031574 2.915043 6.530034 -0.543722
2.857428 0.031574 2.718368 5.925315 -0.546270
2.889002 0.031574 2.541039 5.304855 -0.548656
2.920576 0.031574 2.383523 4.670664 -0.550848
2.952150 0.031574 2.246222 4.024671 -0.552814
2.983724 0.031574 2.129480 3.368727 -0.554528
3.015297 0.031574 2.033581 2.704609 -0.555964
3.046871 0.031574 1.958758 2.034034 -0.557102
3.078445 0.031574 1.905187 1.358665 -0.557927
3.110019 0.031574 1.872995 0.680122 -0.558427

-3.141593 0.063148 1.868865 -0.000000 -1.115710
-3.110019 0.063148 1.879603 -0.679997 -1.115375
-3.078445 0.063148 1.911789 -1.358416 -1.114374
-3.046871 0.063148 1.965350 -2.033665 -1.112722
-3.015297 0.063148 2.040160 -2.704125 -1.110442
-2.983724 0.063148 2.136041 -3.368134 -1.107565
-2.952150 0.063148 2.252763 -4.023979 -1.104133
-2.920576 0.063148 2.390041 -4.669882 -1.100194
-2.889002 0.063148 2.547531 -5.303994 -1.095802
-2.857428 0.063148 2.724831 -5.924387 -1.091021
-2.825855 0.063148 2.921476 -6.529052 -1.085916
-2.794281 0.063148 3.136937 -7.115896 -1.080560
-2.762707 0.063148 3.370618 -7.682742 -1.075029
-2.731133 0.063148 3.621850 -8.227338 -1.069399
-2.699560 0.063148 3.889895 -8.747358 -1.063751
-2.667986 0.063148 4.173941 -9.240418 -1.058164
-2.636412 0.063148 4.473096 -9.704085 -1.052716
-2.604838 0.063148 4.786395 -10.135895 -1.047485
-2.573264 0.063148 5.112792 -10.533369 -1.042544
-2.541691 0.063148 5.451165 -10.894037 -1.037965
-2.510117 0.063148 5.800311 -11.215460 -1.033811
-2.478543 0.063148 6.158956 -11.495253 -1.030143
-2.446969 0.063148 6.525746 -11.731115 -1.027013
-2.415395 0.063148 6.899262 -11.920853 -1.024468
-2.383822 0.063148 7.278013 -12.062413 -1.022545
-2.352248 0.063148 7.660447 -12.153908 -1.021275
-2.320674 0.063148 8.044958 -12.193645 -1.020679
-2.289100 0.063148 8.429886 -12.180155 -1.020768
-2.257526 0.063148 8.813532 -12.112218 -1.021548
-2.225953 0.063148 9.194161 -11.988892 -1.023011
-2.194379 0.063148 9.570012 -11.809531 -1.025146
-2.162805 0.063148 9.939311 -11.573811 -1.027929
-2.131231 0.063148 10.300277 -11.281746 -1.031330
-2.099657 0.063148 10.651137 -10.933702 -1.035311
-2.068084 0.063148 10.990132 -10.530413 -1.039828
-2.036510 0.063148 11.315537 -10.072986 -1.044829
-2.004936 0.063148 11.625663 -9.562905 -1.050259
-1.973362 0.063148 11.918877 -9.002033 -1.056057
-1.941788 0.063148 12.193608 -8.392608 -1.062157
-1.910215 0.063148 12.448366 -7.737233 -1.068494
-1.878641 0.063148 12.681744 -7.038865 -1.074997
-1.847067 0.063148 12.892435 -6.300799 -1.081598
-1.815493 0.063148 13.079244 -5.526645 -1.088227
-1.783919 0.063148 13.241091 -4.720306 -1.094816
-1.752346 0.063148 13.377025 -3.885950 -1.101299
-1.720772 0.063148 13.486231 -3.027977 -1.107612
-1.689198 0.063148 13.568034 -2.150986 -1.113697
-1.657624 0.063148 13.621910 -1.259739 -1.119498
-1.626050 0.063148 13.647485 -0.359119 -1.124966
-1.594477 0.063148 13.644541 0.545905 -1.130058
-1.562903 0.063148 13.613019 1.450324 -1.134737
-1.531329 0.063148 13.553016 2.349130 -1.138971
-1.499755 0.063148 13.464788 3.237359 -1.142738
-1.468181 0.063148 13.348747 4.110129 -1.146020
-1.436608 0.063148 13.205456 4.962687 -1.148809
-1.405034 0.063148 13.035627 5.790443 -1.151103
-1.373460 0.063148 12.840111 6.589012 -1.152905
-1.341886 0.063148 12.619897 7.354246 -1.154228
-1.310313 0.063148 12.376100 8.082268 -1.155090
-1.278739 0.063148 12.109951 8.769499 -1.155515
-1.247165 0.063148 11.822791 9.412688 -1.155531
-1.215591 0.063148 11.516057 10.008929 -1.155172
-1.184017 0.063148 11.191272 10.555682 -1.154476
-1.152444 0.063148 10.850034 11.050783 -1.153485
-1.120870 0.063148 10.494004 11.492457 -1.152241
-1.089296 0.063148 10.124890 11.879322 -1.150791
-1.057722 0.063148 9.744441 12.210385 -1.149182
-1.026148 0.063148 9.354428 12.485045 -1.147458
-0.994575 0.063148 8.956637 12.703077 -1.145668
-0.963001 0.063148 8.552854 12.864626 -1.143855
-0.931427 0.063148 8.144856 12.970188 -1.142063
-0.899853 0.063148 7.734398 13.020591 -1.140331
-0.868279 0.063148 7.323206 13.016971 -1.138696
-0.836706 0.063148 6.912962 12.960750 -1.137192
-0.805132 0.063148 6.505301 12.853605 -1.135846
-0.773558 0.063148 6.101803 12.697440 -1.134683
-0.741984 0.063148 5.703983 12.494356 -1.133722
-0.710410 0.063148 5.313285 12.246616 -1.132977
-0.678837 0.063148 4.931083 11.956616 -1.132456
-0.647263 0.063148 4.558672 11.626852 -1.132164
-0.615689 0.063148 4.197267 11.259888 -1.132099
-0.584115 0.063148 3.848001 10.858325 -1.132255
-0.552541 0.063148 3.511926 10.424774 -1.132620
-0.520968 0.063148 3.190011 9.961826 -1.133180
-0.489394 0.063148 2.883144 9.472028 -1.133915
-0.457820 0.063148 2.592132 8.957865 -1.134803
-0.426246 0.063148 2.317707 8.421732 -1.135818
-0.394672 0.063148 2.060527 7.865926 -1.136933
-0.363099 0.063148 1.821177 7.292628 -1.138118
-0.331525 0.063148 1.600177 6.703894 -1.139344
-0.299951 0.063148 1.397984 6.101652 -1.140580
-0.268377 0.063148 1.214996 5.487695 -1.141795
-0.236803 0.063148 1.051555 4.863684 -1.142960
-0.205230 0.063148 0.907956 4.231152 -1.144048
-0.173656 0.063148 0.784443 3.591509 -1.145032
-0.142082 0.063148 0.681222 2.946055 -1.145890
-0.110508 0.063148 0.598455 2.295990 -1.146601
-0.078934 0.063148 0.536272 1.642429 -1.147150
-0.047361 0.063148 0.494766 0.986422 -1.147523
-0.015787 0.063148 0.473997 0.328967 -1.147711
0.015787 0.063148 0.473997 -0.328967 -1.147711
0.047361 0.063148 0.494766 -0.986422 -1.147523
0.078934 0.063148 0.536272 -1.642429 -1.147150
0.110508 0.063148 0.598455 -2.295990 -1.146601
0.142082 0.063148 0.681222 -2.946055 -1.145890
0.173656 0.063148 0.784443 -3.591509 -1.145032
0.205230 0.063148 0.907956 -4.231152 -1.144048
0.236803 0.063148 1.051555 -4.863684 -1.142960
0.268377 0.063148 1.214996 -5.487695 -1.141795
0.299951 0.063148 1.397984 -6.101652 -1.140580
0.331525 0.063148 1.600177 -6.703894 -1.139344
0.363099 0.063148 1.821177 -7.292628 -1.138118
0.394672 0.063148 2.060527 -7.865926 -1.136933
0.426246 0.063148 2.317707 -8.421732 -1.135818
0.457820 0.063148 2.592132 -8.957865 -1.134803
0.489394 0.063148 2.883144 -9.472028 -1.133915
0.520968 0.063148 3.190011 -9.961826 -1.133180
0.552541 0.063148 3.511926 -10.424774 -1.132620
0.584115 0.063148 3.848001 -10.858325 -1.132255
0.615689 0.063148 4.197267 -11.259888 -1.132099
0.647263 0.063148 4.558672 -11.626852 -1.132164
0.678837 0.063148 4.931083 -11.956616 -1.132456
0.710410 0.063148 5.313285 -12.246616 -1.132977
0.741984 0.063148 5.703983 -12.494356 -1.133722
0.773558 0.063148 6.101803 -12.697440 -1.134683
0.805132 0.063148 6.505301 -12.853605 -1.135846
0.836706 0.063148 6.912962 -12.960750 -1.137192
0.868279 0.063148 7.323206 -13.016971 -1.138696
0.899853 0.063148 7.734398 -13.020591 -1.140331
0.931427 0.063148 8.144856 -12.970188 -1.142063
0.963001 0.063148 8.552854 -12.864626 -1.143855
0.994575 0.063148 8.956637 -12.703077 -1.145668
1.026148 0.063148 9.354428 -12.485045 -1.147458
1.057722 0.063148 9.744441 -12.210385 -1.149182
1.089296 0.063148 10.124890 -11.879322 -1.150791
1.120870 0.063148 10.494004 -11.492457 -1.152241
1.152444 0.063148 10.850034 -11.050783 -1.153485
1.184017 0.063148 11.191272 -10.555682 -1.154476
1.215591 0.063148 11.516057 -10.008929 -1.155172
1.247165 0.063148 11.822791 -9.412688 -1.155531
1.278739 0.063148 12.109951 -8.769499 -1.155515
1.310313 0.063148 12.376100 -8.082268 -1.155090
1.341886 0.063148 12.619897 -7.354246 -1.154228
1.373460 0.063148 12.840111 -6.589012 -1.152905
1.405034 0.063148 13.035627 -5.790443 -1.151103
1.436608 0.063148 13.205456 -4.962687 -1.148809
1.468181 0.063148 13.348747 -4.110129 -1.146020
1.499755 0.063148 13.464788 -3.237359 -1.142738
1.531329 0.063148 13.553016 -2.349130 -1.138971
1.562903 0.063148 13.613019 -1.450324 -1.134737
1.594477 0.063148 13.644541 -0.545905 -1.130058
1.626050 0.063148 13.647485 0.359119 -1.124966
1.657624 0.063148 13.621910 1.259739 -1.119498
1.689198 0.063148 13.568034 2.150986 -1.113697
1.720772 0.063148 13.486231 3.027977 -1.107612
1.752346 0.063148 13.377025 3.885950 -1.101299
1.783919 0.063148 13.241091 4.720306 -1.094816
1.815493 0.063148 13.079244 5.526645 -1.088227
1.847067 0.063148 12.892435 6.300799 -1.081598
1.878641 0.063148 12.681744 7.038865 -1.074997
1.910215 0.063148 12.448366 7.737233 -1.068494
1.941788 0.063148 12.193608 8.392608 -1.062157
1.973362 0.063148 11.918877 9.002033 -1.056057
2.004936 0.063148 11.625663 9.562905 -1.050259
2.036510 0.063148 11.315537 10.072986 -1.044829
2.068084 0.063148 10.990132 10.530413 -1.039828
2.099657 0.063148 10.651137 10.933702 -1.035311
2.131231 0.063148 10.300277 11.281746 -1.031330
2.162805 0.063148 9.939311 11.573811 -1.027929
2.194379 0.063148 9.570012 11.809531 -1.025146
2.225953 0.063148 9.194161 11.988892 -1.023011
2.257526 0.063148 8.813532 12.112218 -1.021548
2.289100 0.063148 8.429886 12.180155 -1.020768
2.320674 0.063148 8.044958 12.193645 -1.020679
2.352248 0.063148 7.660447 12.153908 -1.021275
2.383822 0.063148 7.278013 12.062413 -1.022545
2.415395 0.063148 6.899262 11.920853 -1.024468
2.446969 0.063148 6.525746 11.731115 -1.027013
2.478543 0.063148 6.158956 11.495253 -1.030143
2.510117 0.063148 5.800311 11.215460 -1.033811
2.541691 0.063148 5.451165 10.894037 -1.037965
2.573264 0.063148 5.112792 10.533369 -1.042544
2.604838 0.063148 4.786395 10.135895 -1.047485
2.636412 0.063148 4.473096 9.704085 -1.052716
2.667986 0.063148 4.173941 9.240418 -1.058164
2.699560 0.063148 3.889895 8.747358 -1.063751
2.731133 0.063148 3.621850 8.227338 -1.069399
2.762707 0.063148 3.370618 7.682742 -1.075029
2.794281 0.063148 3.136937 7.115896 -1.080560
2.825855 0.063148 2.921476 6.529052 -1.085916
2.857428 0.063148 2.724831 5.924387 -1.091021
2.889002 0.063148 2.547531 5.303994 -1.095802
2.920576 0.063148 2.390041 4.669882 -1.100194
2.952150 0.063148 2.252763 4.023979 -1.104133
2.983724 0.063148 2.136041 3.368134 -1.107565
3.015297 0.063148 2.040160 2.704125 -1.110442
3.046871 0.063148 1.965350 2.033665 -1.112722
3.078445 0.063148 1.911789 1.358416 -1.114374
3.110019 0.063148 1.879603 0.679997 -1.115375

-3.141593 0.094721 1.879862 -0.000000 -1.669860
-3.110019 0.094721 1.890596 -0.679787 -1.669356
-3.078445 0.094721 1.922772 -1.358000 -1.667851
-3.046871 0.094721 1.976317 -2.033048 -1.665367
-3.015297 0.094721 2.051104 -2.703316 -1.661937
-2.983724 0.094721 2.146957 -3.367145 -1.657610
-2.952150 0.094721 2.263645 -4.022823 -1.652447
-2.920576 0.094721 2.400884 -4.668575 -1.646520
-2.889002 0.094721 2.558331 -5.302555 -1.639912
-2.857428 0.094721 2.735583 -5.922836 -1.632715
-2.825855 0.094721 2.932178 -6.527411 -1.625031
-2.794281 0.094721 3.147586 -7.114187 -1.616967
-2.762707 0.094721 3.381212 -7.680990 -1.608636
-2.731133 0.094721 3.632389 -8.225567 -1.600155
-2.699560 0.094721 3.900378 -8.745594 -1.591642
-2.667986 0.094721 4.184368 -9.238685 -1.583217
-2.636412 0.094721 4.483470 -9.702407 -1.574997
-2.604838 0.094721 4.796717 -10.134296 -1.567100
-2.573264 0.094721 5.123065 -10.531872 -1.559634
-2.541691 0.094721 5.461392 -10.892663 -1.552707
-2.510117 0.094721 5.810498 -11.214228 -1.546414
-2.478543 0.094721 6.169106 -11.494181 -1.540847
-2.446969 0.094721 6.535865 -11.730219 -1.536085
-2.415395 0.094721 6.909355 -11.920146 -1.532196
-2.383822 0.094721 7.288087 -12.061905 -1.529239
-2.352248 0.094721 7.670509 -12.153608 -1.527257
-2.320674 0.094721 8.055013 -12.193557 -1.526284
-2.289100 0.094721 8.439942 -12.180282 -1.526338
-2.257526 0.094721 8.823595 -12.112561 -1.527425
-2.225953 0.094721 9.204238 -11.989447 -1.529538
-2.194379 0.094721 9.580110 -11.810292 -1.532657
-2.162805 0.094721 9.949436 -11.574771 -1.536747
-2.131231 0.094721 10.310436 -11.282893 -1.541765
-2.099657 0.094721 10.661334 -10.935024 -1.547653
-2.068084 0.094721 11.000374 -10.531895 -1.554346
-2.036510 0.094721 11.325828 -10.074611 -1.561768
-2.004936 0.094721 11.636007 -9.564654 -1.569834
-1.973362 0.094721 11.929278 -9.003888 -1.578454
-1.941788 0.094721 12.204070 -8.394548 -1.587531
-1.910215 0.094721 12.458889 -7.739236 -1.596967
-1.878641 0.094721 12.692331 -7.040910 -1.606656
-1.847067 0.094721 12.903088 -6.302864 -1.616496
-1.815493 0.094721 13.089962 -5.528708 -1.626383
-1.783919 0.094721 13.251873 -4.722347 -1.636215
-1.752346 0.094721 13.387871 -3.887948 -1.645893
-1.720772 0.094721 13.497139 -3.029913 -1.655322
-1.689198 0.094721 13.579003 -2.152843 -1.664414
-1.657624 0.094721 13.632936 -1.261499 -1.673088
-1.626050 0.094721 13.658564 -0.360769 -1.681268
-1.594477 0.094721 13.655671 0.544377 -1.688891
-1.562903 0.094721 13.624195 1.448930 -1.695899
-1.531329 0.094721 13.564233 2.347879 -1.702248
-1.499755 0.094721 13.476043 3.236256 -1.707901
-1.468181 0.094721 13.360034 4.109179 -1.712834
-1.436608 0.094721 13.216771 4.961891 -1.717033
-1.405034 0.094721 13.046964 5.789801 -1.720494
-1.373460 0.094721 12.851466 6.588522 -1.723225
-1.341886 0.094721 12.631266 7.353902 -1.725242
-1.310313 0.094721 12.387477 8.082064 -1.726572
-1.278739 0.094721 12.121332 8.769428 -1.727250
-1.247165 0.094721 11.834172 9.412739 -1.727320
-1.215591 0.094721 11.527435 10.009091 -1.726831
-1.184017 0.094721 11.202644 10.555942 -1.725840
-1.152444 0.094721 10.861397 11.051128 -1.724409
-1.120870 0.094721 10.505354 11.492874 -1.722601
-1.089296 0.094721 10.136226 11.879796 -1.720486
-1.057722 0.094721 9.755761 12.210902 -1.718132
-1.026148 0.094721 9.365731 12.485590 -1.715609
-0.994575 0.094721 8.967922 12.703636 -1.712986
-0.963001 0.094721 8.564122 12.865185 -1.710329
-0.931427 0.094721 8.156107 12.970734 -1.707702
-0.899853 0.094721 7.745632 13.021112 -1.705165
-0.868279 0.094721 7.334423 13.017457 -1.702773
-0.836706 0.094721 6.924165 12.961190 -1.700574
-0.805132 0.094721 6.516492 12.853992 -1.698612
-0.773558 0.094721 6.112982 12.697767 -1.696922
-0.741984 0.094721 5.715152 12.494618 -1.695532
-0.710410 0.094721 5.324447 12.246809 -1.694463
-0.678837 0.094721 4.942240 11.956738 -1.693730
-0.647263 0.094721 4.569827 11.626903 -1.693335
-0.615689 0.094721 4.208421 11.259869 -1.693279
-0.584115 0.094721 3.859157 10.858239 -1.693551
-0.552541 0.094721 3.523086 10.424625 -1.694134
-0.520968 0.094721 3.201177 9.961619 -1.695005
-0.489394 0.094721 2.894316 9.471771 -1.696137
-0.457820 0.094721 2.603313 8.957564 -1.697495
-0.426246 0.094721 2.328899 8.421396 -1.699042
-0.394672 0.094721 2.071729 7.865563 -1.700735
-0.363099 0.094721 1.832391 7.292248 -1.702532
-0.331525 0.094721 1.611404 6.703507 -1.704388
-0.299951 0.094721 1.409223 6.101266 -1.706255
-0.268377 0.094721 1.226247 5.487321 -1.708091
-0.236803 0.094721 1.062818 4.863330 -1.709849
-0.205230 0.094721 0.919229 4.230826 -1.711490
-0.173656 0.094721 0.795726 3.591219 -1.712973
-0.142082 0.094721 0.692513 2.945808 -1.714266
-0.110508 0.094721 0.609754 2.295792 -1.715338
-0.078934 0.094721 0.547576 1.642285 -1.716164
-0.047361 0.094721 0.506073 0.986334 -1.716725
-0.015787 0.094721 0.485307 0.328938 -1.717009
0.015787 0.094721 0.485307 -0.328938 -1.717009
0.047361 0.094721 0.506073 -0.986334 -1.716725
0.078934 0.094721 0.547576 -1.642285 -1.716164
0.110508 0.094721 0.609754 -2.295792 -1.715338
0.142082 0.094721 0.692513 -2.945808 -1.714266
0.173656 0.094721 0.795726 -3.591219 -1.712973
0.205230 0.094721 0.919229 -4.230826 -1.711490
0.236803 0.094721 1.062818 -4.863330 -1.709849
0.268377 0.094721 1.226247 -5.487321 -1.708091
0.299951 0.094721 1.409223 -6.101266 -1.706255
0.331525 0.094721 1.611404 -6.703507 -1.704388
0.363099 0.094721 1.832391 -7.292248 -1.702532
0.394672 0.094721 2.071729 -7.865563 -1.700735
0.426246 0.094721 2.328899 -8.421396 -1.699042
0.457820 0.094721 2.603313 -8.957564 -1.697495
0.489394 0.094721 2.894316 -9.471771 -1.696137
0.520968 0.094721 3.201177 -9.961619 -1.695005
0.552541 0.094721 3.523086 -10.424625 -1.694134
0.584115 0.094721 3.859157 -10.858239 -1.693551
0.615689 0.094721 4.208421 -11.259869 -1.693279
0.647263 0.094721 4.569827 -11.626903 -1.693335
0.678837 0.094721 4.942240 -11.956738 -1.693730
0.710410 0.094721 5.324447 -12.246809 -1.694463
0.741984 0.094721 5.715152 -12.494618 -1.695532
0.773558 0.094721 6.112982 -12.697767 -1.696922
0.805132 0.094721 6.516492 -12.853992 -1.698612
0.836706 0.094721 6.924165 -12.961190 -1.700574
0.868279 0.094721 7.334423 -13.017457 -1.702773
0.899853 0.094721 7.745632 -13.021112 -1.705165
0.931427 0.094721 8.156107 -12.970734 -1.707702
0.963001 0.094721 8.564122 -12.865185 -1.710329
0.994575 0.094721 8.967922 -12.703636 -1.712986
1.026148 0.094721 9.365731 -12.485590 -1.715609
1.057722 0.094721 9.755761 -12.210902 -1.718132
1.089296 0.094721 10.136226 -11.879796 -1.720486
1.120870 0.094721 10.505354 -11.492874 -1.722601
1.152444 0.094721 10.861397 -11.051128 -1.724409
1.184017 0.094721 11.202644 -10.555942 -1.725840
1.215591 0.094721 11.527435 -10.009091 -1.726831
1.247165 0.094721 11.834172 -9.412739 -1.727320
1.278739 0.094721 12.121332 -8.769428 -1.727250
1.310313 0.094721 12.387477 -8.082064 -1.726572
1.341886 0.094721 12.631266 -7.353902 -1.725242
1.373460 0.094721 12.851466 -6.588522 -1.723225
1.405034 0.094721 13.046964 -5.789801 -1.720494
1.436608 0.094721 13.216771 -4.961891 -1.717033
1.468181 0.094721 13.360034 -4.109179 -1.712834
1.499755 0.094721 13.476043 -3.236256 -1.707901
1.531329 0.094721 13.564233 -2.347879 -1.702248
1.562903 0.094721 13.624195 -1.448930 -1.695899
1.594477 0.094721 13.655671 -0.544377 -1.688891
1.626050 0.094721 13.658564 0.360769 -1.681268
1.657624 0.094721 13.632936 1.261499 -1.673088
1.689198 0.094721 13.579003 2.152843 -1.664414
1.720772 0.094721 13.497139 3.029913 -1.655322
1.752346 0.094721 13.387871 3.887948 -1.645893
1.783919 0.094721 13.251873 4.722347 -1.636215
1.815493 0.094721 13.089962 5.528708 -1.626383
1.847067 0.094721 12.903088 6.302864 -1.616496
1.878641 0.094721 12.692331 7.040910 -1.606656
1.910215 0.094721 12.458889 7.739236 -1.596967
1.941788 0.094721 12.204070 8.394548 -1.587531
1.973362 0.094721 11.929278 9.003888 -1.578454
2.004936 0.094721 11.636007 9.564654 -1.569834
2.036510 0.094721 11.325828 10.074611 -1.561768
2.068084 0.094721 11.000374 10.531895 -1.554346
2.099657 0.094721 10.661334 10.935024 -1.547653
2.131231 0.094721 10.310436 11.282893 -1.541765
2.162805 0.094721 9.949436 11.574771 -1.536747
2.194379 0.094721 9.580110 11.810292 -1.532657
2.225953 0.094721 9.204238 11.989447 -1.529538
2.257526 0.094721 8.823595 12.112561 -1.527425
2.289100 0.094721 8.439942 12.180282 -1.526338
2.320674 0.094721 8.055013 12.193557 -1.526284
2.352248 0.094721 7.670509 12.153608 -1.527257
2.383822 0.094721 7.288087 12.061905 -1.529239
2.415395 0.094721 6.909355 11.920146 -1.532196
2.446969 0.094721 6.535865 11.730219 -1.536085
2.478543 0.094721 6.169106 11.494181 -1.540847
2.510117 0.094721 5.810498 11.214228 -1.546414
2.541691 0.094721 5.461392 10.892663 -1.552707
2.573264 0.094721 5.123065 10.531872 -1.559634
2.604838 0.094721 4.796717 10.134296 -1.567100
2.636412 0.094721 4.483470 9.702407 -1.574997
2.667986 0.094721 4.184368 9.238685 -1.583217
2.699560 0.094721 3.900378 8.745594 -1.591642
2.731133 0.094721 3.632389 8.225567 -1.600155
2.762707 0.094721 3.381212 7.680990 -1.608636
2.794281 0.094721 3.147586 7.114187 -1.616967
2.825855 0.094721 2.932178 6.527411 -1.625031
2.857428 0.094721 2.735583 5.922836 -1.632715
2.889002 0.094721 2.558331 5.302555 -1.639912
2.920576 0.094721 2.400884 4.668575 -1.646520
2.952150 0.094721 2.263645 4.022823 -1.652447
2.983724 0.094721 2.146957 3.367145 -1.657610
3.015297 0.094721 2.051104 2.703316 -1.661937
3.046871 0.094721 1.976317 2.033048 -1.665367
3.078445 0.094721 1.922772 1.358000 -1.667851
3.110019 0.094721 1.890596 0.679787 -1.669356

-3.141593 0.126295 1.895216 -0.000000 -2.219585
-3.110019 0.126295 1.905945 -0.679493 -2.218910
-3.078445 0.126295 1.938107 -1.357415 -2.216896
-3.046871 0.126295 1.991629 -2.032182 -2.213571
-3.015297 0.126295 2.066385 -2.702180 -2.208980
-2.983724 0.126295 2.162198 -3.365755 -2.203188
-2.952150 0.126295 2.278839 -4.021199 -2.196275
-2.920576 0.126295 2.416023 -4.666739 -2.188339
-2.889002 0.126295 2.573408 -5.300532 -2.179488
-2.857428 0.126295 2.750595 -5.920656 -2.169848
-2.825855 0.126295 2.947118 -6.525103 -2.159551
-2.794281 0.126295 3.162452 -7.111784 -2.148742
-2.762707 0.126295 3.396001 -7.678525 -2.137570
-2.731133 0.126295 3.647099 -8.223075 -2.126192
-2.699560 0.126295 3.915010 -8.743109 -2.114765
-2.667986 0.126295 4.198922 -9.236243 -2.103448
-2.636412 0.126295 4.497948 -9.700041 -2.092400
-2.604838 0.126295 4.811122 -10.132039 -2.081774
-2.573264 0.126295 5.137401 -10.529756 -2.071717
-2.541691 0.126295 5.475664 -10.890718 -2.062372
-2.510117 0.126295 5.824711 -11.212481 -2.053867
-2.478543 0.126295 6.183267 -11.492658 -2.046323
-2.446969 0.126295 6.549983 -11.728940 -2.039846
-2.415395 0.126295 6.923436 -11.919130 -2.034529
-2.383822 0.126295 7.302140 -12.061168 -2.030448
-2.352248 0.126295 7.684543 -12.153160 -2.027664
-2.320674 0.126295 8.069038 -12.193406 -2.026220
-2.289100 0.126295 8.453967 -12.180432 -2.026143
-2.257526 0.126295 8.837630 -12.113011 -2.027441
-2.225953 0.126295 9.218292 -11.990194 -2.030104
-2.194379 0.126295 9.594192 -11.811328 -2.034105
-2.162805 0.126295 9.963555 -11.576084 -2.039403
-2.131231 0.126295 10.324600 -11.284469 -2.045937
-2.099657 0.126295 10.675552 -10.936845 -2.053634
-2.068084 0.126295 11.014654 -10.533940 -2.062405
-2.036510 0.126295 11.340175 -10.076857 -2.072151
-2.004936 0.126295 11.650428 -9.567077 -2.082759
-1.973362 0.126295 11.943778 -9.006459 -2.094112
-1.941788 0.126295 12.218653 -8.397238 -2.106080
-1.910215 0.126295 12.473559 -7.742016 -2.118531
-1.878641 0.126295 12.707089 -7.043750 -2.131328
-1.847067 0.126295 12.917936 -6.305734 -2.144335
-1.815493 0.126295 13.104901 -5.531578 -2.157412
-1.783919 0.126295 13.266903 -4.725187 -2.170425
-1.752346 0.126295 13.402989 -3.890730 -2.183243
-1.720772 0.126295 13.512344 -3.032611 -2.195741
-1.689198 0.126295 13.594291 -2.155431 -2.207800
-1.657624 0.126295 13.648304 -1.263956 -2.219312
-1.626050 0.126295 13.674008 -0.363073 -2.230178
-1.594477 0.126295 13.671184 0.542244 -2.240312
-1.562903 0.126295 13.639772 1.446982 -2.249640
-1.531329 0.126295 13.579870 2.346127 -2.258099
-1.499755 0.126295 13.491731 3.234710 -2.265643
-1.468181 0.126295 13.375768 4.107844 -2.272238
-1.436608 0.126295 13.232543 4.960770 -2.277865
-1.405034 0.126295 13.062768 5.788894 -2.282520
-1.373460 0.126295 12.867296 6.587824 -2.286211
-1.341886 0.126295 12.647114 7.353409 -2.288960
-1.310313 0.126295 12.403338 8.081765 -2.290802
-1.278739 0.126295 12.137200 8.769312 -2.291784
-1.247165 0.126295 11.850041 9.412793 -2.291961
-1.215591 0.126295 11.543299 10.009299 -2.291401
-1.184017 0.126295 11.218499 10.556287 -2.290178
-1.152444 0.126295 10.877239 11.051592 -2.288372
-1.120870 0.126295 10.521180 11.493438 -2.286069
-1.089296 0.126295 10.152034 11.880439 -2.283360
-1.057722 0.126295 9.771547 12.211604 -2.280334
-1.026148 0.126295 9.381494 12.486331 -2.277085
-0.994575 0.126295 8.983662 12.704396 -2.273703
-0.963001 0.126295 8.579837 12.865946 -2.270276
-0.931427 0.126295 8.171798 12.971478 -2.266889
-0.899853 0.126295 7.761301 13.021821 -2.263619
-0.868279 0.126295 7.350070 13.018116 -2.260540
-0.836706 0.126295 6.939792 12.961788 -2.257717
-0.805132 0.126295 6.532101 12.854515 -2.255205
-0.773558 0.126295 6.128576 12.698207 -2.253052
-0.741984 0.126295 5.730734 12.494967 -2.251295
-0.710410 0.126295 5.340020 12.247062 -2.249962
-0.678837 0.126295 4.957806 11.956893 -2.249070
-0.647263 0.126295 4.585389 11.626960 -2.248626
-0.615689 0.126295 4.223983 11.259829 -2.248627
-0.584115 0.126295 3.874722 10.858106 -2.249060
-0.552541 0.126295 3.538656 10.424405 -2.249903
-0.520968 0.126295 3.216755 9.961319 -2.251125
-0.489394 0.126295 2.909906 9.471400 -2.252689
-0.457820 0.126295 2.618915 8.957133 -2.254549
-0.426246 0.126295 2.344515 8.420916 -2.256655
-0.394672 0.126295 2.087362 7.865048 -2.258953
-0.363099 0.126295 1.848040 7.291709 -2.261385
-0.331525 0.126295 1.627070 6.702958 -2.263889
-0.299951 0.126295 1.424906 6.100722 -2.266407
-0.268377 0.126295 1.241947 5.486792 -2.268877
-0.236803 0.126295 1.078534 4.862830 -2.271242
-0.205230 0.126295 0.934960 4.230367 -2.273446
-0.173656 0.126295 0.811471 3.590812 -2.275438
-0.142082 0.126295 0.708270 2.945461 -2.277172
-0.110508 0.126295 0.625521 2.295513 -2.278610
-0.078934 0.126295 0.563351 1.642081 -2.279718
-0.047361 0.126295 0.521853 0.986210 -2.280470
-0.015787 0.126295 0.501089 0.328896 -2.280851
0.015787 0.126295 0.501089 -0.328896 -2.280851
0.047361 0.126295 0.521853 -0.986210 -2.280470
0.078934 0.126295 0.563351 -1.642081 -2.279718
0.110508 0.126295 0.625521 -2.295513 -2.278610
0.142082 0.126295 0.708270 -2.945461 -2.277172
0.173656 0.126295 0.811471 -3.590812 -2.275438
0.205230 0.126295 0.934960 -4.230367 -2.273446
0.236803 0.126295 1.078534 -4.862830 -2.271242
0.268377 0.126295 1.241947 -5.486792 -2.268877
0.299951 0.126295 1.424906 -6.100722 -2.266407
0.331525 0.126295 1.627070 -6.702958 -2.263889
0.363099 0.126295 1.848040 -7.291709 -2.261385
0.394672 0.126295 2.087362 -7.865048 -2.258953
0.426246 0.126295 2.344515 -8.420916 -2.256655
0.457820 0.126295 2.618915 -8.957133 -2.254549
0.489394 0.126295 2.909906 -9.471400 -2.252689
0.520968 0.126295 3.216755 -9.961319 -2.251125
0.552541 0.126295 3.538656 -10.424405 -2.249903
0.584115 0.126295 3.874722 -10.858106 -2.249060
0.615689 0.126295 4.223983 -11.259829 -2.248627
0.647263 0.126295 4.585389 -11.626960 -2.248626
0.678837 0.126295 4.957806 -11.956893 -2.249070
0.710410 0.126295 5.340020 -12.247062 -2.249962
0.741984 0.126295 5.730734 -12.494967 -2.251295
0.773558 0.126295 6.128576 -12.698207 -2.253052
0.805132 0.126295 6.532101 -12.854515 -2.255205
0.836706 0.126295 6.939792 -12.961788 -2.257717
0.868279 0.126295 7.350070 -13.018116 -2.260540
0.899853 0.126295 7.761301 -13.021821 -2.263619
0.931427 0.126295 8.171798 -12.971478 -2.266889
0.963001 0.126295 8.579837 -12.865946 -2.270276
0.994575 0.126295 8.983662 -12.704396 -2.273703
1.026148 0.126295 9.381494 -12.486331 -2.277085
1.057722 0.126295 9.771547 -12.211604 -2.280334
1.089296 0.126295 10.152034 -11.880439 -2.283360
1.120870 0.126295 10.521180 -11.493438 -2.286069
1.152444 0.126295 10.877239 -11.051592 -2.288372
1.184017 0.126295 11.218499 -10.556287 -2.290178
1.215591 0.126295 11.543299 -10.009299 -2.291401
1.247165 0.126295 11.850041 -9.412793 -2.291961
1.278739 0.126295 12.137200 -8.769312 -2.291784
1.310313 0.126295 12.403338 -8.081765 -2.290802
1.341886 0.126295 12.647114 -7.353409 -2.288960
1.373460 0.126295 12.867296 -6.587824 -2.286211
1.405034 0.126295 13.062768 -5.788894 -2.282520
1.436608 0.126295 13.232543 -4.960770 -2.277865
1.468181 0.126295 13.375768 -4.107844 -2.272238
1.499755 0.126295 13.491731 -3.234710 -2.265643
1.531329 0.126295 13.579870 -2.346127 -2.258099
1.562903 0.126295 13.639772 -1.446982 -2.249640
1.594477 0.126295 13.671184 -0.542244 -2.240312
1.626050 0.126295 13.674008 0.363073 -2.230178
1.657624 0.126295 13.648304 1.263956 -2.219312
1.689198 0.126295 13.594291 2.155431 -2.207800
1.720772 0.126295 13.512344 3.032611 -2.195741
1.752346 0.126295 13.402989 3.890730 -2.183243
1.783919 0.126295 13.266903 4.725187 -2.170425
1.815493 0.126295 13.104901 5.531578 -2.157412
1.847067 0.126295 12.917936 6.305734 -2.144335
1.878641 0.126295 12.707089 7.043750 -2.131328
1.910215 0.126295 12.473559 7.742016 -2.118531
1.941788 0.126295 12.218653 8.397238 -2.106080
1.973362 0.126295 11.943778 9.006459 -2.094112
2.004936 0.126295 11.650428 9.567077 -2.082759
2.036510 0.126295 11.340175 10.076857 -2.072151
2.068084 0.126295 11.014654 10.533940 -2.062405
2.099657 0.126295 10.675552 10.936845 -2.053634
2.131231 0.126295 10.324600 11.284469 -2.045937
2.162805 0.126295 9.963555 11.576084 -2.039403
2.194379 0.126295 9.594192 11.811328 -2.034105
2.225953 0.126295 9.218292 11.990194 -2.030104
2.257526 0.126295 8.837630 12.113011 -2.027441
2.289100 0.126295 8.453967 12.180432 -2.026143
2.320674 0.126295 8.069038 12.193406 -2.026220
2.352248 0.126295 7.684543 12.153160 -2.027664
2.383822 0.126295 7.302140 12.061168 -2.030448
2.415395 0.126295 6.923436 11.919130 -2.034529
2.446969 0.126295 6.549983 11.728940 -2.039846
2.478543 0.126295 6.183267 11.492658 -2.046323
2.510117 0.126295 5.824711 11.212481 -2.053867
2.541691 0.126295 5.475664 10.890718 -2.062372
2.573264 0.126295 5.137401 10.529756 -2.071717
2.604838 0.126295 4.811122 10.132039 -2.081774
2.636412 0.126295 4.497948 9.700041 -2.092400
2.667986 0.126295 4.198922 9.236243 -2.103448
2.699560 0.126295 3.915010 8.743109 -2.114765
2.731133 0.126295 3.647099 8.223075 -2.126192
2.762707 0.126295 3.396001 7.678525 -2.137570
2.794281 0.126295 3.162452 7.111784 -2.148742
2.825855 0.126295 2.947118 6.525103 -2.159551
2.857428 0.126295 2.750595 5.920656 -2.169848
2.889002 0.126295 2.573408 5.300532 -2.179488
2.920576 0.126295 2.416023 4.666739 -2.188339
2.952150 0.126295 2.278839 4.021199 -2.196275
2.983724 0.126295 2.162198 3.365755 -2.203188
3.015297 0.126295 2.066385 2.702180 -2.208980
3.046871 0.126295 1.991629 2.032182 -2.213571
3.078445 0.126295 1.938107 1.357415 -2.216896
3.110019 0.126295 1.905945 0.679493 -2.218910

-3.141593 0.157869 1.914887 -0.000000 -2.763449
-3.110019 0.157869 1.925610 -0.679113 -2.762602
-3.078445 0.157869 1.957755 -1.356661 -2.760072
-3.046871 0.157869 2.011247 -2.031064 -2.755895
-3.015297 0.157869 2.085961 -2.700713 -2.750127
-2.983724 0.157869 2.181723 -3.363960 -2.742850
-2.952150 0.157869 2.298302 -4.019100 -2.734164
-2.920576 0.157869 2.435415 -4.664366 -2.724189
-2.889002 0.157869 2.592722 -5.297918 -2.713062
-2.857428 0.157869 2.769823 -5.917837 -2.700939
-2.825855 0.157869 2.966255 -6.522118 -2.687986
-2.794281 0.157869 3.181492 -7.108675 -2.674382
-2.762707 0.157869 3.414941 -7.675335 -2.660316
-2.731133 0.157869 3.665938 -8.219847 -2.645980
-2.699560 0.157869 3.933747 -8.739889 -2.631574
-2.667986 0.157869 4.217558 -9.233075 -2.617296
-2.636412 0.157869 4.516485 -9.696970 -2.603342
-2.604838 0.157869 4.829564 -10.129106 -2.589905
-2.573264 0.157869 5.155754 -10.527002 -2.577171
-2.541691 0.157869 5.493933 -10.888182 -2.565314
-2.510117 0.157869 5.842904 -11.210198 -2.554499
-2.478543 0.157869 6.201392 -11.490659 -2.544875
-2.446969 0.157869 6.568050 -11.727254 -2.536575
-2.415395 0.157869 6.941455 -11.917781 -2.529717
-2.383822 0.157869 7.320122 -12.060175 -2.524396
-2.352248 0.157869 7.702500 -12.152537 -2.520688
-2.320674 0.157869 8.086981 -12.193165 -2.518650
-2.289100 0.157869 8.471909 -12.180576 -2.518314
-2.257526 0.157869 8.855582 -12.113541 -2.519693
-2.225953 0.157869 9.236266 -11.991105 -2.522774
-2.194379 0.157869 9.612201 -11.812610 -2.527528
-2.162805 0.157869 9.981611 -11.577723 -2.533900
-2.131231 0.157869 10.342713 -11.286446 -2.541818
-2.099657 0.157869 10.693733 -10.939138 -2.551192
-2.068084 0.157869 11.032911 -10.536522 -2.561911
-2.036510 0.157869 11.358518 -10.079698 -2.573854
-2.004936 0.157869 11.668864 -9.570145 -2.586882
-1.973362 0.157869 11.962314 -9.009719 -2.600846
-1.941788 0.157869 12.237295 -8.400654 -2.615590
-1.910215 0.157869 12.492310 -7.745551 -2.630947
-1.878641 0.157869 12.725954 -7.047364 -2.646749
-1.847067 0.157869 12.936916 -6.309388 -2.662825
-1.815493 0.157869 13.123996 -5.535235 -2.679005
-1.783919 0.157869 13.286113 -4.728809 -2.695119
-1.752346 0.157869 13.422313 -3.894282 -2.711004
-1.720772 0.157869 13.531778 -3.036057 -2.726507
-1.689198 0.157869 13.613831 -2.158740 -2.741478
-1.657624 0.157869 13.667946 -1.267098 -2.755784
-1.626050 0.157869 13.693746 -0.366024 -2.769302
-1.594477 0.157869 13.691013 0.539508 -2.781923
-1.562903 0.157869 13.659684 1.444480 -2.793554
-1.531329 0.157869 13.599856 2.343875 -2.804120
-1.499755 0.157869 13.511785 3.232718 -2.813559
-1.468181 0.157869 13.395880 4.106120 -2.821831
-1.436608 0.157869 13.252706 4.959318 -2.828912
-1.405034 0.157869 13.082972 5.787713 -2.834793
-1.373460 0.157869 12.887533 6.586910 -2.839487
-1.341886 0.157869 12.667376 7.352753 -2.843019
-1.310313 0.157869 12.423616 8.081357 -2.845431
-1.278739 0.157869 12.157487 8.769137 -2.846782
-1.247165 0.157869 11.870331 9.412834 -2.847139
-1.215591 0.157869 11.563584 10.009536 -2.846586
-1.184017 0.157869 11.238774 10.556699 -2.845212
-1.152444 0.157869 10.897499 11.052155 -2.843119
-1.120870 0.157869 10.541420 11.494127 -2.840412
-1.089296 0.157869 10.172250 11.881229 -2.837202
-1.057722 0.157869 9.791737 12.212470 -2.833601
-1.026148 0.157869 9.401656 12.487247 -2.829723
-0.994575 0.157869 9.003794 12.705337 -2.825679
-0.963001 0.157869 8.599940 12.866887 -2.821580
-0.931427 0.157869 8.191871 12.972397 -2.817529
-0.899853 0.157869 7.781345 13.022697 -2.813623
-0.868279 0.157869 7.370088 13.018930 -2.809952
-0.836706 0.157869 6.959785 12.962521 -2.806595
-0.805132 0.157869 6.552073 12.855155 -2.803622
-0.773558 0.157869 6.148530 12.698740 -2.801092
-0.741984 0.157869 5.750672 12.495385 -2.799051
-0.710410 0.157869 5.359946 12.247360 -2.797531
-0.678837 0.157869 4.977726 11.957066 -2.796555
-0.647263 0.157869 4.605305 11.627008 -2.796131
-0.615689 0.157869 4.243900 11.259754 -2.796254
-0.584115 0.157869 3.894643 10.857914 -2.796908
-0.552541 0.157869 3.558585 10.424101 -2.798066
-0.520968 0.157869 3.236695 9.960915 -2.799690
-0.489394 0.157869 2.929859 9.470907 -2.801732
-0.457820 0.157869 2.638886 8.956564 -2.804136
-0.426246 0.157869 2.364505 8.420287 -2.806841
-0.394672 0.157869 2.107372 7.864373 -2.809777
-0.363099 0.157869 1.868072 7.291006 -2.812872
-0.331525 0.157869 1.647124 6.702244 -2.816053
-0.299951 0.157869 1.444983 6.100013 -2.819243
-0.268377 0.157869 1.262046 5.486106 -2.822369
-0.236803 0.157869 1.098654 4.862182 -2.825356
-0.205230 0.157869 0.955100 4.229772 -2.828138
-0.173656 0.157869 0.831629 3.590283 -2.830651
-0.142082 0.157869 0.728443 2.945011 -2.832837
-0.110508 0.157869 0.645707 2.295152 -2.834648
-0.078934 0.157869 0.583547 1.641817 -2.836043
-0.047361 0.157869 0.542056 0.986049 -2.836991
-0.015787 0.157869 0.521295 0.328842 -2.837470
0.015787 0.157869 0.521295 -0.328842 -2.837470
0.047361 0.157869 0.542056 -0.986049 -2.836991
0.078934 0.157869 0.583547 -1.641817 -2.836043
0.110508 0.157869 0.645707 -2.295152 -2.834648
0.142082 0.157869 0.728443 -2.945011 -2.832837
0.173656 0.157869 0.831629 -3.590283 -2.830651
0.205230 0.157869 0.955100 -4.229772 -2.828138
0.236803 0.157869 1.098654 -4.862182 -2.825356
0.268377 0.157869 1.262046 -5.486106 -2.822369
0.299951 0.157869 1.444983 -6.100013 -2.819243
0.331525 0.157869 1.647124 -6.702244 -2.816053
0.363099 0.157869 1.868072 -7.291006 -2.812872
0.394672 0.157869 2.107372 -7.864373 -2.809777
0.426246 0.157869 2.364505 -8.420287 -2.806841
0.457820 0.157869 2.638886 -8.956564 -2.804136
0.489394 0.157869 2.929859 -9.470907 -2.801732
0.520968 0.157869 3.236695 -9.960915 -2.799690
0.552541 0.157869 3.558585 -10.424101 -2.798066
0.584115 0.157869 3.894643 -10.857914 -2.796908
0.615689 0.157869 4.243900 -11.259754 -2.796254
0.647263 0.157869 4.605305 -11.627008 -2.796131
0.678837 0.157869 4.977726 -11.957066 -2.796555
0.710410 0.157869 5.359946 -12.247360 -2.797531
0.741984 0.157869 5.750672 -12.495385 -2.799051
0.773558 0.157869 6.148530 -12.698740 -2.801092
0.805132 0.157869 6.552073 -12.855155 -2.803622
0.836706 0.157869 6.959785 -12.962521 -2.806595
0.868279 0.157869 7.370088 -13.018930 -2.809952
0.899853 0.157869 7.781345 -13.022697 -2.813623
0.931427 0.157869 8.191871 -12.972397 -2.817529
0.963001 0.157869 8.599940 -12.866887 -2.821580
0.994575 0.157869 9.003794 -12.705337 -2.825679
1.026148 0.157869 9.401656 -12.487247 -2.829723
1.057722 0.157869 9.791737 -12.212470 -2.833601
1.089296 0.157869 10.172250 -11.881229 -2.837202
1.120870 0.157869 10.541420 -11.494127 -2.840412
1.152444 0.157869 10.897499 -11.052155 -2.843119
1.184017 0.157869 11.238774 -10.556699 -2.845212
1.215591 0.157869 11.563584 -10.009536 -2.846586
1.247165 0.157869 11.870331 -9.412834 -2.847139
1.278739 0.157869 12.157487 -8.769137 -2.846782
1.310313 0.157869 12.423616 -8.081357 -2.845431
1.341886 0.157869 12.667376 -7.352753 -2.843019
1.373460 0.157869 12.887533 -6.586910 -2.839487
1.405034 0.157869 13.082972 -5.787713 -2.834793
1.436608 0.157869 13.252706 -4.959318 -2.828912
1.468181 0.157869 13.395880 -4.106120 -2.821831
1.499755 0.157869 13.511785 -3.232718 -2.813559
1.531329 0.157869 13.599856 -2.343875 -2.804120
1.562903 0.157869 13.659684 -1.444480 -2.793554
1.594477 0.157869 13.691013 -0.539508 -2.781923
1.626050 0.157869 13.693746 0.366024 -2.769302
1.657624 0.157869 13.667946 1.267098 -2.755784
1.689198 0.157869 13.613831 2.158740 -2.741478
1.720772 0.157869 13.531778 3.036057 -2.726507
1.752346 0.157869 13.422313 3.894282 -2.711004
1.783919 0.157869 13.286113 4.728809 -2.695119
1.815493 0.157869 13.123996 5.535235 -2.679005
1.847067 0.157869 12.936916 6.309388 -2.662825
1.878641 0.157869 12.725954 7.047364 -2.646749
1.910215 0.157869 12.492310 7.745551 -2.630947
1.941788 0.157869 12.237295 8.400654 -2.615590
1.973362 0.157869 11.962314 9.009719 -2.600846
2.004936 0.157869 11.668864 9.570145 -2.586882
2.036510 0.157869 11.358518 10.079698 -2.573854
2.068084 0.157869 11.032911 10.536522 -2.561911
2.099657 0.157869 10.693733 10.939138 -2.551192
2.131231 0.157869 10.342713 11.286446 -2.541818
2.162805 0.157869 9.981611 11.577723 -2.533900
2.194379 0.157869 9.612201 11.812610 -2.527528
2.225953 0.157869 9.236266 11.991105 -2.522774
2.257526 0.157869 8.855582 12.113541 -2.519693
2.289100 0.157869 8.471909 12.180576 -2.518314
2.320674 0.157869 8.086981 12.193165 -2.518650
2.352248 0.157869 7.702500 12.152537 -2.520688
2.383822 0.157869 7.320122 12.060175 -2.524396
2.415395 0.157869 6.941455 11.917781 -2.529717
2.446969 0.157869 6.568050 11.727254 -2.536575
2.478543 0.157869 6.201392 11.490659 -2.544875
2.510117 0.157869 5.842904 11.210198 -2.554499
2.541691 0.157869 5.493933 10.888182 -2.565314
2.573264 0.157869 5.155754 10.527002 -2.577171
2.604838 0.157869 4.829564 10.129106 -2.589905
2.636412 0.157869 4.516485 9.696970 -2.603342
2.667986 0.157869 4.217558 9.233075 -2.617296
2.699560 0.157869 3.933747 8.739889 -2.631574
2.731133 0.157869 3.665938 8.219847 -2.645980
2.762707 0.157869 3.414941 7.675335 -2.660316
2.794281 0.157869 3.181492 7.108675 -2.674382
2.825855 0.157869 2.966255 6.522118 -2.687986
2.857428 0.157869 2.769823 5.917837 -2.700939
2.889002 0.157869 2.592722 5.297918 -2.713062
2.920576 0.157869 2.435415 4.664366 -2.724189
2.952150 0.157869 2.298302 4.019100 -2.734164
2.983724 0.157869 2.181723 3.363960 -2.742850
3.015297 0.157869 2.085961 2.700713 -2.750127
3.046871 0.157869 2.011247 2.031064 -2.755895
3.078445 0.157869 1.957755 1.356661 -2.760072
3.110019 0.157869 1.925610 0.679113 -2.762602

-3.141593 0.189443 1.938823 -0.000000 -3.300053
-3.110019 0.189443 1.949539 -0.678646 -3.299030
-3.078445 0.189443 1.981661 -1.355734 -3.295977
-3.046871 0.189443 2.035117 -2.029689 -3.290934
-3.015297 0.189443 2.109781 -2.698910 -3.283972
-2.983724 0.189443 2.205480 -3.361753 -3.275185
-2.952150 0.189443 2.321983 -4.016520 -3.264695
-2.920576 0.189443 2.459010 -4.661448 -3.252645
-2.889002 0.189443 2.616219 -5.294703 -3.239200
-2.857428 0.189443 2.793214 -5.914368 -3.224546
-2.825855 0.189443 2.989534 -6.518444 -3.208882
-2.794281 0.189443 3.204652 -7.104845 -3.192423
-2.762707 0.189443 3.437979 -7.671403 -3.175394
-2.731133 0.189443 3.688850 -8.215867 -3.158028
-2.699560 0.189443 3.956534 -8.735915 -3.140562
-2.667986 0.189443 4.240220 -9.229161 -3.123234
-2.636412 0.189443 4.539025 -9.693170 -3.106280
-2.604838 0.189443 4.851987 -10.125473 -3.089931
-2.573264 0.189443 5.178065 -10.523585 -3.074410
-2.541691 0.189443 5.516140 -10.885027 -3.059927
-2.510117 0.189443 5.865016 -11.207349 -3.046680
-2.478543 0.189443 6.223420 -11.488156 -3.034848
-2.446969 0.189443 6.590004 -11.725130 -3.024592
-2.415395 0.189443 6.963349 -11.916066 -3.016053
-2.383822 0.189443 7.341969 -12.058893 -3.009347
-2.352248 0.189443 7.724313 -12.151707 -3.004566
-2.320674 0.189443 8.108775 -12.192798 -3.001780
-2.289100 0.189443 8.493699 -12.180679 -3.001028
-2.257526 0.189443 8.877383 -12.114115 -3.002327
-2.225953 0.189443 9.258093 -11.992143 -3.005665
-2.194379 0.189443 9.634067 -11.814101 -3.011006
-2.162805 0.189443 10.003531 -11.579650 -3.018289
-2.131231 0.189443 10.364701 -11.288787 -3.027428
-2.099657 0.189443 10.715800 -10.941865 -3.038315
-2.068084 0.189443 11.055070 -10.539604 -3.050823
-2.036510 0.189443 11.380780 -10.083099 -3.064805
-2.004936 0.189443 11.691238 -9.573825 -3.080099
-1.973362 0.189443 11.984808 -9.013637 -3.096527
-1.941788 0.189443 12.259915 -8.404765 -3.113904
-1.910215 0.189443 12.515063 -7.749810 -3.132032
-1.878641 0.189443 12.748843 -7.051724 -3.150711
-1.847067 0.189443 12.959943 -6.313802 -3.169738
-1.815493 0.189443 13.147163 -5.539656 -3.188908
-1.783919 0.189443 13.309419 -4.733192 -3.208023
-1.752346 0.189443 13.445756 -3.898583 -3.226887
-1.720772 0.189443 13.555355 -3.040235 -3.245315
-1.689198 0.189443 13.637539 -2.162756 -3.263132
-1.657624 0.189443 13.691777 -1.270917 -3.280177
-1.626050 0.189443 13.717694 -0.369613 -3.296303
-1.594477 0.189443 13.715070 0.536176 -3.311380
-1.562903 0.189443 13.683842 1.441428 -3.325298
-1.531329 0.189443 13.624106 2.341122 -3.337963
-1.499755 0.189443 13.536117 3.230278 -3.349305
-1.468181 0.189443 13.420284 4.104002 -3.359273
-1.436608 0.189443 13.277171 4.957527 -3.367836
-1.405034 0.189443 13.107489 5.786248 -3.374987
-1.373460 0.189443 12.912091 6.585766 -3.380735
-1.341886 0.189443 12.691965 7.351921 -3.385112
-1.310313 0.189443 12.448227 8.080823 -3.388167
-1.278739 0.189443 12.182111 8.768884 -3.389966
-1.247165 0.189443 11.894958 9.412841 -3.390593
-1.215591 0.189443 11.588207 10.009780 -3.390142
-1.184017 0.189443 11.263386 10.557154 -3.388721
-1.152444 0.189443 10.922093 11.052792 -3.386449
-1.120870 0.189443 10.565992 11.494917 -3.383449
-1.089296 0.189443 10.196795 11.882141 -3.379854
-1.057722 0.189443 9.816252 12.213473 -3.375796
-1.026148 0.189443 9.426138 12.488310 -3.371409
-0.994575 0.189443 9.028242 12.706431 -3.366826
-0.963001 0.189443 8.624353 12.867982 -3.362176
-0.931427 0.189443 8.216250 12.973465 -3.357582
-0.899853 0.189443 7.805692 13.023713 -3.353158
-0.868279 0.189443 7.394404 13.019870 -3.349011
-0.836706 0.189443 6.984072 12.963366 -3.345234
-0.805132 0.189443 6.576335 12.855886 -3.341911
-0.773558 0.189443 6.172771 12.699344 -3.339110
-0.741984 0.189443 5.774896 12.495851 -3.336884
-0.710410 0.189443 5.384158 12.247679 -3.335275
-0.678837 0.189443 5.001929 11.957236 -3.334306
-0.647263 0.189443 4.629506 11.627028 -3.333987
-0.615689 0.189443 4.268102 11.259627 -3.334313
-0.584115 0.189443 3.918852 10.857645 -3.335263
-0.552541 0.189443 3.582804 10.423700 -3.336805
-0.520968 0.189443 3.260929 9.960393 -3.338894
-0.489394 0.189443 2.954112 9.470279 -3.341472
-0.457820 0.189443 2.663160 8.955846 -3.344473
-0.426246 0.189443 2.388802 8.419497 -3.347823
-0.394672 0.189443 2.131695 7.863530 -3.351439
-0.363099 0.189443 1.892423 7.290131 -3.355237
-0.331525 0.189443 1.671503 6.701357 -3.359127
-0.299951 0.189443 1.469390 6.099134 -3.363019
-0.268377 0.189443 1.286480 5.485256 -3.366824
-0.236803 0.189443 1.123114 4.861381 -3.370456
-0.205230 0.189443 0.979584 4.229037 -3.373834
-0.173656 0.189443 0.856135 3.589631 -3.376882
-0.142082 0.189443 0.752968 2.944457 -3.379532
-0.110508 0.189443 0.670248 2.294708 -3.381726
-0.078934 0.189443 0.608100 1.641493 -3.383414
-0.047361 0.189443 0.566617 0.985852 -3.384561
-0.015787 0.189443 0.545860 0.328776 -3.385141
0.015787 0.189443 0.545860 -0.328776 -3.385141
0.047361 0.189443 0.566617 -0.985852 -3.384561
0.078934 0.189443 0.608100 -1.641493 -3.383414
0.110508 0.189443 0.670248 -2.294708 -3.381726
0.142082 0.189443 0.752968 -2.944457 -3.379532
0.173656 0.189443 0.856135 -3.589631 -3.376882
0.205230 0.189443 0.979584 -4.229037 -3.373834
0.236803 0.189443 1.123114 -4.861381 -3.370456
0.268377 0.189443 1.286480 -5.485256 -3.366824
0.299951 0.189443 1.469390 -6.099134 -3.363019
0.331525 0.189443 1.671503 -6.701357 -3.359127
0.363099 0.189443 1.892423 -7.290131 -3.355237
0.394672 0.189443 2.131695 -7.863530 -3.351439
0.426246 0.189443 2.388802 -8.419497 -3.347823
0.457820 0.189443 2.663160 -8.955846 -3.344473
0.489394 0.189443 2.954112 -9.470279 -3.341472
0.520968 0.189443 3.260929 -9.960393 -3.338894
0.552541 0.189443 3.582804 -10.423700 -3.336805
0.584115 0.189443 3.918852 -10.857645 -3.335263
0.615689 0.189443 4.268102 -11.259627 -3.334313
0.647263 0.189443 4.629506 -11.627028 -3.333987
0.678837 0.189443 5.001929 -11.957236 -3.334306
0.710410 0.189443 5.384158 -12.247679 -3.335275
0.741984 0.189443 5.774896 -12.495851 -3.336884
0.773558 0.189443 6.172771 -12.699344 -3.339110
0.805132 0.189443 6.576335 -12.855886 -3.341911
0.836706 0.189443 6.984072 -12.963366 -3.345234
0.868279 0.189443 7.394404 -13.019870 -3.349011
0.899853 0.189443 7.805692 -13.023713 -3.353158
0.931427 0.189443 8.216250 -12.973465 -3.357582
0.963001 0.189443 8.624353 -12.867982 -3.362176
0.994575 0.189443 9.028242 -12.706431 -3.366826
1.026148 0.189443 9.426138 -12.488310 -3.371409
1.057722 0.189443 9.816252 -12.213473 -3.375796
1.089296 0.189443 10.196795 -11.882141 -3.379854
1.120870 0.189443 10.565992 -11.494917 -3.383449
1.152444 0.189443 10.922093 -11.052792 -3.386449
1.184017 0.189443 11.263386 -10.557154 -3.388721
1.215591 0.189443 11.588207 -10.009780 -3.390142
1.247165 0.189443 11.894958 -9.412841 -3.390593
1.278739 0.189443 12.182111 -8.768884 -3.389966
1.310313 0.189443 12.448227 -8.080823 -3.388167
1.341886 0.189443 12.691965 -7.351921 -3.385112
1.373460 0.189443 12.912091 -6.585766 -3.380735
1.405034 0.189443 13.107489 -5.786248 -3.374987
1.436608 0.189443 13.277171 -4.957527 -3.367836
1.468181 0.189443 13.420284 -4.104002 -3.359273
1.499755 0.189443 13.536117 -3.230278 -3.349305
1.531329 0.189443 13.624106 -2.341122 -3.337963
1.562903 0.189443 13.683842 -1.441428 -3.325298
1.594477 0.189443 13.715070 -0.536176 -3.311380
1.626050 0.189443 13.717694 0.369613 -3.296303
1.657624 0.189443 13.691777 1.270917 -3.280177
1.689198 0.189443 13.637539 2.162756 -3.263132
1.720772 0.189443 13.555355 3.040235 -3.245315
1.752346 0.189443 13.445756 3.898583 -3.226887
1.783919 0.189443 13.309419 4.733192 -3.208023
1.815493 0.189443 13.147163 5.539656 -3.188908
1.847067 0.189443 12.959943 6.313802 -3.169738
1.878641 0.189443 12.748843 7.051724 -3.150711
1.910215 0.189443 12.515063 7.749810 -3.132032
1.941788 0.189443 12.259915 8.404765 -3.113904
1.973362 0.189443 11.984808 9.013637 -3.096527
2.004936 0.189443 11.691238 9.573825 -3.080099
2.036510 0.189443 11.380780 10.083099 -3.064805
2.068084 0.189443 11.055070 10.539604 -3.050823
2.099657 0.189443 10.715800 10.941865 -3.038315
2.131231 0.189443 10.364701 11.288787 -3.027428
2.162805 0.189443 10.003531 11.579650 -3.018289
2.194379 0.189443 9.634067 11.814101 -3.011006
2.225953 0.189443 9.258093 11.992143 -3.005665
2.257526 0.189443 8.877383 12.114115 -3.002327
2.289100 0.189443 8.493699 12.180679 -3.001028
2.320674 0.189443 8.108775 12.192798 -3.001780
2.352248 0.189443 7.724313 12.151707 -3.004566
2.383822 0.189443 7.341969 12.058893 -3.009347
2.415395 0.189443 6.963349 11.916066 -3.016053
2.446969 0.189443 6.590004 11.725130 -3.024592
2.478543 0.189443 6.223420 11.488156 -3.034848
2.510117 0.189443 5.865016 11.207349 -3.046680
2.541691 0.189443 5.516140 10.885027 -3.059927
2.573264 0.189443 5.178065 10.523585 -3.074410
2.604838 0.189443 4.851987 10.125473 -3.089931
2.636412 0.189443 4.539025 9.693170 -3.106280
2.667986 0.189443 4.240220 9.229161 -3.123234
2.699560 0.189443 3.956534 8.735915 -3.140562
2.731133 0.189443 3.688850 8.215867 -3.158028
2.762707 0.189443 3.437979 7.671403 -3.175394
2.794281 0.189443 3.204652 7.104845 -3.192423
2.825855 0.189443 2.989534 6.518444 -3.208882
2.857428 0.189443 2.793214 5.914368 -3.224546
2.889002 0.189443 2.616219 5.294703 -3.239200
2.920576 0.189443 2.459010 4.661448 -3.252645
2.952150 0.189443 2.321983 4.016520 -3.264695
2.983724 0.189443 2.205480 3.361753 -3.275185
3.015297 0.189443 2.109781 2.698910 -3.283972
3.046871 0.189443 2.035117 2.029689 -3.290934
3.078445 0.189443 1.981661 1.355734 -3.295977
3.110019 0.189443 1.949539 0.678646 -3.299030

-3.141593 0.221017 1.966962 -0.000000 -3.828040
-3.110019 0.221017 1.977669 -0.678091 -3.826839
-3.078445 0.221017 2.009765 -1.354631 -3.823252
-3.046871 0.221017 2.063177 -2.028054 -3.817328
-3.015297 0.221017 2.137782 -2.696765 -3.809148
-2.983724 0.221017 2.233405 -3.359127 -3.798822
-2.952150 0.221017 2.349818 -4.013449 -3.786492
-2.920576 0.221017 2.486741 -4.657974 -3.772325
-2.889002 0.221017 2.643836 -5.290873 -3.756512
-2.857428 0.221017 2.820705 -5.910235 -3.739269
-2.825855 0.221017 3.016890 -6.514064 -3.720830
-2.794281 0.221017 3.231867 -7.100277 -3.701444
-2.762707 0.221017 3.465047 -7.666710 -3.681373
-2.731133 0.221017 3.715769 -8.211112 -3.660888
-2.699560 0.221017 3.983302 -8.731162 -3.640265
-2.667986 0.221017 4.266840 -9.224476 -3.619783
-2.636412 0.221017 4.565499 -9.688615 -3.599717
-2.604838 0.221017 4.878319 -10.121110 -3.580336
-2.573264 0.221017 5.204263 -10.519473 -3.561899
-2.541691 0.221017 5.542214 -10.881222 -3.544654
-2.510117 0.221017 5.890975 -11.203901 -3.528830
-2.478543 0.221017 6.249276 -11.485112 -3.514638
-2.446969 0.221017 6.615771 -11.722531 -3.502267
-2.415395 0.221017 6.989042 -11.913947 -3.491881
-2.383822 0.221017 7.367602 -12.057282 -3.483618
-2.352248 0.221017 7.749904 -12.150626 -3.477588
-2.320674 0.221017 8.134341 -12.192263 -3.473870
-2.289100 0.221017 8.519256 -12.180697 -3.472516
-2.257526 0.221017 8.902949 -12.114687 -3.473546
-2.225953 0.221017 9.283686 -11.993263 -3.476948
-2.194379 0.221017 9.659705 -11.815756 -3.482683
-2.162805 0.221017 10.029228 -11.581820 -3.490681
-2.131231 0.221017 10.390475 -11.291446 -3.500846
-2.099657 0.221017 10.741666 -10.944982 -3.513055
-2.068084 0.221017 11.081041 -10.543142 -3.527161
-2.036510 0.221017 11.406868 -10.087016 -3.542996
-2.004936 0.221017 11.717456 -9.578076 -3.560374
-1.973362 0.221017 12.011164 -9.018172 -3.579091
-1.941788 0.221017 12.286418 -8.409533 -3.598931
-1.910215 0.221017 12.541720 -7.754757 -3.619670
-1.878641 0.221017 12.775658 -7.056795 -3.641074
-1.847067 0.221017 12.986920 -6.318943 -3.662910
-1.815493 0.221017 13.174302 -5.544812 -3.684941
-1.783919 0.221017 13.336721 -4.738310 -3.706937
-1.752346 0.221017 13.473218 -3.903612 -3.728673
-1.720772 0.221017 13.582974 -3.045125 -3.749934
-1.689198 0.221017 13.665309 -2.167463 -3.770518
-1.657624 0.221017 13.719692 -1.275398 -3.790236
-1.626050 0.221017 13.745747 -0.373831 -3.808919
-1.594477 0.221017 13.743251 0.532253 -3.826416
-1.562903 0.221017 13.712142 1.437829 -3.842598
-1.531329 0.221017 13.652514 2.337868 -3.857356
-1.499755 0.221017 13.564622 3.227386 -3.870608
-1.468181 0.221017 13.448875 4.101484 -3.882293
-1.436608 0.221017 13.305836 4.955386 -3.892375
-1.405034 0.221017 13.136215 5.784485 -3.900843
-1.373460 0.221017 12.940867 6.584376 -3.907708
-1.341886 0.221017 12.720779 7.350893 -3.913004
-1.310313 0.221017 12.477068 8.080142 -3.916787
-1.278739 0.221017 12.210968 8.768530 -3.919131
-1.247165 0.221017 11.923821 9.412790 -3.920132
-1.215591 0.221017 11.617068 10.010004 -3.919897
-1.184017 0.221017 11.292235 10.557622 -3.918550
-1.152444 0.221017 10.950924 11.053473 -3.916226
-1.120870 0.221017 10.594799 11.495776 -3.913068
-1.089296 0.221017 10.225572 11.883142 -3.909225
-1.057722 0.221017 9.844996 12.214581 -3.904850
-1.026148 0.221017 9.454846 12.489488 -3.900098
-0.994575 0.221017 9.056912 12.707644 -3.895119
-0.963001 0.221017 8.652985 12.869196 -3.890061
-0.931427 0.221017 8.244844 12.974649 -3.885066
-0.899853 0.221017 7.834249 13.024836 -3.880266
-0.868279 0.221017 7.422927 13.020907 -3.875781
-0.836706 0.221017 7.012564 12.964291 -3.871720
-0.805132 0.221017 6.604800 12.856680 -3.868176
-0.773558 0.221017 6.201213 12.699991 -3.865229
-0.741984 0.221017 5.803320 12.496337 -3.862941
-0.710410 0.221017 5.412569 12.247996 -3.861356
-0.678837 0.221017 5.030334 11.957380 -3.860503
-0.647263 0.221017 4.657908 11.626997 -3.860391
-0.615689 0.221017 4.296508 11.259425 -3.861014
-0.584115 0.221017 3.947266 10.857280 -3.862350
-0.552541 0.221017 3.611233 10.423183 -3.864358
-0.520968 0.221017 3.289376 9.959737 -3.866987
-0.489394 0.221017 2.982582 9.469501 -3.870170
-0.457820 0.221017 2.691656 8.954965 -3.873831
-0.426246 0.221017 2.417328 8.418534 -3.877882
-0.394672 0.221017 2.160252 7.862508 -3.882229
-0.363099 0.221017 1.921013 7.289073 -3.886773
-0.331525 0.221017 1.700126 6.700288 -3.891411
-0.299951 0.221017 1.498047 6.098079 -3.896039
-0.268377 0.221017 1.315170 5.484237 -3.900554
-0.236803 0.221017 1.151835 4.860421 -3.904857
-0.205230 0.221017 1.008335 4.228158 -3.908852
-0.173656 0.221017 0.884911 3.588852 -3.912453
-0.142082 0.221017 0.781768 2.943795 -3.915581
-0.110508 0.221017 0.699066 2.294177 -3.918169
-0.078934 0.221017 0.636932 1.641105 -3.920160
-0.047361 0.221017 0.595459 0.985616 -3.921512
-0.015787 0.221017 0.574708 0.328696 -3.922195
0.015787 0.221017 0.574708 -0.328696 -3.922195
0.047361 0.221017 0.595459 -0.985616 -3.921512
0.078934 0.221017 0.636932 -1.641105 -3.920160
0.110508 0.221017 0.699066 -2.294177 -3.918169
0.142082 0.221017 0.781768 -2.943795 -3.915581
0.173656 0.221017 0.884911 -3.588852 -3.912453
0.205230 0.221017 1.008335 -4.228158 -3.908852
0.236803 0.221017 1.151835 -4.860421 -3.904857
0.268377 0.221017 1.315170 -5.484237 -3.900554
0.299951 0.221017 1.498047 -6.098079 -3.896039
0.331525 0.221017 1.700126 -6.700288 -3.891411
0.363099 0.221017 1.921013 -7.289073 -3.886773
0.394672 0.221017 2.160252 -7.862508 -3.882229
0.426246 0.221017 2.417328 -8.418534 -3.877882
0.457820 0.221017 2.691656 -8.954965 -3.873831
0.489394 0.221017 2.982582 -9.469501 -3.870170
0.520968 0.221017 3.289376 -9.959737 -3.866987
0.552541 0.221017 3.611233 -10.423183 -3.864358
0.584115 0.221017 3.947266 -10.857280 -3.862350
0.615689 0.221017 4.296508 -11.259425 -3.861014
0.647263 0.221017 4.657908 -11.626997 -3.860391
0.678837 0.221017 5.030334 -11.957380 -3.860503
0.710410 0.221017 5.412569 -12.247996 -3.861356
0.741984 0.221017 5.803320 -12.496337 -3.862941
0.773558 0.221017 6.201213 -12.699991 -3.865229
0.805132 0.221017 6.604800 -12.856680 -3.868176
0.836706 0.221017 7.012564 -12.964291 -3.871720
0.868279 0.221017 7.422927 -13.020907 -3.875781
0.899853 0.221017 7.834249 -13.024836 -3.880266
0.931427 0.221017 8.244844 -12.974649 -3.885066
0.963001 0.221017 8.652985 -12.869196 -3.890061
0.994575 0.221017 9.056912 -12.707644 -3.895119
1.026148 0.221017 9.454846 -12.489488 -3.900098
1.057722 0.221017 9.844996 -12.214581 -3.904850
1.089296 0.221017 10.225572 -11.883142 -3.909225
1.120870 0.221017 10.594799 -11.495776 -3.913068
1.152444 0.221017 10.950924 -11.053473 -3.916226
1.184017 0.221017 11.292235 -10.557622 -3.918550
1.215591 0.221017 11.617068 -10.010004 -3.919897
1.247165 0.221017 11.923821 -9.412790 -3.920132
1.278739 0.221017 12.210968 -8.768530 -3.919131
1.310313 0.221017 12.477068 -8.080142 -3.916787
1.341886 0.221017 12.720779 -7.350893 -3.913004
1.373460 0.221017 12.940867 -6.584376 -3.907708
1.405034 0.221017 13.136215 -5.784485 -3.900843
1.436608 0.221017 13.305836 -4.955386 -3.892375
1.468181 0.221017 13.448875 -4.101484 -3.882293
1.499755 0.221017 13.564622 -3.227386 -3.870608
1.531329 0.221017 13.652514 -2.337868 -3.857356
1.562903 0.221017 13.712142 -1.437829 -3.842598
1.594477 0.221017 13.743251 -0.532253 -3.826416
1.626050 0.221017 13.745747 0.373831 -3.808919
1.657624 0.221017 13.719692 1.275398 -3.790236
1.689198 0.221017 13.665309 2.167463 -3.770518
1.720772 0.221017 13.582974 3.045125 -3.749934
1.752346 0.221017 13.473218 3.903612 -3.728673
1.783919 0.221017 13.336721 4.738310 -3.706937
1.815493 0.221017 13.174302 5.544812 -3.684941
1.847067 0.221017 12.986920 6.318943 -3.662910
1.878641 0.221017 12.775658 7.056795 -3.641074
1.910215 0.221017 12.541720 7.754757 -3.619670
1.941788 0.221017 12.286418 8.409533 -3.598931
1.973362 0.221017 12.011164 9.018172 -3.579091
2.004936 0.221017 11.717456 9.578076 -3.560374
2.036510 0.221017 11.406868 10.087016 -3.542996
2.068084 0.221017 11.081041 10.543142 -3.527161
2.099657 0.221017 10.741666 10.944982 -3.513055
2.131231 0.221017 10.390475 11.291446 -3.500846
2.162805 0.221017 10.029228 11.581820 -3.490681
2.194379 0.221017 9.659705 11.815756 -3.482683
2.225953 0.221017 9.283686 11.993263 -3.476948
2.257526 0.221017 8.902949 12.114687 -3.473546
2.289100 0.221017 8.519256 12.180697 -3.472516
2.320674 0.221017 8.134341 12.192263 -3.473870
2.352248 0.221017 7.749904 12.150626 -3.477588
2.383822 0.221017 7.367602 12.057282 -3.483618
2.415395 0.221017 6.989042 11.913947 -3.491881
2.446969 0.221017 6.615771 11.722531 -3.502267
2.478543 0.221017 6.249276 11.485112 -3.514638
2.510117 0.221017 5.890975 11.203901 -3.528830
2.541691 0.221017 5.542214 10.881222 -3.544654
2.573264 0.221017 5.204263 10.519473 -3.561899
2.604838 0.221017 4.878319 10.121110 -3.580336
2.636412 0.221017 4.565499 9.688615 -3.599717
2.667986 0.221017 4.266840 9.224476 -3.619783
2.699560 0.221017 3.983302 8.731162 -3.640265
2.731133 0.221017 3.715769 8.211112 -3.660888
2.762707 0.221017 3.465047 7.666710 -3.681373
2.794281 0.221017 3.231867 7.100277 -3.701444
2.825855 0.221017 3.016890 6.514064 -3.720830
2.857428 0.221017 2.820705 5.910235 -3.739269
2.889002 0.221017 2.643836 5.290873 -3.756512
2.920576 0.221017 2.486741 4.657974 -3.772325
2.952150 0.221017 2.349818 4.013449 -3.786492
2.983724 0.221017 2.233405 3.359127 -3.798822
3.015297 0.221017 2.137782 2.696765 -3.809148
3.046871 0.221017 2.063177 2.028054 -3.817328
3.078445 0.221017 2.009765 1.354631 -3.823252
3.110019 0.221017 1.977669 0.678091 -3.826839

-3.141593 0.252590 1.999230 -0.000000 -4.346105
-3.110019 0.252590 2.009926 -0.677446 -4.344722
-3.078445 0.252590 2.041992 -1.353349 -4.340591
-3.046871 0.252590 2.095355 -2.026153 -4.333767
-3.015297 0.252590 2.169890 -2.694270 -4.324343
-2.983724 0.252590 2.265425 -3.356073 -4.312445
-2.952150 0.252590 2.381734 -4.009876 -4.298233
-2.920576 0.252590 2.518536 -4.653932 -4.281899
-2.889002 0.252590 2.675496 -5.286415 -4.263661
-2.857428 0.252590 2.852219 -5.905421 -4.243764
-2.825855 0.252590 3.048247 -6.508959 -4.222474
-2.794281 0.252590 3.263059 -7.094951 -4.200077
-2.762707 0.252590 3.496068 -7.661233 -4.176871
-2.731133 0.252590 3.746617 -8.205558 -4.153166
-2.699560 0.252590 4.013974 -8.725606 -4.129277
-2.667986 0.252590 4.297337 -9.218991 -4.105521
-2.636412 0.252590 4.595825 -9.683275 -4.082212
-2.604838 0.252590 4.908480 -10.115985 -4.059660
-2.573264 0.252590 5.234267 -10.514632 -4.038160
-2.541691 0.252590 5.572069 -10.876728 -4.017995
-2.510117 0.252590 5.920695 -11.199814 -3.999428
-2.478543 0.252590 6.278875 -11.481485 -3.982702
-2.446969 0.252590 6.645263 -11.719413 -3.968032
-2.415395 0.252590 7.018443 -11.911377 -3.955609
-2.383822 0.252590 7.396932 -12.055295 -3.945592
-2.352248 0.252590 7.779180 -12.149247 -3.938107
-2.320674 0.252590 8.163583 -12.191509 -3.933249
-2.289100 0.252590 8.548485 -12.180580 -3.931078
-2.257526 0.252590 8.932185 -12.115206 -3.931619
-2.225953 0.252590 9.312948 -11.994413 -3.934864
-2.194379 0.252590 9.689012 -11.817523 -3.940769
-2.162805 0.252590 10.058601 -11.584181 -3.949259
-2.131231 0.252590 10.419931 -11.294373 -3.960226
-2.099657 0.252590 10.771223 -10.948438 -3.973535
-2.068084 0.252590 11.110715 -10.547086 -3.989020
-2.036510 0.252590 11.436674 -10.091401 -4.006494
-2.004936 0.252590 11.747406 -9.582849 -4.025747
-1.973362 0.252590 12.041271 -9.023278 -4.046550
-1.941788 0.252590 12.316691 -8.414914 -4.068661
-1.910215 0.252590 12.572166 -7.760350 -4.091825
-1.878641 0.252590 12.806283 -7.062539 -4.115781
-1.847067 0.252590 13.017728 -6.324775 -4.140262
-1.815493 0.252590 13.205295 -5.550670 -4.165004
-1.783919 0.252590 13.367898 -4.744133 -4.189745
-1.752346 0.252590 13.504578 -3.909340 -4.214231
-1.720772 0.252590 13.614512 -3.050704 -4.238218
-1.689198 0.252590 13.697020 -2.172840 -4.261476
-1.657624 0.252590 13.751570 -1.280525 -4.283792
-1.626050 0.252590 13.777782 -0.378666 -4.304973
-1.594477 0.252590 13.775434 0.527749 -4.324849
-1.562903 0.252590 13.744461 1.433686 -4.343269
-1.531329 0.252590 13.684958 2.334113 -4.360113
-1.499755 0.252590 13.597178 3.224038 -4.375283
-1.468181 0.252590 13.481530 4.098556 -4.388710
-1.436608 0.252590 13.338576 4.952885 -4.400352
-1.405034 0.252590 13.169028 5.782411 -4.410194
-1.373460 0.252590 12.973738 6.582723 -4.418246
-1.341886 0.252590 12.753696 7.349649 -4.424546
-1.310313 0.252590 12.510018 8.079290 -4.429154
-1.278739 0.252590 12.243939 8.768047 -4.432154
-1.247165 0.252590 11.956802 9.412649 -4.433649
-1.215591 0.252590 11.650049 10.010175 -4.433761
-1.184017 0.252590 11.325206 10.558071 -4.432627
-1.152444 0.252590 10.983877 11.054162 -4.430399
-1.120870 0.252590 10.627727 11.496667 -4.427234
-1.089296 0.252590 10.258469 11.884195 -4.423302
-1.057722 0.252590 9.877857 12.215754 -4.418772
-1.026148 0.252590 9.487669 12.490742 -4.413817
-0.994575 0.252590 9.089695 12.708938 -4.408607
-0.963001 0.252590 8.685727 12.870493 -4.403308
-0.931427 0.252590 8.277545 12.975911 -4.398077
-0.899853 0.252590 7.866911 13.026030 -4.393061
-0.868279 0.252590 7.455553 13.022002 -4.388397
-0.836706 0.252590 7.045158 12.965262 -4.384206
-0.805132 0.252590 6.637365 12.857502 -4.380593
-0.773558 0.252590 6.233755 12.700646 -4.377645
-0.741984 0.252590 5.835844 12.496811 -4.375432
-0.710410 0.252590 5.445081 12.248280 -4.374004
-0.678837 0.252590 5.062840 11.957468 -4.373392
-0.647263 0.252590 4.690415 11.626889 -4.373605
-0.615689 0.252590 4.329021 11.259126 -4.374637
-0.584115 0.252590 3.979792 10.856797 -4.376459
-0.552541 0.252590 3.643777 10.422528 -4.379029
-0.520968 0.252590 3.321943 9.958927 -4.382285
-0.489394 0.252590 3.015176 9.468555 -4.386153
-0.457820 0.252590 2.724282 8.953905 -4.390545
-0.426246 0.252590 2.449989 8.417384 -4.395362
-0.394672 0.252590 2.192950 7.861294 -4.400499
-0.363099 0.252590 1.953750 7.287823 -4.405841
-0.331525 0.252590 1.732903 6.699028 -4.411273
-0.299951 0.252590 1.530863 6.096837 -4.416677
-0.268377 0.252590 1.348025 5.483041 -4.421937
-0.236803 0.252590 1.184727 4.859297 -4.426938
-0.205230 0.252590 1.041261 4.227129 -4.431576
-0.173656 0.252590 0.917868 3.587941 -4.435751
-0.142082 0.252590 0.814751 2.943022 -4.439374
-0.110508 0.252590 0.732071 2.293558 -4.442368
-0.078934 0.252590 0.669954 1.640653 -4.444672
-0.047361 0.252590 0.628493 0.985341 -4.446234
-0.015787 0.252590 0.607748 0.328604 -4.447024
0.015787 0.252590 0.607748 -0.328604 -4.447024
0.047361 0.252590 0.628493 -0.985341 -4.446234
0.078934 0.252590 0.669954 -1.640653 -4.444672
0.110508 0.252590 0.732071 -2.293558 -4.442368
0.142082 0.252590 0.814751 -2.943022 -4.439374
0.173656 0.252590 0.917868 -3.587941 -4.435751
0.205230 0.252590 1.041261 -4.227129 -4.431576
0.236803 0.252590 1.184727 -4.859297 -4.426938
0.268377 0.252590 1.348025 -5.483041 -4.421937
0.299951 0.252590 1.530863 -6.096837 -4.416677
0.331525 0.252590 1.732903 -6.699028 -4.411273
0.363099 0.252590 1.953750 -7.287823 -4.405841
0.394672 0.252590 2.192950 -7.861294 -4.400499
0.426246 0.252590 2.449989 -8.417384 -4.395362
0.457820 0.252590 2.724282 -8.953905 -4.390545
0.489394 0.252590 3.015176 -9.468555 -4.386153
0.520968 0.252590 3.321943 -9.958927 -4.382285
0.552541 0.252590 3.643777 -10.422528 -4.379029
0.584115 0.252590 3.979792 -10.856797 -4.376459
0.615689 0.252590 4.329021 -11.259126 -4.374637
0.647263 0.252590 4.690415 -11.626889 -4.373605
0.678837 0.252590 5.062840 -11.957468 -4.373392
0.710410 0.252590 5.445081 -12.248280 -4.374004
0.741984 0.252590 5.835844 -12.496811 -4.375432
0.773558 0.252590 6.233755 -12.700646 -4.377645
0.805132 0.252590 6.637365 -12.857502 -4.380593
0.836706 0.252590 7.045158 -12.965262 -4.384206
0.868279 0.252590 7.455553 -13.022002 -4.388397
0.899853 0.252590 7.866911 -13.026030 -4.393061
0.931427 0.252590 8.277545 -12.975911 -4.398077
0.963001 0.252590 8.685727 -12.870493 -4.403308
0.994575 0.252590 9.089695 -12.708938 -4.408607
1.026148 0.252590 9.487669 -12.490742 -4.413817
1.057722 0.252590 9.877857 -12.215754 -4.418772
1.089296 0.252590 10.258469 -11.884195 -4.423302
1.120870 0.252590 10.627727 -11.496667 -4.427234
1.152444 0.252590 10.983877 -11.054162 -4.430399
1.184017 0.252590 11.325206 -10.558071 -4.432627
1.215591 0.252590 11.650049 -10.010175 -4.433761
1.247165 0.252590 11.956802 -9.412649 -4.433649
1.278739 0.252590 12.243939 -8.768047 -4.432154
1.310313 0.252590 12.510018 -8.079290 -4.429154
1.341886 0.252590 12.753696 -7.349649 -4.424546
1.373460 0.252590 12.973738 -6.582723 -4.418246
1.405034 0.252590 13.169028 -5.782411 -4.410194
1.436608 0.252590 13.338576 -4.952885 -4.400352
1.468181 0.252590 13.481530 -4.098556 -4.388710
1.499755 0.252590 13.597178 -3.224038 -4.375283
1.531329 0.252590 13.684958 -2.334113 -4.360113
1.562903 0.252590 13.744461 -1.433686 -4.343269
1.594477 0.252590 13.775434 -0.527749 -4.324849
1.626050 0.252590 13.777782 0.378666 -4.304973
1.657624 0.252590 13.751570 1.280525 -4.283792
1.689198 0.252590 13.697020 2.172840 -4.261476
1.720772 0.252590 13.614512 3.050704 -4.238218
1.752346 0.252590 13.504578 3.909340 -4.214231
1.783919 0.252590 13.367898 4.744133 -4.189745
1.815493 0.252590 13.205295 5.550670 -4.165004
1.847067 0.252590 13.017728 6.324775 -4.140262
1.878641 0.252590 12.806283 7.062539 -4.115781
1.910215 0.252590 12.572166 7.760350 -4.091825
1.941788 0.252590 12.316691 8.414914 -4.068661
1.973362 0.252590 12.041271 9.023278 -4.046550
2.004936 0.252590 11.747406 9.582849 -4.025747
2.036510 0.252590 11.436674 10.091401 -4.006494
2.068084 0.252590 11.110715 10.547086 -3.989020
2.099657 0.252590 10.771223 10.948438 -3.973535
2.131231 0.252590 10.419931 11.294373 -3.960226
2.162805 0.252590 10.058601 11.584181 -3.949259
2.194379 0.252590 9.689012 11.817523 -3.940769
2.225953 0.252590 9.312948 11.994413 -3.934864
2.257526 0.252590 8.932185 12.115206 -3.931619
2.289100 0.252590 8.548485 12.180580 -3.931078
2.320674 0.252590 8.163583 12.191509 -3.933249
2.352248 0.252590 7.779180 12.149247 -3.938107
2.383822 0.252590 7.396932 12.055295 -3.945592
2.415395 0.252590 7.018443 11.911377 -3.955609
2.446969 0.252590 6.645263 11.719413 -3.968032
2.478543 0.252590 6.278875 11.481485 -3.982702
2.510117 0.252590 5.920695 11.199814 -3.999428
2.541691 0.252590 5.572069 10.876728 -4.017995
2.573264 0.252590 5.234267 10.514632 -4.038160
2.604838 0.252590 4.908480 10.115985 -4.059660
2.636412 0.252590 4.595825 9.683275 -4.082212
2.667986 0.252590 4.297337 9.218991 -4.105521
2.699560 0.252590 4.013974 8.725606 -4.129277
2.731133 0.252590 3.746617 8.205558 -4.153166
2.762707 0.252590 3.496068 7.661233 -4.176871
2.794281 0.252590 3.263059 7.094951 -4.200077
2.825855 0.252590 3.048247 6.508959 -4.222474
2.857428 0.252590 2.852219 5.905421 -4.243764
2.889002 0.252590 2.675496 5.286415 -4.263661
2.920576 0.252590 2.518536 4.653932 -4.281899
2.952150 0.252590 2.381734 4.009876 -4.298233
2.983724 0.252590 2.265425 3.356073 -4.312445
3.015297 0.252590 2.169890 2.694270 -4.324343
3.046871 0.252590 2.095355 2.026153 -4.333767
3.078445 0.252590 2.041992 1.353349 -4.340591
3.110019 0.252590 2.009926 0.677446 -4.344722

-3.141593 0.284164 2.035544 -0.000000 -4.853002
-3.110019 0.284164 2.046229 -0.676709 -4.851432
-3.078445 0.284164 2.078260 -1.351885 -4.846744
-3.046871 0.284164 2.131565 -2.023981 -4.839000
-3.015297 0.284164 2.206021 -2.691419 -4.828302
-2.983724 0.284164 2.301455 -3.352581 -4.814794
-2.952150 0.284164 2.417644 -4.005791 -4.798654
-2.920576 0.284164 2.554309 -4.649307 -4.780097
-2.889002 0.284164 2.711116 -5.281312 -4.759368
-2.857428 0.284164 2.887670 -5.899909 -4.736742
-2.825855 0.284164 3.083519 -6.503110 -4.712518
-2.794281 0.284164 3.298142 -7.088843 -4.687016
-2.762707 0.284164 3.530956 -7.654947 -4.660572
-2.731133 0.284164 3.781304 -8.199177 -4.633532
-2.699560 0.284164 4.048459 -8.719214 -4.606251
-2.667986 0.284164 4.331621 -9.212672 -4.579086
-2.636412 0.284164 4.629912 -9.677112 -4.552390
-2.604838 0.284164 4.942376 -10.110059 -4.526509
-2.573264 0.284164 5.267980 -10.509020 -4.501779
-2.541691 0.284164 5.605611 -10.871502 -4.478517
-2.510117 0.284164 5.954079 -11.195043 -4.457021
-2.478543 0.284164 6.312116 -11.477229 -4.437563
-2.446969 0.284164 6.678379 -11.715726 -4.420390
-2.415395 0.284164 7.051453 -11.908306 -4.405715
-2.383822 0.284164 7.429854 -12.052878 -4.393720
-2.352248 0.284164 7.812037 -12.147515 -4.384551
-2.320674 0.284164 8.196397 -12.190482 -4.378317
-2.289100 0.284164 8.581277 -12.180269 -4.375087
-2.257526 0.284164 8.964978 -12.115615 -4.374895
-2.225953 0.284164 9.345766 -11.995534 -4.377733
-2.194379 0.284164 9.721877 -11.819342 -4.383557
-2.162805 0.284164 10.091534 -11.586674 -4.392287
-2.131231 0.284164 10.452953 -11.297507 -4.403806
-2.099657 0.284164 10.804353 -10.952174 -4.417965
-2.068084 0.284164 11.143972 -10.551378 -4.434584
-2.036510 0.284164 11.470075 -10.096196 -4.453456
-2.004936 0.284164 11.780966 -9.588090 -4.474349
-1.973362 0.284164 12.075002 -9.028903 -4.497011
-1.941788 0.284164 12.350605 -8.420856 -4.521174
-1.910215 0.284164 12.606271 -7.766542 -4.546556
-1.878641 0.284164 12.840587 -7.068911 -4.572867
-1.847067 0.284164 13.052235 -6.331256 -4.599812
-1.815493 0.284164 13.240007 -5.557191 -4.627096
-1.783919 0.284164 13.402816 -4.750626 -4.654428
-1.752346 0.284164 13.539700 -3.915739 -4.681526
-1.720772 0.284164 13.649834 -3.056946 -4.708117
-1.689198 0.284164 13.732535 -2.178865 -4.733947
-1.657624 0.284164 13.787271 -1.286281 -4.758776
-1.626050 0.284164 13.813660 -0.384104 -4.782390
-1.594477 0.284164 13.811478 0.522671 -4.804596
-1.562903 0.284164 13.780659 1.429005 -4.825227
-1.531329 0.284164 13.721297 2.329857 -4.844147
-1.499755 0.284164 13.633645 3.220231 -4.861245
-1.468181 0.284164 13.518110 4.095211 -4.876442
-1.436608 0.284164 13.375254 4.950010 -4.889689
-1.405034 0.284164 13.205790 5.780008 -4.900967
-1.373460 0.284164 13.010568 6.580785 -4.910286
-1.341886 0.284164 12.790580 7.348164 -4.917685
-1.310313 0.284164 12.546942 8.078239 -4.923228
-1.278739 0.284164 12.280890 8.767405 -4.927006
-1.247165 0.284164 11.993767 9.412387 -4.929132
-1.215591 0.284164 11.687016 10.010259 -4.929737
-1.184017 0.284164 11.362166 10.558462 -4.928974
-1.152444 0.284164 11.020820 11.054821 -4.927004
-1.120870 0.284164 10.664645 11.497549 -4.924006
-1.089296 0.284164 10.295357 11.885257 -4.920161
-1.057722 0.284164 9.914710 12.216951 -4.915657
-1.026148 0.284164 9.524482 12.492028 -4.910684
-0.994575 0.284164 9.126466 12.710269 -4.905429
-0.963001 0.284164 8.722456 12.871826 -4.900074
-0.931427 0.284164 8.314233 12.977207 -4.894791
-0.899853 0.284164 7.903559 13.027252 -4.889743
-0.868279 0.284164 7.492164 13.023115 -4.885079
-0.836706 0.284164 7.081736 12.966236 -4.880933
-0.805132 0.284164 6.673915 12.858313 -4.877419
-0.773558 0.284164 6.270281 12.701273 -4.874633
-0.741984 0.284164 5.872354 12.497238 -4.872652
-0.710410 0.284164 5.481582 12.248496 -4.871529
-0.678837 0.284164 5.099336 11.957468 -4.871298
-0.647263 0.284164 4.726915 11.626673 -4.871969
-0.615689 0.284164 4.365531 11.258699 -4.873533
-0.584115 0.284164 4.016319 10.856168 -4.875959
-0.552541 0.284164 3.680326 10.421712 -4.879197
-0.520968 0.284164 3.358521 9.957942 -4.883178
-0.489394 0.284164 3.051788 9.467421 -4.887821
-0.457820 0.284164 2.760932 8.952648 -4.893026
-0.426246 0.284164 2.486680 8.416030 -4.898683
-0.394672 0.284164 2.229685 7.859874 -4.904675
-0.363099 0.284164 1.990530 7.286365 -4.910874
-0.331525 0.284164 1.769730 6.697565 -4.917152
-0.299951 0.284164 1.567736 6.095400 -4.923377
-0.268377 0.284164 1.384942 5.481660 -4.929420
-0.236803 0.284164 1.221686 4.858000 -4.935155
-0.205230 0.284164 1.078259 4.225945 -4.940464
-0.173656 0.284164 0.954902 3.586894 -4.945236
-0.142082 0.284164 0.851815 2.942133 -4.949373
-0.110508 0.284164 0.769161 2.292847 -4.952789
-0.078934 0.284164 0.707064 1.640135 -4.955415
-0.047361 0.284164 0.665615 0.985025 -4.957196
-0.015787 0.284164 0.644877 0.328498 -4.958096
0.015787 0.284164 0.644877 -0.328498 -4.958096
0.047361 0.284164 0.665615 -0.985025 -4.957196
0.078934 0.284164 0.707064 -1.640135 -4.955415
0.110508 0.284164 0.769161 -2.292847 -4.952789
0.142082 0.284164 0.851815 -2.942133 -4.949373
0.173656 0.284164 0.954902 -3.586894 -4.945236
0.205230 0.284164 1.078259 -4.225945 -4.940464
0.236803 0.284164 1.221686 -4.858000 -4.935155
0.268377 0.284164 1.384942 -5.481660 -4.929420
0.299951 0.284164 1.567736 -6.095400 -4.923377
0.331525 0.284164 1.769730 -6.697565 -4.917152
0.363099 0.284164 1.990530 -7.286365 -4.910874
0.394672 0.284164 2.229685 -7.859874 -4.904675
0.426246 0.284164 2.486680 -8.416030 -4.898683
0.457820 0.284164 2.760932 -8.952648 -4.893026
0.489394 0.284164 3.051788 -9.467421 -4.887821
0.520968 0.284164 3.358521 -9.957942 -4.883178
0.552541 0.284164 3.680326 -10.421712 -4.879197
0.584115 0.284164 4.016319 -10.856168 -4.875959
0.615689 0.284164 4.365531 -11.258699 -4.873533
0.647263 0.284164 4.726915 -11.626673 -4.871969
0.678837 0.284164 5.099336 -11.957468 -4.871298
0.710410 0.284164 5.481582 -12.248496 -4.871529
0.741984 0.284164 5.872354 -12.497238 -4.872652
0.773558 0.284164 6.270281 -12.701273 -4.874633
0.805132 0.284164 6.673915 -12.858313 -4.877419
0.836706 0.284164 7.081736 -12.966236 -4.880933
0.868279 0.284164 7.492164 -13.023115 -4.885079
0.899853 0.284164 7.903559 -13.027252 -4.889743
0.931427 0.284164 8.314233 -12.977207 -4.894791
0.963001 0.284164 8.722456 -12.871826 -4.900074
0.994575 0.284164 9.126466 -12.710269 -4.905429
1.026148 0.284164 9.524482 -12.492028 -4.910684
1.057722 0.284164 9.914710 -12.216951 -4.915657
1.089296 0.284164 10.295357 -11.885257 -4.920161
1.120870 0.284164 10.664645 -11.497549 -4.924006
1.152444 0.284164 11.020820 -11.054821 -4.927004
1.184017 0.284164 11.362166 -10.558462 -4.928974
1.215591 0.284164 11.687016 -10.010259 -4.929737
1.247165 0.284164 11.993767 -9.412387 -4.929132
1.278739 0.284164 12.280890 -8.767405 -4.927006
1.310313 0.284164 12.546942 -8.078239 -4.923228
1.341886 0.284164 12.790580 -7.348164 -4.917685
1.373460 0.284164 13.010568 -6.580785 -4.910286
1.405034 0.284164 13.205790 -5.780008 -4.900967
1.436608 0.284164 13.375254 -4.950010 -4.889689
1.468181 0.284164 13.518110 -4.095211 -4.876442
1.499755 0.284164 13.633645 -3.220231 -4.861245
1.531329 0.284164 13.721297 -2.329857 -4.844147
1.562903 0.284164 13.780659 -1.429005 -4.825227
1.594477 0.284164 13.811478 -0.522671 -4.804596
1.626050 0.284164 13.813660 0.384104 -4.782390
1.657624 0.284164 13.787271 1.286281 -4.758776
1.689198 0.284164 13.732535 2.178865 -4.733947
1.720772 0.284164 13.649834 3.056946 -4.708117
1.752346 0.284164 13.539700 3.915739 -4.681526
1.783919 0.284164 13.402816 4.750626 -4.654428
1.815493 0.284164 13.240007 5.557191 -4.627096
1.847067 0.284164 13.052235 6.331256 -4.599812
1.878641 0.284164 12.840587 7.068911 -4.572867
1.910215 0.284164 12.606271 7.766542 -4.546556
1.941788 0.284164 12.350605 8.420856 -4.521174
1.973362 0.284164 12.075002 9.028903 -4.497011
2.004936 0.284164 11.780966 9.588090 -4.474349
2.036510 0.284164 11.470075 10.096196 -4.453456
2.068084 0.284164 11.143972 10.551378 -4.434584
2.099657 0.284164 10.804353 10.952174 -4.417965
2.131231 0.284164 10.452953 11.297507 -4.403806
2.162805 0.284164 10.091534 11.586674 -4.392287
2.194379 0.284164 9.721877 11.819342 -4.383557
2.225953 0.284164 9.345766 11.995534 -4.377733
2.257526 0.284164 8.964978 12.115615 -4.374895
2.289100 0.284164 8.581277 12.180269 -4.375087
2.320674 0.284164 8.196397 12.190482 -4.378317
2.352248 0.284164 7.812037 12.147515 -4.384551
2.383822 0.284164 7.429854 12.052878 -4.393720
2.415395 0.284164 7.051453 11.908306 -4.405715
2.446969 0.284164 6.678379 11.715726 -4.420390
2.478543 0.284164 6.312116 11.477229 -4.437563
2.510117 0.284164 5.954079 11.195043 -4.457021
2.541691 0.284164 5.605611 10.871502 -4.478517
2.573264 0.284164 5.267980 10.509020 -4.501779
2.604838 0.284164 4.942376 10.110059 -4.526509
2.636412 0.284164 4.629912 9.677112 -4.552390
2.667986 0.284164 4.331621 9.212672 -4.579086
2.699560 0.284164 4.048459 8.719214 -4.606251
2.731133 0.284164 3.781304 8.199177 -4.633532
2.762707 0.284164 3.530956 7.654947 -4.660572
2.794281 0.284164 3.298142 7.088843 -4.687016
2.825855 0.284164 3.083519 6.503110 -4.712518
2.857428 0.284164 2.887670 5.899909 -4.736742
2.889002 0.284164 2.711116 5.281312 -4.759368
2.920576 0.284164 2.554309 4.649307 -4.780097
2.952150 0.284164 2.417644 4.005791 -4.798654
2.983724 0.284164 2.301455 3.352581 -4.814794
3.015297 0.284164 2.206021 2.691419 -4.828302
3.046871 0.284164 2.131565 2.023981 -4.839000
3.078445 0.284164 2.078260 1.351885 -4.846744
3.110019 0.284164 2.046229 0.676709 -4.851432

-3.141593 0.315738 2.075811 -0.000000 -5.347551
-3.110019 0.315738 2.086483 -0.675877 -5.345790
-3.078445 0.315738 2.118475 -1.350233 -5.340531
-3.046871 0.315738 2.171715 -2.021530 -5.331843
-3.015297 0.315738 2.246081 -2.688202 -5.319840
-2.983724 0.315738 2.341403 -3.348640 -5.304679
-2.952150 0.315738 2.457457 -4.001178 -5.286559
-2.920576 0.315738 2.593966 -4.644083 -5.265716
-2.889002 0.315738 2.750599 -5.275546 -5.242425
-2.857428 0.315738 2.926964 -5.893676 -5.216988
-2.825855 0.315738 3.122609 -6.496492 -5.189737
-2.794281 0.315738 3.337019 -7.081927 -5.161025
-2.762707 0.315738 3.569610 -7.647822 -5.131227
-2.731133 0.315738 3.819731 -8.191937 -5.100725
-2.699560 0.315738 4.086658 -8.711953 -5.069915
-2.667986 0.315738 4.369591 -9.205483 -5.039190
-2.636412 0.315738 4.667657 -9.670088 -5.008945
-2.604838 0.315738 4.979903 -10.103290 -4.979564
-2.573264 0.315738 5.305299 -10.502592 -4.951419
-2.541691 0.315738 5.642734 -10.865498 -4.924865
-2.510117 0.315738 5.991020 -11.189537 -4.900232
-2.478543 0.315738 6.348891 -11.472290 -4.877825
-2.446969 0.315738 6.715008 -11.711415 -4.857920
-2.415395 0.315738 7.087956 -11.904676 -4.840757
-2.383822 0.315738 7.466255 -12.049973 -4.826539
-2.352248 0.315738 7.848358 -12.145367 -4.815432
-2.320674 0.315738 8.232662 -12.189117 -4.807560
-2.289100 0.315738 8.617512 -12.179701 -4.803005
-2.257526 0.315738 9.001208 -12.115847 -4.801808
-2.225953 0.315738 9.382015 -11.996561 -4.803965
-2.194379 0.315738 9.758171 -11.821147 -4.809432
-2.162805 0.315738 10.127897 -11.589231 -4.818124
-2.131231 0.315738 10.489408 -11.300783 -4.829917
-2.099657 0.315738 10.840922 -10.956126 -4.844651
-2.068084 0.315738 11.180676 -10.555954 -4.862132
-2.036510 0.315738 11.506932 -10.101340 -4.882135
-2.004936 0.315738 11.817994 -9.593738 -4.904410
-1.973362 0.315738 12.112215 -9.034987 -4.928681
-1.941788 0.315738 12.388016 -8.427304 -4.954656
-1.910215 0.315738 12.643891 -7.773279 -4.982026
-1.878641 0.315738 12.878423 -7.075861 -5.010476
-1.847067 0.315738 13.090293 -6.338341 -5.039682
-1.815493 0.315738 13.278290 -5.564333 -5.069321
-1.783919 0.315738 13.441324 -4.757750 -5.099075
-1.752346 0.315738 13.578432 -3.922773 -5.128633
-1.720772 0.315738 13.688785 -3.063820 -5.157697
-1.689198 0.315738 13.771701 -2.185515 -5.185984
-1.657624 0.315738 13.826642 -1.292646 -5.213233
-1.626050 0.315738 13.853227 -0.390130 -5.239206
-1.594477 0.315738 13.851229 0.517030 -5.263690
-1.562903 0.315738 13.820582 1.423790 -5.286501
-1.531329 0.315738 13.761377 2.325101 -5.307485
-1.499755 0.315738 13.673867 3.215958 -5.326520
-1.468181 0.315738 13.558459 4.091439 -5.343518
-1.436608 0.315738 13.415715 4.946748 -5.358420
-1.405034 0.315738 13.246345 5.777257 -5.371204
-1.373460 0.315738 13.051203 6.578540 -5.381878
-1.341886 0.315738 12.831278 7.346411 -5.390480
-1.310313 0.315738 12.587688 8.076957 -5.397079
-1.278739 0.315738 12.321668 8.766569 -5.401771
-1.247165 0.315738 12.034565 9.411965 -5.404676
-1.215591 0.315738 11.727822 10.010214 -5.405937
-1.184017 0.315738 11.402968 10.558754 -5.405715
-1.152444 0.315738 11.061608 11.055404 -5.404187
-1.120870 0.315738 10.705411 11.498377 -5.401543
-1.089296 0.315738 10.336093 11.886282 -5.397981
-1.057722 0.315738 9.955411 12.218122 -5.393704
-1.026148 0.315738 9.565145 12.493297 -5.388917
-0.994575 0.315738 9.167088 12.711588 -5.383821
-0.963001 0.315738 8.763036 12.873149 -5.378614
-0.931427 0.315738 8.354771 12.978489 -5.373483
-0.899853 0.315738 7.944058 13.028453 -5.368604
-0.868279 0.315738 7.532627 13.024199 -5.364138
-0.836706 0.315738 7.122167 12.967170 -5.360229
-0.805132 0.315738 6.714319 12.859069 -5.357001
-0.773558 0.315738 6.310665 12.701828 -5.354558
-0.741984 0.315738 5.912724 12.497576 -5.352981
-0.710410 0.315738 5.521944 12.248607 -5.352328
-0.678837 0.315738 5.139699 11.957345 -5.352635
-0.647263 0.315738 4.767285 11.626317 -5.353911
-0.615689 0.315738 4.405916 11.258114 -5.356145
-0.584115 0.315738 4.056726 10.855365 -5.359301
-0.552541 0.315738 3.720762 10.420708 -5.363326
-0.520968 0.315738 3.398991 9.956755 -5.368143
-0.489394 0.315738 3.092298 9.466077 -5.373659
-0.457820 0.315738 2.801486 8.951173 -5.379768
-0.426246 0.315738 2.527283 8.414455 -5.386347
-0.394672 0.315738 2.270339 7.858230 -5.393267
-0.363099 0.315738 2.031237 7.284687 -5.400389
-0.331525 0.315738 1.810489 6.695887 -5.407571
-0.299951 0.315738 1.608548 6.093755 -5.414668
-0.268377 0.315738 1.425805 5.480083 -5.421538
-0.236803 0.315738 1.262598 4.856523 -5.428044
-0.205230 0.315738 1.119215 4.224598 -5.434055
-0.173656 0.315738 0.995898 3.585704 -5.439451
-0.142082 0.315738 0.892846 2.941125 -5.444123
-0.110508 0.315738 0.810220 2.292041 -5.447979
-0.078934 0.315738 0.748145 1.639547 -5.450940
-0.047361 0.315738 0.706712 0.984668 -5.452947
-0.015787 0.315738 0.685981 0.328378 -5.453961
0.015787 0.315738 0.685981 -0.328378 -5.453961
